-0.05151367187500
-0.05212402343750
-0.11413574218750
-0.04821777343750
-0.06555175781250
0.03039550781250
-0.09716796875000
0.06213378906250
-0.05261230468750
0.04077148437500
0.06579589843750
0.08166503906250
0.03784179687500
0.06408691406250
-0.01782226562500
-0.03100585937500
0.03100585937500
0.05566406250000
0.07470703125000
0.01831054687500
-0.09948730468750
-0.00561523437500
0.04052734375000
-0.01684570312500
-0.04626464843750
-0.06054687500000
0.05969238281250
-0.07617187500000
0.01208496093750
0.04211425781250
-0.10632324218750
-0.00488281250000
-0.08557128906250
-0.01916503906250
-0.07446289062500
0.08068847656250
-0.00183105468750
-0.07128906250000
0.02685546875000
-0.10534667968750
-0.04797363281250
-0.04565429687500
-0.02319335937500
-0.05981445312500
0.08825683593750
-0.08654785156250
0.00634765625000
-0.08239746093750
-0.04016113281250
-0.07519531250000
-0.09838867187500
-0.07751464843750
-0.06555175781250
0.10241699218750
-0.06811523437500
-0.07885742187500
0.04809570312500
-0.14160156250000
0.05163574218750
-0.00463867187500
-0.00573730468750
-0.00805664062500
0.08422851562500
0.01269531250000
0.01184082031250
0.05444335937500
0.00451660156250
0.02307128906250
0.04174804687500
0.00451660156250
0.00720214843750
-0.00781250000000
-0.07348632812500
0.08178710937500
-0.00817871093750
-0.11169433593750
0.00598144531250
-0.03137207031250
0.01440429687500
0.02514648437500
-0.02612304687500
-0.03540039062500
-0.01379394531250
0.04565429687500
-0.04663085937500
0.01403808593750
-0.03063964843750
-0.02709960937500
0.01293945312500
-0.05590820312500
-0.07556152343750
-0.00939941406250
0.01989746093750
0.02722167968750
-0.02807617187500
0.06591796875000
-0.01562500000000
0.06103515625000
0.03430175781250
-0.06018066406250
-0.07409667968750
0.00451660156250
-0.11767578125000
0.05407714843750
0.04040527343750
-0.04833984375000
-0.02331542968750
0.06250000000000
-0.05920410156250
-0.01440429687500
-0.06042480468750
-0.06420898437500
0.06774902343750
-0.05334472656250
-0.11889648437500
0.10168457031250
0.01477050781250
0.00329589843750
0.03088378906250
-0.02636718750000
0.00109863281250
0.04846191406250
0.03540039062500
-0.05175781250000
0.02270507812500
0.07604980468750
-0.03723144531250
0.06665039062500
0.01306152343750
0.05883789062500
-0.03674316406250
-0.07788085937500
0.00134277343750
0.07824707031250
-0.00988769531250
0.04870605468750
0.02685546875000
-0.04321289062500
-0.01953125000000
-0.02844238281250
0.01977539062500
0.06103515625000
0.00170898437500
0.08837890625000
0.06347656250000
-0.07885742187500
0.00585937500000
-0.06286621093750
0.05383300781250
0.00109863281250
-0.09228515625000
-0.06323242187500
-0.04931640625000
0.07104492187500
0.06994628906250
0.03552246093750
-0.03857421875000
-0.01928710937500
0.10180664062500
0.00854492187500
-0.05114746093750
0.00695800781250
-0.07910156250000
0.00646972656250
-0.03369140625000
-0.13415527343750
0.00439453125000
0.05493164062500
0.03002929687500
0.01391601562500
-0.03637695312500
0.02563476562500
0.02514648437500
-0.02416992187500
-0.00134277343750
0.00488281250000
-0.04748535156250
-0.06628417968750
-0.07202148437500
0.02795410156250
0.03186035156250
-0.01562500000000
-0.00659179687500
-0.07141113281250
0.01489257812500
-0.01159667968750
0.04980468750000
0.05493164062500
0.04907226562500
-0.05908203125000
0.07299804687500
0.01330566406250
-0.05444335937500
0.07482910156250
-0.00793457031250
0.06640625000000
0.02404785156250
-0.01208496093750
-0.08325195312500
0.02209472656250
0.01660156250000
-0.01049804687500
0.07568359375000
0.03161621093750
-0.09753417968750
-0.03051757812500
-0.04675292968750
-0.01928710937500
0.04565429687500
-0.08520507812500
0.04345703125000
0.05395507812500
0.06457519531250
0.00158691406250
-0.01428222656250
-0.06945800781250
0.06494140625000
-0.00659179687500
0.07690429687500
0.03564453125000
0.07495117187500
-0.03674316406250
-0.10144042968750
-0.04907226562500
-0.06286621093750
-0.05944824218750
0.04626464843750
-0.06530761718750
-0.02539062500000
-0.05676269531250
0.06494140625000
-0.07336425781250
-0.02111816406250
-0.01574707031250
0.06347656250000
-0.07617187500000
0.00683593750000
-0.03112792968750
0.04870605468750
-0.06115722656250
-0.00817871093750
0.06811523437500
-0.08447265625000
0.03271484375000
0.06457519531250
0.03955078125000
-0.08105468750000
-0.03674316406250
0.02880859375000
-0.10034179687500
-0.03698730468750
0.03784179687500
-0.04101562500000
0.02221679687500
-0.01062011718750
0.04687500000000
-0.00512695312500
-0.04638671875000
0.05773925781250
0.09924316406250
0.01538085937500
-0.07702636718750
-0.05822753906250
-0.06286621093750
-0.00183105468750
0.07849121093750
0.02978515625000
0.01171875000000
0.01196289062500
-0.03637695312500
-0.05004882812500
-0.03564453125000
-0.03918457031250
0.08972167968750
0.03771972656250
-0.07727050781250
0.07604980468750
0.08862304687500
-0.09216308593750
0.05944824218750
0.08276367187500
-0.08593750000000
-0.02331542968750
0.05041503906250
0.02380371093750
-0.07666015625000
0.03332519531250
0.02282714843750
0.05346679687500
0.06799316406250
-0.01806640625000
0.00695800781250
-0.06567382812500
0.04919433593750
-0.03479003906250
-0.07141113281250
-0.03271484375000
-0.00329589843750
0.01904296875000
0.04736328125000
0.00231933593750
-0.06359863281250
-0.00769042968750
0.03759765625000
0.08288574218750
0.03405761718750
0.07580566406250
-0.01342773437500
-0.01904296875000
0.06909179687500
0.06091308593750
-0.00646972656250
-0.02795410156250
0.08154296875000
-0.01269531250000
0.03649902343750
0.03356933593750
0.00256347656250
0.01257324218750
-0.00329589843750
-0.00598144531250
-0.04797363281250
0.04492187500000
0.04797363281250
0.02734375000000
0.02294921875000
-0.01721191406250
0.01135253906250
0.06689453125000
0.04492187500000
0.05773925781250
-0.00219726562500
-0.05590820312500
-0.03881835937500
0.02636718750000
-0.07336425781250
0.05566406250000
0.05834960937500
0.01794433593750
0.02612304687500
-0.07202148437500
0.03137207031250
-0.03332519531250
0.05712890625000
-0.07739257812500
-0.04919433593750
0.03222656250000
0.03747558593750
-0.07482910156250
-0.08068847656250
-0.08178710937500
-0.08105468750000
0.00231933593750
-0.07092285156250
-0.07922363281250
0.02502441406250
0.01904296875000
0.00744628906250
0.06030273437500
-0.00415039062500
0.01452636718750
-0.04101562500000
-0.03625488281250
-0.08190917968750
0.06848144531250
0.00195312500000
-0.02331542968750
-0.07727050781250
0.01940917968750
-0.05371093750000
0.06896972656250
0.04394531250000
0.03466796875000
0.08007812500000
0.03930664062500
-0.01904296875000
-0.03576660156250
0.01489257812500
-0.02917480468750
0.04199218750000
-0.00219726562500
0.04907226562500
0.06701660156250
-0.05017089843750
0.05664062500000
-0.07763671875000
0.01684570312500
0.08300781250000
-0.01635742187500
-0.03881835937500
-0.00097656250000
-0.07592773437500
-0.04028320312500
0.02758789062500
-0.03186035156250
0.06103515625000
0.07299804687500
-0.08300781250000
-0.02111816406250
-0.07495117187500
-0.07971191406250
-0.03405761718750
0.04125976562500
0.06713867187500
0.08227539062500
0.04785156250000
-0.00573730468750
-0.04663085937500
0.04846191406250
0.04638671875000
-0.07958984375000
-0.05236816406250
0.07983398437500
0.07104492187500
-0.07849121093750
0.07287597656250
0.07910156250000
0.04895019531250
0.08227539062500
-0.04138183593750
-0.03161621093750
-0.07324218750000
0.05859375000000
0.07653808593750
0.01989746093750
0.05932617187500
-0.00292968750000
0.05285644531250
-0.03100585937500
0.06884765625000
-0.07714843750000
-0.04162597656250
-0.00219726562500
-0.04675292968750
0.04846191406250
-0.00012207031250
0.01721191406250
0.01672363281250
0.02832031250000
0.05822753906250
-0.01757812500000
-0.01977539062500
-0.08032226562500
-0.03894042968750
-0.00073242187500
0.07800292968750
0.08129882812500
0.01696777343750
-0.06127929687500
0.05090332031250
-0.05212402343750
0.00854492187500
-0.05261230468750
-0.03344726562500
0.06994628906250
0.05480957031250
0.00817871093750
-0.05871582031250
0.00097656250000
-0.03295898437500
0.03637695312500
-0.06018066406250
-0.06799316406250
0.01586914062500
-0.01904296875000
0.06970214843750
-0.04882812500000
-0.01696777343750
0.01257324218750
-0.07666015625000
0.07189941406250
0.02221679687500
0.00097656250000
0.02685546875000
-0.03344726562500
0.02172851562500
-0.02355957031250
-0.04736328125000
0.01635742187500
-0.05676269531250
-0.06225585937500
-0.06457519531250
-0.00891113281250
-0.04113769531250
0.05493164062500
0.00964355468750
0.07922363281250
-0.04138183593750
0.03430175781250
-0.08251953125000
0.03649902343750
0.02368164062500
-0.04357910156250
-0.02514648437500
0.00109863281250
-0.05712890625000
-0.03002929687500
0.05761718750000
-0.08349609375000
-0.05444335937500
0.01452636718750
-0.03833007812500
-0.01220703125000
-0.01489257812500
-0.05981445312500
-0.01745605468750
-0.05480957031250
0.04968261718750
0.04296875000000
-0.04626464843750
-0.03491210937500
-0.00695800781250
-0.06274414062500
-0.01965332031250
-0.03076171875000
-0.07409667968750
-0.03552246093750
-0.05786132812500
-0.03686523437500
-0.06494140625000
0.00146484375000
0.02111816406250
0.05249023437500
-0.00708007812500
-0.05615234375000
-0.08251953125000
-0.04943847656250
-0.01062011718750
-0.07995605468750
-0.08190917968750
-0.07275390625000
0.02526855468750
-0.07666015625000
-0.02221679687500
0.02075195312500
0.05407714843750
0.07006835937500
0.06677246093750
-0.06225585937500
-0.06408691406250
-0.06604003906250
-0.05456542968750
-0.04565429687500
-0.02539062500000
-0.07275390625000
-0.02844238281250
0.07470703125000
-0.04406738281250
-0.03771972656250
-0.07592773437500
-0.04797363281250
-0.00280761718750
0.01416015625000
0.05603027343750
0.03894042968750
-0.02539062500000
0.03942871093750
0.04248046875000
-0.00219726562500
0.05187988281250
0.06701660156250
0.06689453125000
-0.04016113281250
-0.00695800781250
-0.07580566406250
-0.04650878906250
-0.07250976562500
0.07897949218750
-0.07568359375000
-0.07287597656250
0.07885742187500
0.00891113281250
-0.07946777343750
-0.03063964843750
0.01269531250000
-0.03161621093750
-0.07250976562500
0.05773925781250
0.06127929687500
-0.08679199218750
-0.02465820312500
-0.05664062500000
0.04223632812500
-0.06079101562500
0.01477050781250
-0.08178710937500
-0.05700683593750
0.02966308593750
0.06030273437500
-0.04284667968750
-0.00769042968750
-0.01794433593750
0.09179687500000
0.00036621093750
-0.06921386718750
-0.00292968750000
-0.06201171875000
-0.08093261718750
0.04089355468750
-0.03625488281250
0.02832031250000
0.06262207031250
0.07592773437500
-0.01770019531250
-0.05346679687500
-0.06115722656250
-0.02600097656250
-0.00378417968750
0.00598144531250
-0.00732421875000
0.04162597656250
-0.05383300781250
-0.00085449218750
0.08398437500000
-0.06921386718750
0.01843261718750
0.08117675781250
0.03942871093750
-0.00219726562500
0.09008789062500
0.01367187500000
0.07312011718750
-0.05053710937500
-0.02062988281250
-0.05419921875000
-0.05322265625000
-0.04479980468750
-0.05224609375000
0.08947753906250
-0.04016113281250
-0.03710937500000
-0.05798339843750
-0.02124023437500
0.08593750000000
-0.00903320312500
0.03308105468750
0.08984375000000
-0.00720214843750
0.04199218750000
-0.03063964843750
-0.05712890625000
-0.03063964843750
0.03796386718750
0.01684570312500
0.06750488281250
0.09558105468750
-0.05371093750000
0.09631347656250
0.00952148437500
0.00878906250000
-0.02966308593750
-0.02136230468750
-0.01611328125000
-0.04931640625000
-0.00939941406250
0.03552246093750
0.04943847656250
-0.04040527343750
-0.00830078125000
-0.02966308593750
-0.08068847656250
-0.00549316406250
-0.02575683593750
0.02136230468750
-0.03710937500000
-0.08666992187500
-0.01538085937500
0.03112792968750
0.00805664062500
0.05834960937500
-0.03125000000000
0.06420898437500
0.05078125000000
-0.06665039062500
0.01208496093750
-0.05895996093750
-0.07604980468750
0.03515625000000
0.03771972656250
0.01330566406250
0.05407714843750
0.04797363281250
-0.02160644531250
-0.04003906250000
0.04028320312500
-0.01855468750000
0.05676269531250
0.05981445312500
-0.03845214843750
-0.02587890625000
-0.05773925781250
-0.05798339843750
-0.03674316406250
-0.08374023437500
-0.06372070312500
0.03662109375000
-0.02905273437500
0.02050781250000
0.05065917968750
0.01464843750000
0.09570312500000
-0.04724121093750
-0.06640625000000
-0.01062011718750
0.01123046875000
-0.05126953125000
-0.00891113281250
0.00451660156250
0.05541992187500
-0.08410644531250
-0.06042480468750
-0.07421875000000
-0.02905273437500
-0.07385253906250
-0.05371093750000
-0.06604003906250
0.03564453125000
0.08544921875000
-0.01428222656250
0.13391113281250
-0.07482910156250
-0.00024414062500
-0.07214355468750
0.02587890625000
0.04711914062500
-0.04565429687500
0.02075195312500
-0.05334472656250
-0.03930664062500
-0.03991699218750
-0.03125000000000
0.00573730468750
-0.07153320312500
-0.00061035156250
-0.05700683593750
0.00268554687500
0.08081054687500
-0.05151367187500
0.00488281250000
-0.07092285156250
-0.07104492187500
-0.11193847656250
0.04101562500000
-0.02612304687500
0.07897949218750
0.09167480468750
-0.05627441406250
0.03271484375000
0.06311035156250
-0.03332519531250
-0.05407714843750
0.00878906250000
-0.03051757812500
-0.01733398437500
0.07409667968750
-0.02734375000000
-0.06103515625000
0.03637695312500
-0.04394531250000
-0.02673339843750
-0.07446289062500
0.06030273437500
0.04345703125000
-0.03930664062500
0.02673339843750
-0.07641601562500
0.06262207031250
0.05139160156250
-0.05541992187500
0.09484863281250
0.09289550781250
-0.01318359375000
0.05444335937500
0.07580566406250
0.05590820312500
-0.07409667968750
-0.05249023437500
-0.03930664062500
0.06616210937500
0.08581542968750
0.00927734375000
-0.04882812500000
0.05273437500000
-0.06811523437500
0.03222656250000
-0.01416015625000
-0.05920410156250
0.07617187500000
0.07470703125000
0.00000000000000
0.05798339843750
0.02819824218750
0.00585937500000
0.02600097656250
-0.05590820312500
0.09350585937500
0.08764648437500
0.10009765625000
0.04870605468750
0.09094238281250
-0.03002929687500
-0.09008789062500
-0.00317382812500
-0.06896972656250
0.05187988281250
0.06835937500000
0.06958007812500
-0.07507324218750
0.02404785156250
0.06652832031250
-0.00219726562500
-0.03210449218750
-0.05957031250000
-0.00183105468750
-0.04296875000000
-0.05651855468750
-0.00134277343750
0.07910156250000
-0.06237792968750
-0.08105468750000
-0.01452636718750
0.01306152343750
0.06359863281250
0.01855468750000
-0.05627441406250
0.08264160156250
0.04138183593750
0.03527832031250
-0.05432128906250
-0.06164550781250
0.02758789062500
-0.05517578125000
-0.04016113281250
0.07238769531250
0.09643554687500
0.07543945312500
-0.04833984375000
-0.04284667968750
0.05407714843750
-0.04089355468750
-0.09143066406250
-0.05139160156250
-0.02185058593750
-0.01867675781250
-0.01696777343750
-0.03186035156250
-0.04528808593750
0.01562500000000
0.05065917968750
-0.03210449218750
-0.06604003906250
-0.00378417968750
-0.05883789062500
0.02636718750000
-0.05944824218750
-0.03881835937500
0.06701660156250
-0.02636718750000
0.04028320312500
-0.01000976562500
-0.02624511718750
-0.01696777343750
0.03112792968750
0.03210449218750
-0.06811523437500
-0.06958007812500
-0.02294921875000
-0.03649902343750
0.06274414062500
-0.03186035156250
-0.00720214843750
0.05822753906250
-0.07324218750000
-0.08911132812500
-0.06628417968750
0.05505371093750
-0.01403808593750
-0.08251953125000
-0.05676269531250
-0.02758789062500
0.01025390625000
-0.01416015625000
-0.11462402343750
-0.05029296875000
-0.08410644531250
0.06140136718750
-0.07409667968750
0.03161621093750
-0.03332519531250
0.06652832031250
-0.02160644531250
-0.06494140625000
0.05786132812500
0.00170898437500
-0.06896972656250
0.04833984375000
-0.06127929687500
-0.04382324218750
0.04333496093750
0.06860351562500
0.02136230468750
-0.05920410156250
0.00842285156250
0.01696777343750
-0.09313964843750
-0.03417968750000
-0.02917480468750
-0.04919433593750
0.01074218750000
0.00708007812500
0.01220703125000
-0.01000976562500
-0.04296875000000
-0.01892089843750
0.12280273437500
-0.10131835937500
-0.04772949218750
-0.06420898437500
0.07861328125000
-0.10461425781250
-0.04357910156250
-0.01440429687500
0.02844238281250
-0.00891113281250
0.07202148437500
0.01342773437500
0.09179687500000
-0.00256347656250
0.08532714843750
-0.01464843750000
0.06054687500000
-0.04467773437500
0.06140136718750
-0.00891113281250
-0.05017089843750
0.02856445312500
-0.00878906250000
0.00646972656250
-0.01586914062500
0.02172851562500
-0.04663085937500
-0.04248046875000
-0.09265136718750
0.05419921875000
-0.07995605468750
-0.02819824218750
-0.02221679687500
0.00549316406250
-0.05249023437500
-0.04772949218750
-0.01220703125000
-0.05004882812500
0.02258300781250
-0.04931640625000
0.06115722656250
0.05749511718750
-0.06445312500000
0.05688476562500
0.06237792968750
0.02832031250000
-0.05187988281250
0.00793457031250
0.02844238281250
0.04699707031250
-0.04675292968750
-0.04968261718750
-0.01635742187500
-0.03686523437500
0.06921386718750
-0.07397460937500
-0.05126953125000
-0.03735351562500
0.04077148437500
0.02868652343750
0.01794433593750
-0.00476074218750
-0.00207519531250
-0.03283691406250
-0.03625488281250
0.00720214843750
-0.00622558593750
-0.02099609375000
-0.03430175781250
-0.00512695312500
-0.06518554687500
-0.07250976562500
0.12243652343750
0.05273437500000
-0.03088378906250
0.13134765625000
-0.07556152343750
-0.07373046875000
0.02929687500000
0.02368164062500
0.04284667968750
-0.01794433593750
0.04309082031250
0.06677246093750
0.05297851562500
0.01391601562500
0.02673339843750
0.08020019531250
-0.05419921875000
0.05761718750000
-0.05432128906250
0.02343750000000
0.07507324218750
0.01037597656250
-0.07043457031250
0.06237792968750
-0.07446289062500
0.04528808593750
-0.06225585937500
-0.04248046875000
0.04724121093750
-0.04736328125000
0.02050781250000
-0.04418945312500
0.03686523437500
0.05541992187500
-0.04113769531250
-0.10253906250000
0.01879882812500
0.05139160156250
-0.03173828125000
0.05249023437500
-0.04235839843750
-0.07971191406250
-0.03259277343750
-0.01818847656250
-0.06713867187500
-0.01550292968750
-0.13208007812500
0.03283691406250
-0.04357910156250
0.06127929687500
0.03234863281250
0.11437988281250
0.00939941406250
0.00854492187500
0.08886718750000
0.00122070312500
0.07202148437500
0.07055664062500
0.03552246093750
-0.03344726562500
0.04809570312500
-0.07885742187500
-0.07141113281250
0.05737304687500
0.05480957031250
-0.05993652343750
0.05859375000000
0.04724121093750
-0.01098632812500
-0.00952148437500
0.01159667968750
0.05310058593750
-0.00732421875000
-0.02343750000000
0.08691406250000
0.06518554687500
-0.09265136718750
0.04077148437500
-0.02038574218750
0.02612304687500
-0.08435058593750
-0.04150390625000
0.07165527343750
0.03161621093750
0.00671386718750
-0.04833984375000
0.02905273437500
0.09875488281250
-0.04248046875000
-0.06091308593750
0.01025390625000
0.01135253906250
0.09509277343750
-0.06896972656250
-0.04980468750000
0.04431152343750
0.03808593750000
-0.03503417968750
-0.02917480468750
0.08105468750000
0.10144042968750
0.05090332031250
0.01232910156250
-0.04919433593750
0.03991699218750
-0.07653808593750
-0.03479003906250
-0.09729003906250
-0.03417968750000
-0.00012207031250
-0.06542968750000
0.07446289062500
-0.00280761718750
0.05676269531250
-0.04309082031250
-0.09667968750000
-0.06530761718750
-0.03283691406250
0.09326171875000
0.00317382812500
-0.05065917968750
-0.02600097656250
-0.01184082031250
-0.02343750000000
0.00903320312500
-0.01550292968750
-0.03674316406250
-0.01794433593750
-0.00756835937500
0.01489257812500
-0.03796386718750
0.04833984375000
-0.05480957031250
-0.08288574218750
0.08435058593750
-0.00036621093750
0.09167480468750
-0.01135253906250
0.07507324218750
0.02966308593750
0.00598144531250
0.05798339843750
-0.04443359375000
0.02246093750000
0.10034179687500
-0.02880859375000
0.08764648437500
-0.06945800781250
-0.03173828125000
0.05871582031250
-0.10241699218750
0.03967285156250
0.07556152343750
0.05273437500000
0.00000000000000
0.05761718750000
0.05358886718750
0.00634765625000
-0.04553222656250
-0.00268554687500
0.07116699218750
-0.08947753906250
0.05554199218750
0.05737304687500
-0.05468750000000
-0.06970214843750
-0.12268066406250
-0.07214355468750
-0.06298828125000
0.03369140625000
0.07983398437500
0.04882812500000
0.08337402343750
0.04479980468750
0.02954101562500
-0.03198242187500
-0.01098632812500
-0.03955078125000
-0.05773925781250
0.10754394531250
0.08203125000000
0.06787109375000
0.03674316406250
0.02209472656250
-0.10632324218750
0.00231933593750
0.02844238281250
-0.02453613281250
-0.05078125000000
0.07055664062500
-0.01245117187500
0.07873535156250
0.04260253906250
0.04528808593750
-0.05310058593750
-0.01708984375000
-0.03771972656250
0.04553222656250
0.06933593750000
0.06091308593750
0.02575683593750
-0.00244140625000
0.03845214843750
-0.01037597656250
-0.02612304687500
-0.06506347656250
0.03747558593750
0.09289550781250
0.04406738281250
0.10656738281250
-0.04589843750000
0.01672363281250
-0.01403808593750
0.09509277343750
0.00915527343750
-0.08312988281250
-0.08764648437500
-0.11486816406250
0.05578613281250
0.00048828125000
-0.01904296875000
-0.02392578125000
-0.03967285156250
0.14147949218750
-0.02429199218750
0.06713867187500
0.01647949218750
0.07409667968750
0.01330566406250
-0.06274414062500
-0.05468750000000
-0.04846191406250
-0.05249023437500
0.08410644531250
0.02856445312500
0.09301757812500
0.00012207031250
-0.05334472656250
0.00024414062500
0.07006835937500
-0.06884765625000
-0.01452636718750
0.11291503906250
0.06652832031250
0.06530761718750
0.04833984375000
-0.09619140625000
0.00793457031250
-0.00122070312500
0.02270507812500
0.05053710937500
-0.09240722656250
0.03979492187500
0.00549316406250
-0.08166503906250
0.08251953125000
-0.01049804687500
0.04235839843750
0.05139160156250
0.08496093750000
0.09448242187500
-0.03039550781250
0.10375976562500
0.05712890625000
0.04309082031250
0.03051757812500
-0.08068847656250
-0.00695800781250
0.08764648437500
-0.08007812500000
-0.01684570312500
-0.09387207031250
-0.08544921875000
-0.00854492187500
0.01904296875000
-0.01635742187500
-0.03503417968750
0.04089355468750
-0.01086425781250
0.02697753906250
0.01477050781250
0.06445312500000
0.02758789062500
-0.01745605468750
-0.08532714843750
0.01220703125000
-0.08215332031250
0.04016113281250
0.04150390625000
-0.04052734375000
0.11804199218750
0.00000000000000
0.03857421875000
0.02246093750000
-0.02575683593750
0.03320312500000
-0.02197265625000
-0.00317382812500
-0.02758789062500
-0.05456542968750
-0.04187011718750
-0.02209472656250
0.05810546875000
0.04736328125000
0.07385253906250
0.06591796875000
-0.02050781250000
0.08068847656250
0.08862304687500
0.05981445312500
-0.07861328125000
-0.08557128906250
-0.07263183593750
-0.01647949218750
-0.00793457031250
-0.01611328125000
0.08410644531250
0.03454589843750
-0.05297851562500
0.04846191406250
-0.09594726562500
0.03369140625000
0.03112792968750
0.04772949218750
-0.02380371093750
0.05627441406250
-0.05822753906250
-0.05786132812500
-0.00207519531250
0.05920410156250
-0.08776855468750
-0.02966308593750
-0.01367187500000
0.09655761718750
-0.00402832031250
0.06726074218750
-0.07275390625000
-0.06994628906250
-0.08593750000000
0.07312011718750
-0.00952148437500
0.00109863281250
0.02563476562500
-0.01586914062500
0.05944824218750
0.01538085937500
-0.06054687500000
-0.08129882812500
0.02282714843750
-0.01428222656250
-0.03027343750000
-0.07177734375000
0.07043457031250
0.01940917968750
0.03088378906250
0.05603027343750
0.08020019531250
-0.00170898437500
0.06555175781250
-0.05407714843750
0.08386230468750
0.08288574218750
0.08435058593750
-0.01928710937500
-0.04638671875000
-0.02624511718750
-0.08605957031250
0.09448242187500
0.02246093750000
-0.00341796875000
0.02612304687500
0.00146484375000
0.02490234375000
-0.01623535156250
-0.00927734375000
-0.02038574218750
-0.06359863281250
0.08642578125000
0.07861328125000
0.04809570312500
0.06896972656250
0.06762695312500
-0.08190917968750
0.05883789062500
-0.05932617187500
-0.01196289062500
0.05773925781250
-0.06262207031250
-0.06433105468750
-0.03894042968750
0.01831054687500
-0.04968261718750
-0.02294921875000
-0.04980468750000
0.08227539062500
0.06677246093750
-0.02197265625000
0.07421875000000
-0.04150390625000
-0.05725097656250
-0.11132812500000
-0.06994628906250
-0.01916503906250
0.00378417968750
0.01940917968750
0.05041503906250
0.07006835937500
0.05126953125000
-0.07861328125000
-0.06616210937500
-0.01318359375000
-0.04956054687500
-0.00366210937500
-0.04357910156250
0.03332519531250
-0.03198242187500
0.06420898437500
-0.06091308593750
-0.06384277343750
0.03271484375000
-0.07653808593750
-0.04724121093750
-0.05920410156250
0.08068847656250
-0.03771972656250
-0.07934570312500
-0.04418945312500
0.01794433593750
0.00671386718750
-0.01843261718750
-0.03479003906250
-0.04479980468750
-0.00793457031250
0.01611328125000
0.05175781250000
0.05126953125000
-0.08020019531250
-0.04626464843750
0.03710937500000
-0.06359863281250
0.04418945312500
0.00402832031250
0.05773925781250
0.06872558593750
0.08789062500000
-0.11340332031250
-0.02307128906250
0.01098632812500
-0.07495117187500
-0.01318359375000
0.07275390625000
0.09924316406250
0.01660156250000
-0.08142089843750
-0.06726074218750
0.09753417968750
0.01745605468750
0.08715820312500
-0.02954101562500
0.02905273437500
0.01904296875000
0.03234863281250
-0.09411621093750
0.00097656250000
-0.06652832031250
0.01965332031250
0.06005859375000
-0.02185058593750
0.06262207031250
-0.03222656250000
-0.03002929687500
-0.00781250000000
0.02636718750000
0.00622558593750
-0.00488281250000
0.04321289062500
-0.02075195312500
-0.07910156250000
0.03637695312500
0.04882812500000
-0.02551269531250
0.08618164062500
0.02734375000000
-0.04504394531250
0.04504394531250
-0.07287597656250
0.02893066406250
0.05676269531250
0.04711914062500
-0.00769042968750
-0.00366210937500
0.03723144531250
-0.04919433593750
0.03515625000000
0.02099609375000
-0.07421875000000
0.03649902343750
-0.09289550781250
-0.02722167968750
-0.03039550781250
-0.04785156250000
0.03027343750000
0.04211425781250
-0.00012207031250
0.06115722656250
0.00781250000000
0.05322265625000
-0.03271484375000
-0.07446289062500
0.11901855468750
0.02014160156250
-0.03149414062500
-0.07458496093750
0.03039550781250
0.05639648437500
0.08496093750000
-0.05334472656250
-0.00903320312500
0.07153320312500
-0.05712890625000
-0.08715820312500
-0.00012207031250
-0.02795410156250
0.01867675781250
-0.06115722656250
-0.03198242187500
0.01257324218750
0.08374023437500
-0.06542968750000
0.09045410156250
-0.02453613281250
-0.03466796875000
0.07739257812500
-0.07165527343750
-0.08825683593750
0.01843261718750
0.03869628906250
0.05456542968750
-0.01477050781250
0.06994628906250
-0.00354003906250
-0.04467773437500
0.05456542968750
-0.04943847656250
-0.06042480468750
-0.05358886718750
-0.07775878906250
-0.01696777343750
0.00805664062500
-0.02636718750000
0.01135253906250
0.06457519531250
0.06347656250000
0.07617187500000
-0.00061035156250
0.04602050781250
0.03967285156250
0.07751464843750
-0.03698730468750
0.05847167968750
0.00939941406250
0.03222656250000
-0.02258300781250
0.08312988281250
0.11608886718750
0.00634765625000
0.01379394531250
-0.02404785156250
0.00183105468750
-0.05761718750000
0.05139160156250
-0.00695800781250
-0.01611328125000
0.05761718750000
-0.07678222656250
0.01330566406250
0.01098632812500
-0.03845214843750
-0.03173828125000
-0.05371093750000
0.05712890625000
0.08569335937500
0.06018066406250
-0.01379394531250
-0.07983398437500
-0.06298828125000
0.03149414062500
-0.04321289062500
-0.04895019531250
0.03930664062500
-0.07043457031250
-0.00988769531250
0.04138183593750
0.09716796875000
-0.07714843750000
-0.04467773437500
-0.04907226562500
-0.04577636718750
0.03283691406250
0.03527832031250
0.08532714843750
-0.06884765625000
0.03747558593750
-0.00939941406250
0.08349609375000
-0.00415039062500
0.01660156250000
0.03161621093750
-0.03784179687500
0.04370117187500
0.04895019531250
0.05493164062500
0.06396484375000
-0.04101562500000
-0.03247070312500
-0.04235839843750
0.00805664062500
-0.04809570312500
0.06311035156250
0.03527832031250
-0.11376953125000
0.05065917968750
-0.09521484375000
0.09118652343750
-0.01708984375000
-0.07458496093750
-0.07434082031250
-0.08605957031250
-0.06555175781250
-0.05664062500000
0.02014160156250
0.02563476562500
0.01098632812500
-0.10791015625000
-0.07092285156250
-0.01928710937500
0.07885742187500
0.02416992187500
-0.00195312500000
0.01928710937500
-0.00024414062500
0.04724121093750
0.09313964843750
-0.06335449218750
0.03503417968750
-0.00097656250000
0.01904296875000
0.05944824218750
-0.00976562500000
0.07299804687500
-0.07873535156250
0.01049804687500
-0.05468750000000
0.06872558593750
-0.01574707031250
0.02368164062500
-0.00061035156250
0.00000000000000
-0.00537109375000
0.05224609375000
-0.05969238281250
0.07165527343750
-0.05700683593750
-0.01196289062500
-0.05407714843750
-0.00500488281250
0.04296875000000
0.00561523437500
-0.00378417968750
0.00708007812500
0.03674316406250
0.02502441406250
0.04760742187500
-0.00305175781250
-0.07617187500000
-0.02160644531250
0.07043457031250
0.02929687500000
0.01330566406250
-0.05603027343750
0.08715820312500
0.07165527343750
0.02294921875000
0.05761718750000
0.02807617187500
0.01196289062500
-0.00488281250000
0.03552246093750
-0.09472656250000
-0.07641601562500
0.03955078125000
-0.09765625000000
0.01232910156250
0.03637695312500
0.05175781250000
0.06262207031250
0.06872558593750
0.04699707031250
-0.00134277343750
0.04211425781250
0.08288574218750
0.06982421875000
-0.03051757812500
-0.04235839843750
-0.04455566406250
0.02319335937500
0.06176757812500
-0.04602050781250
0.06848144531250
0.04040527343750
0.02612304687500
0.04809570312500
-0.00476074218750
0.07836914062500
0.03942871093750
0.04931640625000
0.04919433593750
0.06469726562500
0.01452636718750
0.10180664062500
0.00732421875000
-0.06713867187500
-0.05078125000000
0.05175781250000
0.02465820312500
0.07849121093750
0.11132812500000
-0.07250976562500
-0.05163574218750
-0.01562500000000
0.00292968750000
0.07409667968750
0.04321289062500
-0.06970214843750
-0.00573730468750
-0.00598144531250
-0.07507324218750
0.08325195312500
0.07092285156250
-0.11840820312500
-0.04650878906250
-0.05883789062500
0.05371093750000
-0.00817871093750
-0.01635742187500
0.01501464843750
-0.07019042968750
-0.04260253906250
0.05871582031250
0.02795410156250
-0.04345703125000
-0.03247070312500
-0.03369140625000
0.00244140625000
-0.03332519531250
-0.05834960937500
-0.02172851562500
0.00805664062500
-0.03515625000000
0.03845214843750
-0.01159667968750
-0.02832031250000
0.02697753906250
0.02832031250000
0.01550292968750
-0.04870605468750
0.09704589843750
-0.07800292968750
0.03967285156250
0.01831054687500
0.00671386718750
-0.08666992187500
-0.05664062500000
0.08923339843750
-0.09362792968750
0.10314941406250
0.10705566406250
0.08496093750000
0.06359863281250
0.00903320312500
-0.09875488281250
-0.04699707031250
0.02221679687500
0.02551269531250
0.01208496093750
0.07055664062500
-0.00378417968750
-0.05090332031250
-0.06591796875000
-0.04675292968750
0.07043457031250
-0.03894042968750
0.07739257812500
0.11230468750000
0.03112792968750
0.02856445312500
-0.02319335937500
0.07531738281250
0.01062011718750
-0.03039550781250
0.03515625000000
-0.08740234375000
0.00903320312500
0.03613281250000
-0.00073242187500
0.04602050781250
0.01367187500000
0.03649902343750
-0.02087402343750
0.06689453125000
0.07775878906250
-0.06579589843750
0.04492187500000
0.09375000000000
-0.02563476562500
-0.06127929687500
-0.01721191406250
-0.05175781250000
0.06994628906250
-0.06518554687500
0.01892089843750
-0.04211425781250
-0.03918457031250
0.07507324218750
0.05285644531250
0.04699707031250
0.01892089843750
0.07995605468750
-0.04260253906250
0.03308105468750
0.07055664062500
0.04699707031250
-0.10595703125000
0.01916503906250
0.05468750000000
-0.08947753906250
0.05651855468750
0.05297851562500
0.04516601562500
-0.03222656250000
0.04760742187500
0.00756835937500
-0.08288574218750
-0.02990722656250
0.13000488281250
-0.03320312500000
-0.04760742187500
0.04760742187500
0.02746582031250
0.01049804687500
0.03588867187500
-0.00134277343750
-0.05126953125000
0.05908203125000
-0.05603027343750
0.01464843750000
0.06018066406250
-0.08044433593750
0.01940917968750
-0.05065917968750
-0.10290527343750
0.02783203125000
-0.01403808593750
0.02844238281250
-0.04992675781250
0.02233886718750
-0.02661132812500
-0.00305175781250
0.04833984375000
0.07543945312500
0.02819824218750
0.01818847656250
-0.08715820312500
-0.00903320312500
-0.05334472656250
0.02001953125000
-0.03552246093750
-0.08923339843750
-0.07556152343750
0.02148437500000
0.02465820312500
-0.07116699218750
0.08215332031250
-0.10424804687500
-0.05590820312500
0.02282714843750
0.00427246093750
-0.08801269531250
0.00939941406250
-0.04223632812500
-0.03430175781250
-0.07153320312500
-0.01013183593750
0.10083007812500
-0.06750488281250
0.05700683593750
0.03625488281250
-0.08129882812500
-0.05615234375000
-0.00048828125000
-0.01147460937500
-0.01440429687500
0.06921386718750
-0.00378417968750
-0.02136230468750
-0.01037597656250
0.01904296875000
0.05261230468750
0.02722167968750
0.06982421875000
0.08215332031250
0.01672363281250
0.07739257812500
0.06127929687500
-0.05163574218750
-0.01013183593750
-0.06286621093750
-0.06787109375000
-0.06542968750000
0.08020019531250
0.02319335937500
-0.05590820312500
0.05944824218750
-0.02392578125000
0.01281738281250
-0.01025390625000
-0.01098632812500
0.04699707031250
0.05798339843750
-0.04614257812500
-0.04064941406250
0.05773925781250
-0.02319335937500
0.03503417968750
0.02319335937500
0.03869628906250
-0.05566406250000
0.01379394531250
-0.05334472656250
0.00390625000000
0.06933593750000
-0.06860351562500
0.09533691406250
0.09460449218750
-0.03247070312500
0.05615234375000
-0.03369140625000
0.03576660156250
0.06542968750000
-0.05175781250000
-0.07690429687500
-0.04113769531250
0.05224609375000
-0.06787109375000
-0.01647949218750
-0.08691406250000
-0.05700683593750
0.09606933593750
0.08068847656250
0.00085449218750
0.08789062500000
0.00732421875000
0.05651855468750
-0.01440429687500
0.00512695312500
-0.06835937500000
0.03259277343750
-0.03283691406250
0.00024414062500
-0.11682128906250
0.10607910156250
-0.03820800781250
0.05444335937500
0.03930664062500
-0.07568359375000
0.06420898437500
-0.08398437500000
-0.07287597656250
-0.01770019531250
-0.04101562500000
0.05981445312500
-0.02490234375000
0.02282714843750
0.02062988281250
0.04736328125000
0.06103515625000
-0.08618164062500
0.04479980468750
0.01599121093750
0.00585937500000
-0.04211425781250
0.07092285156250
0.07543945312500
-0.00158691406250
0.08032226562500
-0.09362792968750
-0.07812500000000
0.01684570312500
0.04711914062500
-0.04577636718750
0.09533691406250
-0.04541015625000
0.00012207031250
0.04650878906250
0.01782226562500
-0.01123046875000
-0.05151367187500
-0.02441406250000
0.02392578125000
-0.00122070312500
-0.00549316406250
0.08825683593750
-0.03942871093750
-0.06909179687500
0.02136230468750
0.00500488281250
-0.02307128906250
-0.12268066406250
0.02880859375000
0.08947753906250
-0.09680175781250
0.07299804687500
-0.08044433593750
-0.02307128906250
0.01928710937500
0.01440429687500
-0.07873535156250
0.03527832031250
0.02648925781250
-0.04003906250000
0.03649902343750
0.07067871093750
-0.01989746093750
-0.02514648437500
0.05480957031250
0.11926269531250
0.03820800781250
-0.07055664062500
0.11730957031250
-0.01220703125000
0.08386230468750
-0.02966308593750
0.06591796875000
-0.04309082031250
-0.05822753906250
-0.08105468750000
-0.00659179687500
-0.07568359375000
0.09997558593750
0.02014160156250
0.06762695312500
0.00549316406250
-0.02380371093750
-0.07080078125000
0.02539062500000
0.02233886718750
0.06201171875000
0.06787109375000
0.03222656250000
0.02172851562500
0.00122070312500
0.01196289062500
0.02331542968750
0.04260253906250
0.02575683593750
-0.04589843750000
0.05322265625000
0.07177734375000
0.04541015625000
-0.06640625000000
-0.03283691406250
0.04345703125000
0.00549316406250
-0.04040527343750
0.07397460937500
0.01293945312500
-0.04309082031250
0.08032226562500
-0.10742187500000
-0.03991699218750
-0.02172851562500
-0.06872558593750
-0.03808593750000
-0.01293945312500
0.05725097656250
-0.00341796875000
-0.01574707031250
-0.06018066406250
0.02026367187500
-0.02856445312500
-0.04980468750000
-0.08801269531250
0.03625488281250
0.03222656250000
0.00769042968750
-0.02551269531250
-0.02636718750000
0.01464843750000
0.03857421875000
-0.01831054687500
0.05920410156250
-0.00622558593750
0.07958984375000
0.01281738281250
0.04321289062500
-0.05285644531250
0.04577636718750
-0.01953125000000
0.05249023437500
-0.08605957031250
0.01171875000000
-0.02941894531250
-0.12927246093750
0.07263183593750
-0.05041503906250
-0.03906250000000
-0.05383300781250
-0.07275390625000
-0.08520507812500
0.00537109375000
-0.00231933593750
0.03710937500000
0.03283691406250
-0.00573730468750
0.09582519531250
0.00463867187500
-0.01611328125000
0.07751464843750
-0.04748535156250
0.02392578125000
0.05358886718750
0.06494140625000
0.04113769531250
0.03466796875000
0.00000000000000
-0.02832031250000
-0.09375000000000
-0.04956054687500
0.07617187500000
0.02380371093750
0.02856445312500
-0.04138183593750
0.04235839843750
0.00341796875000
0.00927734375000
-0.13073730468750
-0.00292968750000
-0.04296875000000
0.05834960937500
-0.05395507812500
-0.00854492187500
0.01403808593750
-0.01757812500000
0.00354003906250
0.07995605468750
-0.05236816406250
-0.06567382812500
0.04321289062500
-0.01013183593750
-0.05969238281250
0.07434082031250
-0.00378417968750
-0.02209472656250
0.09423828125000
-0.01562500000000
0.03405761718750
0.05041503906250
-0.09460449218750
-0.00927734375000
0.07153320312500
0.03662109375000
-0.07556152343750
0.02587890625000
0.04235839843750
-0.03820800781250
-0.05419921875000
-0.06677246093750
-0.00952148437500
-0.06713867187500
0.08630371093750
-0.04992675781250
0.00634765625000
0.05493164062500
0.09387207031250
-0.03283691406250
0.01037597656250
-0.05712890625000
-0.02441406250000
0.03613281250000
-0.05285644531250
0.02575683593750
0.00952148437500
-0.10571289062500
-0.08886718750000
0.02441406250000
-0.00329589843750
0.05603027343750
-0.02172851562500
-0.06823730468750
-0.10876464843750
0.06713867187500
0.00903320312500
0.08996582031250
0.01428222656250
-0.08752441406250
0.01745605468750
-0.02990722656250
-0.04711914062500
-0.05761718750000
0.04516601562500
-0.07055664062500
0.01354980468750
0.02478027343750
-0.07373046875000
0.07763671875000
-0.03930664062500
-0.05493164062500
0.04431152343750
-0.06909179687500
-0.00109863281250
0.01269531250000
-0.03613281250000
-0.04345703125000
0.07653808593750
-0.06079101562500
-0.07763671875000
0.04382324218750
-0.00769042968750
0.09436035156250
-0.02563476562500
0.01293945312500
-0.03576660156250
-0.04553222656250
-0.04638671875000
-0.06665039062500
-0.00024414062500
-0.08032226562500
-0.07055664062500
0.04650878906250
0.00305175781250
-0.07055664062500
-0.02026367187500
-0.04321289062500
-0.00463867187500
-0.04565429687500
0.04650878906250
-0.03393554687500
0.00158691406250
-0.02416992187500
0.02770996093750
0.03381347656250
0.05664062500000
-0.06994628906250
0.03625488281250
0.03173828125000
-0.06542968750000
-0.07421875000000
-0.00720214843750
0.03198242187500
0.09045410156250
0.08544921875000
0.08349609375000
-0.05688476562500
0.07653808593750
-0.06787109375000
0.02868652343750
0.04516601562500
0.05236816406250
-0.00976562500000
-0.01831054687500
0.08471679687500
-0.01855468750000
0.02355957031250
0.01306152343750
0.06506347656250
-0.01660156250000
-0.00415039062500
-0.05212402343750
0.00781250000000
-0.02197265625000
0.02075195312500
-0.05139160156250
-0.07080078125000
-0.01953125000000
0.06457519531250
0.01196289062500
-0.01147460937500
-0.00756835937500
-0.05383300781250
0.08679199218750
0.06604003906250
0.10266113281250
-0.01879882812500
-0.02746582031250
0.07116699218750
-0.06213378906250
0.05932617187500
0.04199218750000
0.03857421875000
-0.04687500000000
-0.07019042968750
0.02355957031250
0.07019042968750
0.00695800781250
-0.02832031250000
0.05749511718750
-0.01489257812500
0.08374023437500
0.05517578125000
-0.04370117187500
-0.06457519531250
-0.04003906250000
0.01745605468750
0.10119628906250
0.05712890625000
0.04345703125000
0.03454589843750
-0.09082031250000
0.04797363281250
0.04992675781250
-0.05627441406250
-0.05114746093750
-0.02734375000000
-0.09057617187500
-0.04467773437500
-0.00756835937500
0.00415039062500
0.02624511718750
0.07934570312500
0.05297851562500
0.05895996093750
-0.04235839843750
0.04797363281250
0.03405761718750
-0.03796386718750
0.08593750000000
-0.04687500000000
-0.02868652343750
-0.02893066406250
0.03710937500000
-0.06701660156250
-0.01928710937500
0.02636718750000
0.04040527343750
-0.00170898437500
0.05017089843750
0.06286621093750
0.06567382812500
0.06286621093750
0.05236816406250
0.12280273437500
-0.00073242187500
0.03979492187500
0.08508300781250
0.05700683593750
-0.01171875000000
-0.07434082031250
0.05114746093750
0.07250976562500
0.01208496093750
0.07067871093750
0.08642578125000
0.06555175781250
-0.04968261718750
-0.03442382812500
-0.02832031250000
-0.04956054687500
-0.10620117187500
0.04614257812500
-0.12060546875000
-0.08142089843750
-0.06188964843750
-0.08325195312500
-0.09558105468750
0.07885742187500
0.02880859375000
0.04150390625000
0.07629394531250
0.05834960937500
0.09643554687500
-0.05102539062500
-0.06188964843750
-0.02600097656250
-0.07653808593750
-0.05871582031250
0.03015136718750
0.03259277343750
-0.00476074218750
-0.01477050781250
-0.03564453125000
-0.05187988281250
-0.07556152343750
-0.05834960937500
-0.01123046875000
0.09155273437500
0.04663085937500
0.02856445312500
0.01123046875000
0.04101562500000
0.01550292968750
0.05322265625000
-0.03137207031250
0.06237792968750
-0.01379394531250
-0.00158691406250
-0.01159667968750
-0.07189941406250
0.04809570312500
-0.05664062500000
0.04589843750000
-0.01391601562500
-0.06970214843750
0.06604003906250
-0.00927734375000
0.07141113281250
-0.09521484375000
-0.00207519531250
0.02966308593750
-0.04675292968750
-0.04113769531250
0.04565429687500
0.05603027343750
-0.00195312500000
-0.15942382812500
-0.06140136718750
0.03405761718750
-0.00378417968750
0.00671386718750
0.05090332031250
-0.06347656250000
0.06738281250000
0.06652832031250
0.02221679687500
-0.10437011718750
-0.05908203125000
0.05041503906250
0.00476074218750
-0.03857421875000
-0.04321289062500
0.07336425781250
0.01989746093750
-0.04406738281250
0.02343750000000
0.01745605468750
-0.01525878906250
0.07409667968750
0.00109863281250
-0.04870605468750
0.05993652343750
-0.03735351562500
0.10180664062500
0.05163574218750
0.00061035156250
-0.05468750000000
0.05688476562500
-0.06860351562500
-0.00866699218750
-0.01257324218750
0.04296875000000
0.04895019531250
-0.01721191406250
0.05126953125000
-0.08886718750000
0.06311035156250
-0.04577636718750
-0.03662109375000
0.09899902343750
0.09301757812500
0.01953125000000
-0.07397460937500
-0.00292968750000
-0.05249023437500
-0.01977539062500
0.01599121093750
0.01171875000000
0.08776855468750
0.05407714843750
-0.06201171875000
-0.02416992187500
0.08056640625000
0.00927734375000
-0.09814453125000
0.08215332031250
-0.03356933593750
0.07421875000000
-0.08947753906250
0.09875488281250
0.05334472656250
-0.08349609375000
-0.08874511718750
0.01000976562500
-0.01953125000000
-0.00952148437500
0.06115722656250
-0.03369140625000
0.07434082031250
-0.03454589843750
-0.03564453125000
-0.00500488281250
0.00231933593750
0.00891113281250
-0.02355957031250
-0.02929687500000
0.10253906250000
-0.01428222656250
0.09130859375000
-0.07312011718750
-0.06042480468750
0.03649902343750
-0.02197265625000
0.00769042968750
0.05761718750000
0.11743164062500
0.04968261718750
-0.04028320312500
-0.04431152343750
-0.06518554687500
0.00891113281250
-0.02990722656250
-0.01611328125000
-0.03295898437500
0.06127929687500
0.06994628906250
0.02270507812500
-0.01623535156250
-0.01672363281250
-0.09020996093750
0.01196289062500
-0.00390625000000
-0.06018066406250
0.07226562500000
-0.05041503906250
0.08728027343750
-0.06616210937500
0.01574707031250
-0.00402832031250
-0.01098632812500
-0.06188964843750
0.02246093750000
0.09033203125000
-0.00415039062500
0.01782226562500
-0.00659179687500
0.04931640625000
0.04333496093750
0.04785156250000
0.02709960937500
0.11450195312500
-0.04675292968750
0.09570312500000
0.09960937500000
-0.09606933593750
0.01708984375000
-0.02160644531250
0.01696777343750
-0.04699707031250
0.03869628906250
-0.05053710937500
-0.07922363281250
-0.05212402343750
0.06689453125000
-0.08569335937500
0.02099609375000
0.01525878906250
-0.02893066406250
-0.04541015625000
0.00683593750000
-0.05737304687500
0.09912109375000
-0.05871582031250
-0.05737304687500
-0.06738281250000
0.01696777343750
-0.04907226562500
0.11157226562500
0.03564453125000
0.03295898437500
-0.02880859375000
0.05004882812500
0.03234863281250
0.07861328125000
-0.01757812500000
-0.03369140625000
0.04821777343750
-0.05725097656250
0.04833984375000
0.01831054687500
0.01892089843750
0.02307128906250
-0.05200195312500
-0.08215332031250
0.02478027343750
-0.01635742187500
-0.04357910156250
-0.02514648437500
-0.04492187500000
0.07092285156250
0.00024414062500
0.10180664062500
-0.05590820312500
-0.01782226562500
0.02746582031250
0.10729980468750
-0.05676269531250
0.07409667968750
-0.00659179687500
0.07250976562500
-0.02355957031250
0.01379394531250
-0.05700683593750
0.06506347656250
0.07580566406250
-0.04638671875000
0.04089355468750
-0.04455566406250
0.03710937500000
0.05725097656250
-0.08715820312500
0.03637695312500
0.01892089843750
-0.12719726562500
0.02160644531250
0.04504394531250
-0.04406738281250
0.03125000000000
-0.00488281250000
-0.06823730468750
-0.07690429687500
-0.04162597656250
0.08496093750000
0.03222656250000
0.07971191406250
0.01672363281250
-0.06384277343750
0.08776855468750
0.02050781250000
-0.05322265625000
0.04675292968750
-0.03332519531250
-0.01550292968750
0.06298828125000
0.01245117187500
0.01147460937500
0.03222656250000
0.00805664062500
-0.02636718750000
-0.07836914062500
0.02465820312500
0.00805664062500
-0.05017089843750
0.04907226562500
-0.03662109375000
0.01184082031250
0.02624511718750
0.08386230468750
-0.00402832031250
0.06750488281250
0.04040527343750
0.06713867187500
-0.06103515625000
-0.08239746093750
-0.08825683593750
0.06445312500000
-0.02258300781250
0.05761718750000
-0.01928710937500
0.05273437500000
-0.03808593750000
-0.04199218750000
0.05566406250000
0.03283691406250
-0.07189941406250
0.05175781250000
0.01147460937500
-0.06579589843750
0.08471679687500
0.03295898437500
-0.02514648437500
-0.05554199218750
-0.06335449218750
0.03747558593750
0.08276367187500
0.00354003906250
0.03198242187500
-0.04663085937500
-0.03393554687500
-0.07128906250000
0.02087402343750
0.10888671875000
0.03588867187500
0.06787109375000
0.10888671875000
-0.02014160156250
0.01452636718750
0.03247070312500
-0.05578613281250
0.02270507812500
-0.07727050781250
0.01538085937500
0.04687500000000
-0.04455566406250
-0.09997558593750
0.06018066406250
0.05114746093750
-0.06066894531250
-0.03979492187500
-0.00659179687500
-0.05859375000000
0.03601074218750
-0.08264160156250
-0.12731933593750
0.11291503906250
0.09838867187500
0.06091308593750
0.03125000000000
-0.08496093750000
-0.05859375000000
-0.00183105468750
-0.05480957031250
-0.11010742187500
0.09594726562500
0.00671386718750
-0.01318359375000
0.03259277343750
0.06347656250000
0.04394531250000
-0.01086425781250
-0.01342773437500
0.03991699218750
0.05371093750000
-0.00244140625000
0.04553222656250
-0.07434082031250
0.00659179687500
0.04724121093750
-0.06384277343750
0.07458496093750
0.04626464843750
0.02514648437500
0.07312011718750
-0.04541015625000
0.00366210937500
0.08605957031250
-0.00720214843750
-0.10803222656250
0.04284667968750
0.08117675781250
0.02050781250000
-0.08251953125000
-0.03198242187500
-0.05969238281250
0.06445312500000
0.05981445312500
0.05187988281250
-0.00683593750000
-0.01806640625000
0.09106445312500
0.04248046875000
-0.06945800781250
0.00451660156250
-0.06823730468750
0.03930664062500
-0.06872558593750
0.02368164062500
-0.01708984375000
0.04809570312500
0.00537109375000
0.03503417968750
0.02893066406250
-0.03320312500000
0.02075195312500
-0.00488281250000
0.08813476562500
0.04418945312500
0.09875488281250
0.08081054687500
0.05590820312500
-0.07617187500000
-0.01428222656250
0.01208496093750
0.08886718750000
-0.00146484375000
-0.05383300781250
-0.01647949218750
-0.06945800781250
0.04711914062500
0.04858398437500
0.00793457031250
0.00122070312500
0.00573730468750
0.01354980468750
-0.09216308593750
0.09680175781250
-0.09399414062500
-0.10742187500000
-0.03112792968750
-0.04077148437500
0.03198242187500
0.03662109375000
0.07116699218750
0.02282714843750
0.00207519531250
-0.06103515625000
-0.01123046875000
-0.01586914062500
0.00280761718750
-0.01196289062500
0.06896972656250
-0.01123046875000
-0.05419921875000
-0.03576660156250
-0.06030273437500
-0.05920410156250
-0.07495117187500
-0.00634765625000
0.01562500000000
0.06311035156250
-0.07153320312500
-0.04211425781250
0.00659179687500
-0.05407714843750
0.03063964843750
0.04064941406250
0.03125000000000
-0.05737304687500
0.03417968750000
-0.00305175781250
-0.09912109375000
0.05895996093750
0.02697753906250
-0.05163574218750
-0.01684570312500
-0.07312011718750
-0.03039550781250
-0.01770019531250
-0.00476074218750
0.06787109375000
0.01623535156250
-0.03649902343750
0.01440429687500
0.04479980468750
-0.02368164062500
-0.05249023437500
0.04699707031250
-0.01782226562500
0.04138183593750
0.08398437500000
-0.02136230468750
-0.09765625000000
0.08483886718750
-0.05615234375000
-0.04504394531250
-0.07006835937500
0.05346679687500
0.03405761718750
-0.03381347656250
-0.01037597656250
-0.06494140625000
-0.04052734375000
0.11096191406250
0.04675292968750
0.02233886718750
0.05053710937500
0.04089355468750
0.01416015625000
-0.05883789062500
0.04992675781250
0.03735351562500
-0.09216308593750
0.00195312500000
-0.06359863281250
-0.01000976562500
-0.09106445312500
-0.00476074218750
0.03076171875000
0.03527832031250
0.01513671875000
0.04406738281250
-0.03979492187500
-0.05371093750000
0.00854492187500
-0.09716796875000
0.01928710937500
-0.10290527343750
-0.06567382812500
-0.04370117187500
0.09277343750000
0.07226562500000
-0.05566406250000
-0.07385253906250
0.03161621093750
0.03466796875000
-0.00695800781250
0.01074218750000
-0.05163574218750
-0.03955078125000
0.07873535156250
0.00634765625000
-0.04272460937500
0.08581542968750
-0.07836914062500
0.05822753906250
0.02783203125000
-0.07006835937500
-0.03332519531250
0.09436035156250
-0.01013183593750
0.05957031250000
0.03161621093750
0.02941894531250
-0.06542968750000
-0.05554199218750
0.04772949218750
0.09924316406250
-0.06677246093750
0.05114746093750
0.04650878906250
0.03820800781250
0.02807617187500
0.05273437500000
-0.07482910156250
-0.02612304687500
-0.03796386718750
-0.00549316406250
-0.08898925781250
-0.04663085937500
-0.00769042968750
-0.06994628906250
-0.08654785156250
0.02978515625000
0.05615234375000
-0.00866699218750
-0.01660156250000
0.05029296875000
0.09069824218750
-0.05432128906250
-0.05761718750000
-0.08044433593750
-0.05310058593750
0.05346679687500
0.00061035156250
-0.02954101562500
0.01672363281250
-0.06359863281250
0.04260253906250
-0.04675292968750
-0.01257324218750
0.07189941406250
-0.11230468750000
0.05920410156250
-0.04528808593750
-0.06774902343750
-0.03991699218750
-0.07849121093750
0.07543945312500
0.01379394531250
-0.06774902343750
-0.03869628906250
-0.03747558593750
0.02929687500000
-0.05627441406250
-0.03466796875000
0.04541015625000
0.04943847656250
-0.04663085937500
0.07788085937500
-0.01635742187500
0.02746582031250
-0.00463867187500
-0.05773925781250
-0.04614257812500
0.05822753906250
0.04467773437500
0.08154296875000
0.01269531250000
-0.04162597656250
-0.00439453125000
-0.01696777343750
-0.05419921875000
0.04443359375000
0.07434082031250
-0.05273437500000
-0.02111816406250
-0.07177734375000
-0.01770019531250
-0.07214355468750
-0.00610351562500
-0.05529785156250
0.01672363281250
0.06262207031250
-0.00024414062500
0.03515625000000
-0.01464843750000
0.08105468750000
0.09631347656250
-0.06201171875000
0.08056640625000
-0.02880859375000
0.05505371093750
-0.00244140625000
-0.07031250000000
0.03991699218750
-0.05249023437500
-0.04602050781250
-0.01770019531250
-0.03381347656250
0.09179687500000
0.03796386718750
0.09301757812500
-0.01269531250000
0.02673339843750
0.01416015625000
-0.03308105468750
0.07666015625000
0.01635742187500
-0.06054687500000
0.06323242187500
-0.04284667968750
-0.03344726562500
0.06689453125000
0.01000976562500
-0.04003906250000
-0.00927734375000
0.07824707031250
-0.03112792968750
0.03503417968750
-0.02294921875000
-0.12109375000000
0.05810546875000
-0.00891113281250
-0.00317382812500
0.06457519531250
-0.05810546875000
0.01074218750000
-0.08569335937500
-0.02929687500000
0.02111816406250
0.05749511718750
-0.08264160156250
0.03625488281250
0.01501464843750
0.04333496093750
0.08178710937500
0.05407714843750
0.05895996093750
-0.05773925781250
-0.07409667968750
-0.03137207031250
0.04028320312500
-0.03662109375000
0.05017089843750
-0.02563476562500
-0.01220703125000
-0.01586914062500
0.07116699218750
0.06433105468750
-0.08068847656250
0.02075195312500
0.04870605468750
-0.03674316406250
0.01806640625000
-0.06677246093750
0.03759765625000
-0.01367187500000
-0.04711914062500
0.01379394531250
-0.01843261718750
-0.03503417968750
-0.06628417968750
0.08569335937500
0.04162597656250
-0.03247070312500
-0.02917480468750
0.03320312500000
0.02819824218750
0.03735351562500
0.08276367187500
0.07214355468750
-0.01367187500000
0.08508300781250
-0.03552246093750
-0.02868652343750
-0.05590820312500
0.04089355468750
0.07507324218750
0.05395507812500
0.03686523437500
-0.03845214843750
-0.03088378906250
-0.07653808593750
0.07055664062500
-0.02722167968750
0.06665039062500
0.00988769531250
0.02978515625000
0.06994628906250
-0.05297851562500
0.08422851562500
-0.05676269531250
0.00354003906250
0.06921386718750
-0.02648925781250
-0.05529785156250
0.04858398437500
-0.05529785156250
0.01391601562500
0.03759765625000
-0.07141113281250
-0.05456542968750
-0.00463867187500
-0.06359863281250
-0.07238769531250
-0.01843261718750
-0.07543945312500
-0.02270507812500
-0.07055664062500
-0.00781250000000
0.08325195312500
0.03784179687500
-0.04003906250000
0.03076171875000
0.10302734375000
0.01733398437500
0.00854492187500
0.08972167968750
-0.01733398437500
0.04895019531250
0.07080078125000
0.07067871093750
-0.07885742187500
-0.00146484375000
-0.05603027343750
0.04089355468750
-0.03027343750000
0.09301757812500
-0.04284667968750
-0.04931640625000
0.02929687500000
-0.08789062500000
-0.01123046875000
0.01892089843750
0.03442382812500
0.00390625000000
0.07373046875000
0.06494140625000
-0.05371093750000
-0.00988769531250
0.06359863281250
-0.02221679687500
0.00036621093750
-0.06347656250000
0.07470703125000
0.03076171875000
0.05700683593750
-0.06909179687500
-0.05944824218750
0.04724121093750
-0.02624511718750
0.07739257812500
-0.03100585937500
0.08935546875000
0.01623535156250
0.00939941406250
0.08459472656250
0.00207519531250
-0.02868652343750
0.08679199218750
-0.02734375000000
-0.05749511718750
-0.05517578125000
-0.01354980468750
-0.05065917968750
0.06384277343750
-0.00720214843750
-0.04357910156250
-0.01916503906250
-0.07458496093750
0.08056640625000
0.07446289062500
0.06481933593750
-0.08081054687500
0.05407714843750
-0.08740234375000
0.10253906250000
-0.00073242187500
0.05664062500000
-0.06787109375000
-0.00195312500000
-0.03405761718750
-0.06262207031250
-0.04565429687500
0.08251953125000
-0.07226562500000
0.07995605468750
-0.03491210937500
0.05224609375000
0.07507324218750
0.00427246093750
-0.02990722656250
-0.10583496093750
-0.00122070312500
-0.01806640625000
0.07421875000000
-0.04748535156250
0.00073242187500
-0.09057617187500
0.02600097656250
0.04809570312500
-0.02880859375000
0.03210449218750
0.07885742187500
-0.03674316406250
0.00854492187500
0.11108398437500
-0.07446289062500
0.06066894531250
-0.04687500000000
-0.06359863281250
0.06176757812500
-0.10205078125000
-0.05114746093750
-0.03479003906250
0.02209472656250
0.05432128906250
0.05383300781250
0.05175781250000
-0.02648925781250
-0.02209472656250
0.05822753906250
0.04199218750000
-0.01660156250000
0.01623535156250
0.02795410156250
0.00439453125000
0.03308105468750
0.03173828125000
0.00683593750000
-0.06445312500000
-0.02075195312500
-0.04467773437500
0.00561523437500
0.00939941406250
-0.08642578125000
-0.09265136718750
0.05871582031250
0.02465820312500
-0.07836914062500
-0.05847167968750
0.07543945312500
-0.03015136718750
0.02197265625000
0.03442382812500
-0.00476074218750
-0.06787109375000
-0.00634765625000
0.06970214843750
0.08569335937500
-0.00805664062500
0.04467773437500
0.01562500000000
-0.00830078125000
0.03051757812500
0.00231933593750
0.08215332031250
-0.09802246093750
0.03649902343750
0.06396484375000
-0.03857421875000
0.10522460937500
0.03576660156250
0.06677246093750
-0.04235839843750
-0.05664062500000
-0.08142089843750
-0.08471679687500
0.00305175781250
-0.01440429687500
-0.04968261718750
-0.00219726562500
-0.00268554687500
-0.00793457031250
0.01757812500000
0.07250976562500
-0.01074218750000
0.12390136718750
-0.00195312500000
-0.05725097656250
0.05725097656250
-0.01916503906250
-0.02624511718750
0.02087402343750
-0.01086425781250
0.02575683593750
-0.00610351562500
-0.06091308593750
0.01403808593750
-0.00158691406250
-0.01184082031250
-0.05603027343750
-0.07934570312500
-0.09216308593750
0.07788085937500
-0.03967285156250
0.01428222656250
-0.05603027343750
0.05712890625000
0.04235839843750
-0.05920410156250
0.01220703125000
0.07690429687500
-0.07226562500000
-0.02404785156250
0.03881835937500
-0.04272460937500
-0.04345703125000
0.01916503906250
-0.08984375000000
-0.02465820312500
0.04394531250000
0.10925292968750
0.09179687500000
-0.03295898437500
-0.06677246093750
-0.02136230468750
0.03002929687500
-0.02490234375000
0.01245117187500
-0.08496093750000
0.05957031250000
-0.03076171875000
0.06750488281250
0.06079101562500
0.01379394531250
-0.05639648437500
-0.00463867187500
-0.01379394531250
0.05627441406250
0.00512695312500
0.02941894531250
-0.01403808593750
0.08532714843750
-0.00061035156250
-0.00939941406250
0.00964355468750
-0.01196289062500
-0.07092285156250
-0.01196289062500
-0.03308105468750
0.07556152343750
-0.04028320312500
-0.00854492187500
-0.00756835937500
-0.08007812500000
0.06799316406250
-0.05432128906250
-0.03759765625000
0.04541015625000
0.03186035156250
0.02746582031250
0.02722167968750
0.07165527343750
0.07629394531250
-0.06018066406250
0.04541015625000
0.01257324218750
0.00097656250000
0.06518554687500
-0.08142089843750
0.00488281250000
-0.07507324218750
0.04382324218750
-0.04492187500000
0.03161621093750
0.02246093750000
-0.01367187500000
0.00427246093750
0.06079101562500
0.01928710937500
-0.05883789062500
0.00390625000000
0.00195312500000
0.06054687500000
0.04980468750000
0.04687500000000
-0.03283691406250
0.04260253906250
0.00415039062500
0.07629394531250
-0.06372070312500
0.00012207031250
-0.09790039062500
0.03356933593750
0.04272460937500
0.05725097656250
-0.00366210937500
0.01940917968750
0.06945800781250
-0.02917480468750
0.01867675781250
0.00598144531250
0.03259277343750
0.08105468750000
0.05615234375000
-0.06994628906250
-0.03588867187500
0.05639648437500
-0.02392578125000
-0.06237792968750
0.00024414062500
-0.06774902343750
0.04809570312500
0.03503417968750
-0.02185058593750
-0.02807617187500
0.03723144531250
-0.02453613281250
-0.03210449218750
0.03613281250000
0.06164550781250
-0.06970214843750
0.03979492187500
-0.03076171875000
0.06250000000000
-0.04101562500000
0.04785156250000
-0.01843261718750
0.07519531250000
0.00268554687500
-0.02441406250000
0.06945800781250
-0.08276367187500
-0.09094238281250
-0.00854492187500
0.07519531250000
0.04748535156250
0.01794433593750
-0.07788085937500
0.07604980468750
0.07055664062500
0.05102539062500
0.01794433593750
-0.02087402343750
0.06091308593750
0.00744628906250
-0.06140136718750
0.08752441406250
0.00585937500000
0.10034179687500
-0.01538085937500
-0.01232910156250
-0.00061035156250
-0.01013183593750
0.05126953125000
-0.01879882812500
-0.04064941406250
0.04833984375000
0.06262207031250
-0.03100585937500
-0.02819824218750
-0.00134277343750
-0.04394531250000
-0.08093261718750
-0.08312988281250
0.04943847656250
-0.03918457031250
-0.07592773437500
0.07409667968750
0.08044433593750
0.00512695312500
0.04394531250000
-0.00695800781250
-0.02746582031250
0.03601074218750
-0.05004882812500
-0.02941894531250
0.01696777343750
0.02478027343750
-0.06164550781250
-0.07165527343750
0.06799316406250
-0.07617187500000
0.03918457031250
0.07373046875000
-0.01000976562500
0.01635742187500
0.03552246093750
-0.08447265625000
0.04956054687500
0.06347656250000
0.01525878906250
0.01562500000000
-0.00769042968750
0.00671386718750
0.01086425781250
-0.01318359375000
0.07849121093750
-0.09716796875000
-0.00756835937500
0.04565429687500
-0.08105468750000
0.07287597656250
0.07592773437500
0.02673339843750
-0.03918457031250
-0.06982421875000
-0.09619140625000
-0.06311035156250
-0.01074218750000
-0.07202148437500
0.03320312500000
0.00207519531250
-0.02612304687500
0.05041503906250
0.06311035156250
-0.03430175781250
-0.03100585937500
-0.05920410156250
-0.05737304687500
0.11499023437500
-0.05493164062500
0.04296875000000
-0.09094238281250
-0.01184082031250
0.07580566406250
0.07788085937500
-0.01867675781250
0.00073242187500
0.04772949218750
-0.04077148437500
-0.00476074218750
-0.09729003906250
-0.00268554687500
0.01672363281250
-0.05004882812500
-0.00097656250000
0.03442382812500
0.03332519531250
0.04211425781250
0.02087402343750
0.05957031250000
0.03051757812500
0.01928710937500
-0.05065917968750
-0.05517578125000
-0.01501464843750
-0.03393554687500
-0.03369140625000
-0.05212402343750
-0.00231933593750
-0.01672363281250
-0.04174804687500
-0.00708007812500
0.01367187500000
0.13281250000000
-0.08142089843750
0.08935546875000
0.14428710937500
0.01672363281250
0.08874511718750
0.07690429687500
0.02600097656250
0.03308105468750
0.05187988281250
-0.00048828125000
0.01245117187500
0.00769042968750
-0.01074218750000
-0.07788085937500
0.06628417968750
0.03442382812500
0.10705566406250
-0.01953125000000
0.09912109375000
0.05139160156250
0.00708007812500
0.02905273437500
-0.09594726562500
0.05529785156250
0.00866699218750
0.09521484375000
0.10705566406250
0.09997558593750
0.08703613281250
-0.06579589843750
0.06213378906250
0.10473632812500
-0.08374023437500
0.03820800781250
-0.02990722656250
-0.01293945312500
-0.05725097656250
0.06811523437500
0.00427246093750
-0.05090332031250
0.07580566406250
-0.00524902343750
-0.01879882812500
-0.02539062500000
-0.06799316406250
0.01892089843750
0.00854492187500
-0.05151367187500
-0.07788085937500
-0.08935546875000
-0.05078125000000
-0.09533691406250
-0.00036621093750
-0.11511230468750
0.01367187500000
0.03344726562500
-0.01904296875000
-0.04833984375000
0.00134277343750
-0.03271484375000
0.03466796875000
0.05163574218750
-0.00256347656250
0.07165527343750
0.03991699218750
0.07568359375000
0.01757812500000
0.05993652343750
0.05505371093750
-0.06652832031250
0.07360839843750
0.01782226562500
-0.02087402343750
0.03222656250000
-0.00036621093750
-0.05529785156250
-0.04992675781250
0.03955078125000
-0.03381347656250
0.00097656250000
-0.01977539062500
-0.07141113281250
-0.02600097656250
0.08984375000000
-0.07910156250000
-0.03405761718750
-0.03247070312500
0.08435058593750
0.02307128906250
-0.00036621093750
0.06188964843750
0.04980468750000
-0.05541992187500
-0.05480957031250
-0.05541992187500
0.02160644531250
-0.03735351562500
0.02392578125000
-0.01818847656250
0.03454589843750
-0.00415039062500
-0.08728027343750
0.05529785156250
-0.08569335937500
-0.07263183593750
0.06970214843750
0.08459472656250
-0.04833984375000
0.05322265625000
-0.01953125000000
-0.03942871093750
-0.03698730468750
-0.10693359375000
0.03894042968750
-0.08117675781250
-0.05847167968750
-0.07666015625000
-0.06677246093750
-0.03601074218750
-0.05639648437500
0.01013183593750
0.05041503906250
-0.03820800781250
-0.04150390625000
0.05187988281250
-0.00708007812500
-0.01513671875000
-0.03820800781250
-0.00964355468750
0.04577636718750
0.06823730468750
-0.00012207031250
0.07312011718750
0.04602050781250
-0.01379394531250
0.02307128906250
-0.04565429687500
-0.08471679687500
-0.05334472656250
-0.00061035156250
-0.07360839843750
-0.06274414062500
-0.01184082031250
0.03222656250000
-0.00207519531250
-0.07128906250000
0.04626464843750
0.03332519531250
-0.04797363281250
0.00744628906250
-0.00610351562500
-0.02185058593750
0.03173828125000
-0.01770019531250
-0.09375000000000
-0.09521484375000
-0.04541015625000
0.07861328125000
0.03454589843750
0.03662109375000
0.02294921875000
0.01977539062500
0.00927734375000
-0.04626464843750
0.04248046875000
0.00244140625000
0.03491210937500
0.02600097656250
-0.01232910156250
-0.06579589843750
-0.06958007812500
0.04394531250000
-0.02478027343750
-0.08789062500000
0.08020019531250
0.05493164062500
-0.09582519531250
0.04260253906250
-0.01086425781250
-0.03027343750000
0.07751464843750
0.00146484375000
0.01623535156250
0.00781250000000
0.04882812500000
-0.03991699218750
-0.04187011718750
0.05615234375000
-0.01489257812500
-0.01257324218750
0.03845214843750
0.03271484375000
-0.03759765625000
-0.11193847656250
0.06042480468750
0.01220703125000
0.05004882812500
-0.00378417968750
-0.00134277343750
-0.07299804687500
-0.03820800781250
-0.03808593750000
0.00830078125000
0.07214355468750
-0.04235839843750
-0.04724121093750
0.10083007812500
0.08569335937500
-0.03686523437500
0.07287597656250
0.02575683593750
-0.00512695312500
0.08593750000000
-0.04333496093750
0.05249023437500
-0.05004882812500
-0.05407714843750
0.07153320312500
-0.09790039062500
0.02404785156250
-0.02307128906250
-0.04833984375000
-0.06823730468750
-0.02954101562500
0.01062011718750
0.08227539062500
-0.00622558593750
-0.07250976562500
-0.03808593750000
0.03820800781250
-0.05712890625000
-0.06298828125000
0.05029296875000
-0.00158691406250
-0.06372070312500
-0.01892089843750
0.02258300781250
0.01562500000000
0.01965332031250
-0.04296875000000
-0.03173828125000
0.05749511718750
0.01989746093750
0.03552246093750
0.10192871093750
0.03894042968750
0.04626464843750
0.09936523437500
0.05017089843750
0.01904296875000
-0.06970214843750
0.02258300781250
0.05480957031250
-0.04345703125000
-0.02832031250000
-0.01123046875000
-0.08154296875000
-0.02050781250000
-0.01782226562500
0.02575683593750
0.06140136718750
0.00659179687500
-0.02636718750000
0.06420898437500
-0.07800292968750
0.07702636718750
0.05517578125000
-0.03698730468750
-0.02539062500000
-0.05200195312500
0.05993652343750
0.06115722656250
-0.05261230468750
-0.00427246093750
0.09545898437500
-0.06945800781250
0.00573730468750
0.09790039062500
0.00415039062500
-0.06054687500000
0.07238769531250
-0.00708007812500
-0.01806640625000
0.09130859375000
-0.00256347656250
-0.05761718750000
0.02307128906250
0.10766601562500
-0.03442382812500
0.00500488281250
0.08117675781250
-0.04846191406250
0.04309082031250
0.08776855468750
-0.01831054687500
-0.05236816406250
0.01916503906250
-0.01306152343750
0.08752441406250
-0.00085449218750
-0.06750488281250
0.05688476562500
-0.06835937500000
-0.06665039062500
0.01562500000000
-0.08459472656250
-0.08703613281250
0.03906250000000
0.04211425781250
0.00366210937500
0.02685546875000
-0.04260253906250
-0.09094238281250
0.05151367187500
0.03466796875000
0.04125976562500
-0.05773925781250
-0.08740234375000
0.05432128906250
0.03869628906250
0.03369140625000
0.01281738281250
-0.03918457031250
0.03552246093750
-0.02075195312500
0.07702636718750
0.05737304687500
-0.03833007812500
0.06945800781250
0.03491210937500
0.07556152343750
-0.05273437500000
0.02307128906250
-0.02526855468750
0.03369140625000
-0.03662109375000
0.08666992187500
-0.11218261718750
0.04199218750000
-0.00646972656250
0.05322265625000
0.01733398437500
0.01721191406250
0.06787109375000
0.06042480468750
-0.06652832031250
0.04284667968750
-0.03051757812500
0.01086425781250
-0.04272460937500
-0.04101562500000
-0.03955078125000
-0.02966308593750
0.00500488281250
0.04138183593750
0.03454589843750
-0.08398437500000
-0.04089355468750
0.07214355468750
-0.01428222656250
0.06140136718750
0.02136230468750
0.02246093750000
0.09020996093750
0.04992675781250
0.00695800781250
0.08630371093750
0.03674316406250
0.12365722656250
-0.00048828125000
-0.02160644531250
0.05212402343750
-0.03601074218750
0.08300781250000
0.02355957031250
0.07287597656250
0.10009765625000
0.02612304687500
0.00817871093750
-0.02099609375000
-0.06665039062500
0.00268554687500
0.00000000000000
0.03320312500000
-0.02612304687500
-0.01513671875000
-0.03967285156250
0.06542968750000
0.03710937500000
-0.05236816406250
-0.02001953125000
-0.06201171875000
-0.03857421875000
-0.05480957031250
-0.03894042968750
-0.10375976562500
0.06127929687500
0.02929687500000
-0.06835937500000
0.02844238281250
-0.08422851562500
-0.07507324218750
-0.02331542968750
-0.01452636718750
-0.04479980468750
-0.02001953125000
-0.04736328125000
-0.07580566406250
0.09252929687500
-0.09387207031250
-0.01794433593750
0.01525878906250
0.04943847656250
0.03771972656250
0.00744628906250
0.07922363281250
0.08435058593750
0.02746582031250
-0.00659179687500
-0.00061035156250
-0.00488281250000
-0.00329589843750
-0.04602050781250
-0.01232910156250
-0.07153320312500
-0.09704589843750
0.02612304687500
-0.01000976562500
-0.05688476562500
0.02990722656250
-0.03747558593750
-0.05944824218750
-0.00573730468750
0.08154296875000
0.01745605468750
-0.04968261718750
-0.01513671875000
0.01379394531250
-0.06127929687500
-0.08105468750000
-0.09472656250000
-0.02294921875000
-0.01379394531250
-0.10205078125000
-0.04333496093750
-0.12097167968750
-0.09716796875000
0.08032226562500
0.00451660156250
0.04650878906250
0.01074218750000
0.00939941406250
0.06738281250000
0.08837890625000
-0.02502441406250
0.04479980468750
0.00769042968750
-0.08081054687500
0.00524902343750
0.02416992187500
-0.04895019531250
-0.00463867187500
-0.03356933593750
-0.04479980468750
-0.02050781250000
-0.04675292968750
-0.01281738281250
0.03637695312500
-0.05212402343750
-0.03552246093750
-0.00476074218750
0.04174804687500
0.10546875000000
-0.01159667968750
-0.09875488281250
-0.06567382812500
-0.08056640625000
0.01696777343750
-0.06396484375000
-0.13623046875000
-0.04345703125000
-0.05310058593750
-0.10559082031250
-0.01159667968750
0.02124023437500
-0.10144042968750
0.06103515625000
-0.03552246093750
-0.09130859375000
0.07153320312500
-0.09326171875000
0.00390625000000
0.03955078125000
0.08081054687500
0.01013183593750
-0.01782226562500
0.08569335937500
-0.01269531250000
-0.04956054687500
-0.02172851562500
-0.10388183593750
-0.01281738281250
0.03552246093750
-0.02600097656250
0.07751464843750
-0.09423828125000
-0.07727050781250
-0.03247070312500
-0.01745605468750
0.07385253906250
-0.03564453125000
0.09899902343750
0.01855468750000
-0.00158691406250
0.07617187500000
0.05664062500000
-0.07775878906250
0.01953125000000
-0.08129882812500
-0.07324218750000
-0.05053710937500
-0.00683593750000
-0.00366210937500
0.01245117187500
-0.05639648437500
-0.04614257812500
-0.08544921875000
0.05895996093750
-0.08740234375000
-0.01745605468750
0.02050781250000
-0.05004882812500
0.06811523437500
-0.06396484375000
-0.00854492187500
-0.00451660156250
-0.07397460937500
-0.08300781250000
0.11572265625000
0.06445312500000
0.00207519531250
-0.02380371093750
0.12133789062500
-0.07629394531250
-0.08081054687500
0.01574707031250
-0.01269531250000
-0.03137207031250
-0.06726074218750
0.03356933593750
-0.09082031250000
-0.05505371093750
-0.06140136718750
-0.09973144531250
0.01867675781250
-0.03076171875000
0.02185058593750
0.03076171875000
0.01489257812500
0.04113769531250
0.01574707031250
-0.08312988281250
-0.02746582031250
0.02478027343750
0.01232910156250
-0.00439453125000
0.01257324218750
-0.06970214843750
0.03344726562500
-0.06958007812500
0.01806640625000
0.01171875000000
-0.06909179687500
-0.01464843750000
0.03552246093750
-0.03625488281250
-0.04736328125000
0.05090332031250
0.01940917968750
-0.10668945312500
0.01904296875000
0.05639648437500
0.01342773437500
0.03759765625000
0.06286621093750
-0.06225585937500
-0.06958007812500
0.00402832031250
0.01989746093750
-0.07910156250000
-0.04455566406250
0.13317871093750
-0.06958007812500
-0.03112792968750
-0.04870605468750
-0.09436035156250
0.02770996093750
-0.04895019531250
0.00292968750000
0.00000000000000
0.02050781250000
0.06933593750000
-0.03320312500000
0.03942871093750
0.00219726562500
-0.00268554687500
-0.07055664062500
0.06921386718750
0.08117675781250
-0.02685546875000
0.05847167968750
0.07165527343750
0.02929687500000
0.07299804687500
0.04980468750000
-0.03784179687500
-0.06835937500000
-0.00451660156250
-0.05895996093750
-0.02600097656250
-0.02465820312500
0.05541992187500
-0.07482910156250
-0.07739257812500
0.07189941406250
0.00207519531250
0.01147460937500
0.05871582031250
-0.01391601562500
0.12805175781250
-0.02941894531250
0.04626464843750
0.06640625000000
-0.08325195312500
-0.07409667968750
0.02258300781250
0.02673339843750
0.03051757812500
-0.05895996093750
0.04748535156250
0.02465820312500
-0.03430175781250
-0.03088378906250
-0.04772949218750
0.04638671875000
-0.04797363281250
-0.06701660156250
-0.06298828125000
0.02868652343750
0.06591796875000
-0.06848144531250
0.03161621093750
-0.08251953125000
-0.02526855468750
-0.07678222656250
0.06738281250000
-0.01245117187500
0.00073242187500
-0.02758789062500
-0.02893066406250
-0.02587890625000
-0.03808593750000
-0.05786132812500
0.02832031250000
-0.00500488281250
0.07263183593750
0.05480957031250
0.06518554687500
0.00427246093750
-0.04638671875000
-0.03503417968750
-0.01708984375000
-0.02490234375000
-0.01733398437500
0.05407714843750
0.07067871093750
-0.00524902343750
-0.05969238281250
0.07556152343750
0.00134277343750
0.02941894531250
0.00097656250000
-0.06237792968750
0.03796386718750
0.03015136718750
-0.05334472656250
-0.00280761718750
0.03491210937500
0.06347656250000
0.03991699218750
-0.01965332031250
0.04284667968750
0.05114746093750
-0.06445312500000
0.06176757812500
-0.09033203125000
0.03295898437500
-0.05603027343750
-0.02172851562500
-0.05456542968750
0.04919433593750
0.05773925781250
0.05615234375000
-0.03686523437500
0.05541992187500
0.00000000000000
0.01708984375000
0.01232910156250
-0.02795410156250
0.03674316406250
0.02697753906250
0.00158691406250
0.04394531250000
-0.08068847656250
0.07727050781250
0.06311035156250
-0.07775878906250
0.03210449218750
0.02160644531250
0.08959960937500
-0.05761718750000
-0.00512695312500
-0.08593750000000
0.04138183593750
0.01416015625000
-0.08471679687500
-0.03161621093750
-0.01269531250000
-0.06347656250000
-0.06164550781250
0.02722167968750
0.04345703125000
-0.04467773437500
0.03637695312500
-0.09082031250000
-0.02893066406250
0.06005859375000
0.04394531250000
0.06774902343750
-0.03625488281250
0.07714843750000
-0.02868652343750
0.02807617187500
-0.03088378906250
0.01879882812500
0.02795410156250
0.07751464843750
-0.06884765625000
0.06481933593750
0.02709960937500
0.00793457031250
-0.05346679687500
-0.00329589843750
0.04284667968750
0.04113769531250
0.01611328125000
0.05285644531250
0.03112792968750
0.02844238281250
0.01953125000000
0.03125000000000
-0.00549316406250
0.08081054687500
-0.02648925781250
0.01745605468750
0.06665039062500
0.07910156250000
0.05944824218750
-0.00268554687500
-0.08410644531250
0.04602050781250
0.03710937500000
-0.00488281250000
0.08129882812500
-0.07751464843750
0.05139160156250
-0.00793457031250
-0.06823730468750
-0.04968261718750
-0.01757812500000
0.01196289062500
-0.03686523437500
-0.01110839843750
0.00939941406250
0.04736328125000
-0.02539062500000
-0.00317382812500
-0.03076171875000
0.07983398437500
-0.02197265625000
-0.05163574218750
0.09204101562500
0.01965332031250
-0.01464843750000
0.05676269531250
0.01159667968750
0.07971191406250
0.03076171875000
-0.08447265625000
0.06347656250000
0.05126953125000
-0.05810546875000
0.04614257812500
-0.04235839843750
0.06262207031250
-0.05480957031250
0.08691406250000
-0.09484863281250
0.00439453125000
0.00610351562500
0.05200195312500
0.05065917968750
-0.01013183593750
0.08337402343750
0.00451660156250
0.03564453125000
0.04541015625000
0.06909179687500
-0.07666015625000
0.02465820312500
0.09411621093750
0.02062988281250
-0.07873535156250
-0.01416015625000
0.06213378906250
-0.07141113281250
-0.02746582031250
-0.06445312500000
0.08312988281250
-0.08239746093750
-0.06298828125000
0.07128906250000
0.07250976562500
-0.08312988281250
-0.03027343750000
-0.05261230468750
-0.02246093750000
-0.00512695312500
0.03222656250000
-0.05053710937500
-0.04956054687500
-0.04614257812500
-0.07324218750000
0.04162597656250
0.05822753906250
-0.03540039062500
0.07592773437500
-0.04003906250000
-0.00183105468750
0.00598144531250
-0.07019042968750
-0.04309082031250
-0.06469726562500
-0.02368164062500
0.01757812500000
0.08203125000000
0.08679199218750
0.04675292968750
-0.06237792968750
0.09802246093750
0.00769042968750
-0.03173828125000
0.01416015625000
0.02880859375000
0.06127929687500
-0.02770996093750
0.05725097656250
0.08520507812500
0.06738281250000
0.02575683593750
-0.04016113281250
0.11755371093750
0.04052734375000
0.03088378906250
-0.06726074218750
-0.06579589843750
-0.07617187500000
-0.03210449218750
-0.03405761718750
0.05114746093750
0.07006835937500
0.03186035156250
-0.03234863281250
0.01611328125000
-0.05444335937500
-0.10668945312500
0.00952148437500
0.02392578125000
-0.03283691406250
-0.02099609375000
-0.02355957031250
-0.09729003906250
-0.03137207031250
-0.00646972656250
0.01892089843750
0.02050781250000
0.04528808593750
-0.02380371093750
0.09191894531250
0.03686523437500
0.01428222656250
0.06811523437500
-0.06237792968750
-0.00659179687500
-0.03515625000000
-0.05895996093750
0.01831054687500
0.01184082031250
0.08654785156250
0.04248046875000
-0.03295898437500
0.03186035156250
0.04711914062500
0.03857421875000
0.10339355468750
0.03771972656250
-0.00756835937500
-0.08679199218750
0.06823730468750
0.13171386718750
-0.03161621093750
0.08398437500000
-0.01220703125000
0.02124023437500
0.07690429687500
-0.05883789062500
-0.04748535156250
-0.01892089843750
-0.05554199218750
0.08752441406250
-0.07421875000000
0.02587890625000
0.07861328125000
-0.05981445312500
0.01794433593750
-0.01037597656250
-0.01721191406250
-0.04785156250000
0.07250976562500
-0.00219726562500
-0.06201171875000
0.07678222656250
-0.07165527343750
0.03930664062500
0.08557128906250
-0.03698730468750
-0.10681152343750
-0.04760742187500
0.00219726562500
-0.10363769531250
-0.11193847656250
0.01147460937500
0.03308105468750
-0.05285644531250
-0.06628417968750
0.03308105468750
-0.06042480468750
-0.08203125000000
0.00561523437500
0.02221679687500
0.00598144531250
-0.01220703125000
-0.06542968750000
0.07104492187500
0.07897949218750
0.08483886718750
0.07531738281250
0.08142089843750
0.01379394531250
-0.06896972656250
0.03088378906250
0.10168457031250
-0.05334472656250
0.05480957031250
0.02844238281250
-0.04284667968750
0.00695800781250
0.06127929687500
-0.03527832031250
-0.01159667968750
0.00158691406250
-0.06298828125000
0.02343750000000
0.04821777343750
0.02770996093750
-0.07824707031250
0.06311035156250
-0.05468750000000
0.04833984375000
-0.03906250000000
-0.06213378906250
-0.00476074218750
0.00451660156250
-0.00415039062500
-0.03295898437500
0.01940917968750
-0.07690429687500
0.04089355468750
0.04284667968750
-0.08154296875000
-0.03454589843750
0.05371093750000
-0.07324218750000
0.01574707031250
-0.07812500000000
-0.06665039062500
0.06872558593750
0.00512695312500
0.02319335937500
0.10620117187500
-0.07763671875000
-0.06689453125000
0.08142089843750
-0.03112792968750
-0.07592773437500
-0.07861328125000
0.03283691406250
0.03295898437500
0.06347656250000
0.02758789062500
-0.04028320312500
0.06762695312500
0.01354980468750
0.02478027343750
-0.07263183593750
-0.06787109375000
-0.08361816406250
0.05041503906250
-0.04553222656250
0.09338378906250
0.05346679687500
-0.04687500000000
0.00219726562500
-0.08190917968750
-0.02941894531250
0.03283691406250
0.07800292968750
0.09655761718750
0.07922363281250
0.00476074218750
-0.02697753906250
0.09545898437500
0.01391601562500
-0.06970214843750
0.00830078125000
0.00268554687500
-0.01806640625000
0.09802246093750
-0.03479003906250
0.06469726562500
-0.01269531250000
-0.00634765625000
-0.00134277343750
-0.11291503906250
-0.05676269531250
-0.05908203125000
-0.00134277343750
0.05004882812500
-0.00244140625000
-0.02404785156250
-0.00488281250000
-0.02380371093750
-0.00415039062500
0.06030273437500
0.02709960937500
-0.07067871093750
0.01330566406250
0.08496093750000
-0.01416015625000
0.01123046875000
-0.02722167968750
0.02844238281250
-0.07214355468750
0.00207519531250
-0.05029296875000
-0.04150390625000
0.05871582031250
-0.08105468750000
-0.08984375000000
0.04492187500000
0.08850097656250
0.00097656250000
-0.03503417968750
0.06713867187500
0.10009765625000
0.08666992187500
-0.03405761718750
-0.08044433593750
-0.09667968750000
-0.02233886718750
-0.04968261718750
-0.09069824218750
-0.08264160156250
-0.05859375000000
-0.00122070312500
-0.05834960937500
0.05017089843750
0.03564453125000
-0.04296875000000
0.03332519531250
0.02612304687500
0.07910156250000
-0.03381347656250
0.01367187500000
-0.08032226562500
0.05590820312500
0.02990722656250
0.06787109375000
-0.09399414062500
-0.04089355468750
0.06213378906250
-0.02746582031250
-0.06701660156250
0.02587890625000
-0.05163574218750
0.01660156250000
-0.12194824218750
0.09008789062500
0.00329589843750
-0.13452148437500
0.06884765625000
0.04589843750000
-0.05554199218750
-0.00817871093750
0.03161621093750
0.09509277343750
0.02001953125000
-0.05383300781250
-0.00646972656250
0.10241699218750
0.01806640625000
-0.00097656250000
0.02514648437500
-0.04272460937500
-0.07287597656250
0.01135253906250
0.01660156250000
-0.02526855468750
0.08911132812500
0.03234863281250
-0.00048828125000
-0.07788085937500
-0.06237792968750
-0.03039550781250
0.01037597656250
0.01171875000000
0.02331542968750
0.04907226562500
-0.00195312500000
0.04003906250000
-0.06030273437500
-0.10461425781250
0.05993652343750
-0.06762695312500
-0.01428222656250
-0.05688476562500
-0.01977539062500
-0.05322265625000
-0.00964355468750
-0.01098632812500
-0.06005859375000
-0.05322265625000
0.06494140625000
0.05590820312500
0.07470703125000
0.07019042968750
-0.04992675781250
0.04272460937500
-0.03356933593750
-0.05700683593750
0.01672363281250
0.00952148437500
0.09680175781250
-0.08666992187500
-0.02465820312500
-0.02636718750000
-0.00646972656250
-0.03588867187500
0.05114746093750
-0.00292968750000
0.07348632812500
0.03442382812500
-0.04919433593750
0.01928710937500
0.09606933593750
0.05078125000000
-0.02917480468750
0.04077148437500
-0.02343750000000
0.03088378906250
-0.06579589843750
0.07055664062500
0.01245117187500
-0.03918457031250
-0.03906250000000
-0.03149414062500
0.02563476562500
-0.04541015625000
0.07946777343750
0.07189941406250
-0.00585937500000
-0.03271484375000
0.07592773437500
-0.06066894531250
0.02917480468750
0.00915527343750
0.08215332031250
0.03515625000000
0.07165527343750
0.13610839843750
0.10620117187500
-0.04772949218750
-0.02209472656250
-0.02197265625000
0.00390625000000
-0.05859375000000
-0.06750488281250
0.00769042968750
-0.07019042968750
0.02709960937500
-0.05175781250000
-0.05834960937500
-0.08789062500000
-0.06835937500000
0.05480957031250
0.01269531250000
-0.07739257812500
0.08728027343750
-0.02819824218750
-0.05688476562500
0.02978515625000
-0.09020996093750
-0.10449218750000
-0.04431152343750
0.01428222656250
-0.05822753906250
-0.04077148437500
0.07019042968750
-0.05834960937500
-0.08764648437500
-0.07861328125000
-0.00793457031250
-0.03686523437500
0.00122070312500
-0.00939941406250
0.06384277343750
0.07556152343750
0.07421875000000
0.03356933593750
-0.07531738281250
0.04284667968750
0.07519531250000
0.02343750000000
-0.03942871093750
0.06091308593750
-0.05224609375000
0.07934570312500
0.00720214843750
-0.09765625000000
0.02294921875000
0.03210449218750
0.07189941406250
0.05517578125000
0.05297851562500
0.05285644531250
0.02978515625000
-0.06140136718750
-0.02026367187500
-0.03906250000000
0.08044433593750
0.03991699218750
-0.03137207031250
-0.06201171875000
0.02832031250000
0.01806640625000
0.05566406250000
-0.07055664062500
0.06506347656250
0.04248046875000
0.01513671875000
0.06518554687500
0.02746582031250
0.07751464843750
-0.03369140625000
0.02893066406250
-0.08703613281250
-0.05700683593750
0.02380371093750
-0.05517578125000
0.02819824218750
-0.02807617187500
0.09045410156250
0.04345703125000
-0.03295898437500
0.00451660156250
-0.02392578125000
-0.01232910156250
0.05041503906250
-0.09338378906250
-0.01806640625000
-0.04150390625000
0.08251953125000
0.05957031250000
-0.06665039062500
-0.04040527343750
-0.03503417968750
0.03137207031250
0.05603027343750
0.10510253906250
-0.02563476562500
0.01831054687500
0.00024414062500
-0.08276367187500
0.03137207031250
0.00170898437500
-0.08789062500000
0.03857421875000
-0.03601074218750
0.01733398437500
0.02758789062500
-0.07128906250000
-0.03857421875000
-0.08459472656250
-0.04443359375000
-0.04260253906250
0.09631347656250
0.09033203125000
0.06030273437500
0.09375000000000
0.03784179687500
-0.08508300781250
0.00195312500000
0.01000976562500
0.01184082031250
-0.00280761718750
-0.02673339843750
0.04455566406250
0.01074218750000
0.02270507812500
0.02941894531250
0.05834960937500
-0.05371093750000
-0.00207519531250
0.08630371093750
-0.00097656250000
-0.06945800781250
-0.01647949218750
-0.02148437500000
0.08361816406250
0.04357910156250
0.00671386718750
0.02502441406250
-0.02893066406250
0.10083007812500
0.06555175781250
-0.04736328125000
-0.03283691406250
-0.07714843750000
0.06884765625000
-0.01928710937500
0.07592773437500
0.04260253906250
-0.05029296875000
-0.03173828125000
0.10925292968750
0.02014160156250
0.02502441406250
0.02539062500000
0.03881835937500
-0.00952148437500
0.06433105468750
0.05688476562500
0.10705566406250
0.01208496093750
0.03881835937500
-0.05432128906250
0.04309082031250
0.00341796875000
0.02185058593750
-0.01745605468750
0.01049804687500
0.06140136718750
0.09301757812500
-0.00488281250000
-0.00097656250000
0.05358886718750
0.05041503906250
0.06164550781250
0.07360839843750
-0.04016113281250
0.06701660156250
0.08398437500000
-0.00305175781250
0.01733398437500
0.01025390625000
-0.07373046875000
-0.01159667968750
0.02465820312500
0.00891113281250
-0.03125000000000
-0.00195312500000
-0.02038574218750
0.05712890625000
-0.07592773437500
0.01184082031250
0.01391601562500
-0.08532714843750
0.06982421875000
0.01281738281250
0.06237792968750
-0.03369140625000
0.04431152343750
-0.03601074218750
-0.08166503906250
-0.04089355468750
-0.04748535156250
-0.05786132812500
-0.05957031250000
0.04846191406250
0.06372070312500
-0.08410644531250
-0.06188964843750
-0.06640625000000
0.03771972656250
-0.01843261718750
0.05383300781250
0.05566406250000
-0.01232910156250
-0.04577636718750
0.03454589843750
-0.06188964843750
-0.06262207031250
0.08178710937500
-0.04406738281250
-0.00244140625000
0.08630371093750
-0.00036621093750
-0.04699707031250
0.00939941406250
0.02990722656250
-0.06396484375000
-0.02978515625000
0.03540039062500
0.05200195312500
-0.03088378906250
-0.02746582031250
-0.00732421875000
0.03479003906250
-0.07580566406250
0.06408691406250
-0.00622558593750
0.01379394531250
0.05639648437500
-0.00585937500000
0.10058593750000
0.10290527343750
-0.01477050781250
-0.09338378906250
0.04907226562500
0.07299804687500
-0.05407714843750
-0.01525878906250
0.02905273437500
-0.07775878906250
-0.05285644531250
-0.03393554687500
0.00268554687500
-0.01831054687500
0.06616210937500
0.05139160156250
0.05444335937500
-0.09582519531250
-0.00109863281250
-0.06457519531250
-0.10791015625000
-0.07629394531250
0.00036621093750
0.00073242187500
-0.00744628906250
0.01696777343750
-0.08923339843750
-0.08557128906250
-0.00378417968750
-0.08508300781250
-0.11132812500000
-0.02917480468750
-0.04028320312500
0.00830078125000
0.03735351562500
-0.02429199218750
0.10351562500000
0.02868652343750
0.01220703125000
-0.02416992187500
-0.02331542968750
0.09545898437500
-0.00671386718750
-0.02331542968750
-0.05090332031250
0.04492187500000
-0.04589843750000
-0.08520507812500
0.00720214843750
-0.05712890625000
-0.06860351562500
-0.08337402343750
0.07385253906250
0.03308105468750
-0.03649902343750
-0.09692382812500
0.04113769531250
0.06469726562500
0.08227539062500
-0.02746582031250
0.06640625000000
0.00732421875000
0.07299804687500
0.08728027343750
0.02380371093750
0.05249023437500
0.07934570312500
-0.07128906250000
-0.01745605468750
-0.07727050781250
-0.04150390625000
-0.06433105468750
-0.04003906250000
-0.08471679687500
0.06469726562500
0.05395507812500
-0.02270507812500
-0.00354003906250
0.03344726562500
0.06140136718750
0.04553222656250
0.01818847656250
0.07006835937500
-0.05969238281250
-0.05090332031250
-0.02282714843750
-0.05725097656250
0.02783203125000
0.09362792968750
-0.00134277343750
0.06945800781250
0.03417968750000
-0.04711914062500
0.01196289062500
0.05151367187500
0.01855468750000
0.02416992187500
0.03796386718750
0.02124023437500
0.09155273437500
0.06042480468750
0.07812500000000
-0.04174804687500
-0.00854492187500
-0.01257324218750
-0.07348632812500
0.08911132812500
0.06799316406250
0.00390625000000
-0.04479980468750
-0.03015136718750
-0.07238769531250
-0.02832031250000
-0.04724121093750
-0.06286621093750
0.02966308593750
0.05541992187500
0.00073242187500
0.01733398437500
-0.07177734375000
0.04919433593750
0.05639648437500
-0.04113769531250
0.03527832031250
-0.02868652343750
-0.00854492187500
-0.00024414062500
0.05822753906250
-0.06262207031250
-0.08276367187500
-0.08496093750000
0.09484863281250
-0.07263183593750
0.00793457031250
0.08239746093750
0.08264160156250
-0.08813476562500
0.02661132812500
-0.08898925781250
-0.02294921875000
0.06433105468750
-0.00024414062500
-0.02075195312500
0.05749511718750
-0.07141113281250
-0.05578613281250
0.04968261718750
-0.04431152343750
-0.03784179687500
0.05236816406250
0.02758789062500
0.05090332031250
0.00903320312500
-0.06518554687500
0.07592773437500
0.08105468750000
0.01440429687500
0.08129882812500
0.05261230468750
0.02355957031250
0.02111816406250
-0.00598144531250
0.05249023437500
-0.04882812500000
0.02526855468750
0.07128906250000
-0.08337402343750
0.06921386718750
0.01843261718750
0.00622558593750
-0.05944824218750
0.00195312500000
0.04455566406250
0.04553222656250
-0.11608886718750
0.08166503906250
-0.01672363281250
-0.09484863281250
0.01501464843750
0.03051757812500
-0.06750488281250
-0.00683593750000
-0.07971191406250
-0.11193847656250
0.02075195312500
-0.00122070312500
-0.03906250000000
-0.02648925781250
0.00976562500000
0.00256347656250
0.03027343750000
0.00134277343750
0.05310058593750
0.01086425781250
-0.02783203125000
-0.06884765625000
-0.05310058593750
-0.04418945312500
0.05957031250000
0.02416992187500
-0.03637695312500
-0.06774902343750
0.04357910156250
0.04443359375000
0.01538085937500
-0.05712890625000
0.04028320312500
-0.05334472656250
0.03967285156250
-0.06506347656250
-0.01159667968750
-0.03295898437500
-0.07556152343750
-0.00195312500000
-0.02282714843750
-0.03186035156250
-0.00646972656250
-0.03015136718750
-0.01293945312500
-0.06555175781250
0.03039550781250
-0.04040527343750
-0.06311035156250
0.00708007812500
-0.02038574218750
-0.05603027343750
-0.02160644531250
-0.06604003906250
-0.03906250000000
-0.05712890625000
0.00634765625000
0.04321289062500
0.00720214843750
-0.03588867187500
-0.05834960937500
0.02685546875000
-0.01525878906250
0.06494140625000
-0.00122070312500
-0.09082031250000
0.11669921875000
0.00036621093750
0.00109863281250
-0.01208496093750
0.08154296875000
0.02124023437500
0.03845214843750
0.07324218750000
0.07897949218750
-0.06176757812500
-0.03540039062500
0.01770019531250
-0.01452636718750
0.03552246093750
0.01159667968750
-0.01855468750000
0.06616210937500
0.00976562500000
0.04016113281250
0.03100585937500
0.03442382812500
0.03637695312500
0.02941894531250
-0.01550292968750
-0.02807617187500
-0.05786132812500
-0.10339355468750
-0.01818847656250
-0.06311035156250
0.01123046875000
0.07336425781250
0.04907226562500
0.00891113281250
-0.03002929687500
-0.02258300781250
-0.06958007812500
0.01098632812500
-0.09338378906250
0.04772949218750
0.00732421875000
0.03588867187500
-0.06384277343750
0.01098632812500
-0.08081054687500
-0.02612304687500
-0.00207519531250
0.01892089843750
-0.05444335937500
-0.04394531250000
0.01428222656250
-0.00524902343750
-0.04553222656250
0.03784179687500
-0.08471679687500
0.03076171875000
-0.09130859375000
-0.05944824218750
0.04028320312500
0.10595703125000
0.03808593750000
0.06372070312500
0.00671386718750
0.03540039062500
0.13269042968750
-0.06872558593750
-0.10168457031250
0.08898925781250
0.07666015625000
-0.04541015625000
-0.00463867187500
0.07214355468750
0.07312011718750
0.02746582031250
0.02905273437500
-0.05871582031250
0.07287597656250
-0.06677246093750
-0.09692382812500
-0.06164550781250
-0.06433105468750
-0.04846191406250
-0.01684570312500
-0.03393554687500
0.03332519531250
-0.08276367187500
0.02539062500000
-0.05261230468750
0.02307128906250
0.02905273437500
0.10437011718750
0.02770996093750
-0.08117675781250
-0.04638671875000
-0.03137207031250
0.04711914062500
-0.05285644531250
0.08776855468750
-0.00537109375000
-0.05480957031250
-0.05468750000000
-0.06396484375000
0.01904296875000
0.00646972656250
0.02880859375000
0.00183105468750
0.02636718750000
-0.04443359375000
-0.03283691406250
-0.02233886718750
-0.11499023437500
-0.00708007812500
0.01391601562500
-0.04431152343750
-0.01721191406250
-0.03710937500000
0.05236816406250
-0.05761718750000
0.01220703125000
0.04113769531250
-0.01647949218750
-0.03649902343750
0.00769042968750
0.01745605468750
-0.06457519531250
-0.08361816406250
0.03283691406250
-0.08520507812500
0.04980468750000
0.00659179687500
-0.06396484375000
0.07971191406250
-0.06286621093750
-0.03759765625000
-0.03308105468750
0.03015136718750
-0.06213378906250
-0.00683593750000
0.01684570312500
-0.00988769531250
-0.00097656250000
0.06860351562500
-0.00646972656250
-0.04833984375000
0.05297851562500
0.04431152343750
-0.02307128906250
0.05664062500000
-0.03613281250000
-0.01391601562500
-0.01257324218750
-0.05114746093750
0.01123046875000
0.00952148437500
-0.05859375000000
-0.02319335937500
0.02697753906250
0.07751464843750
-0.00793457031250
-0.01196289062500
0.02416992187500
0.03137207031250
0.07739257812500
0.06665039062500
-0.01892089843750
-0.06030273437500
0.02160644531250
0.04479980468750
-0.03198242187500
-0.03369140625000
0.05017089843750
-0.06750488281250
-0.04357910156250
0.04431152343750
0.04345703125000
-0.02172851562500
-0.02966308593750
0.06665039062500
0.00903320312500
0.06115722656250
-0.02368164062500
0.09094238281250
0.02075195312500
-0.06213378906250
0.04406738281250
0.02380371093750
-0.03808593750000
0.08203125000000
0.01574707031250
0.03405761718750
0.05297851562500
-0.08764648437500
-0.06408691406250
0.07275390625000
0.04956054687500
0.05407714843750
0.00830078125000
0.04931640625000
-0.02929687500000
-0.06469726562500
-0.08312988281250
-0.02087402343750
-0.04638671875000
0.01501464843750
0.03576660156250
0.08923339843750
-0.07995605468750
0.03576660156250
0.08276367187500
0.03222656250000
-0.01416015625000
0.02893066406250
0.01623535156250
0.03332519531250
-0.04089355468750
0.02868652343750
0.00939941406250
0.08020019531250
-0.09973144531250
-0.10229492187500
0.07043457031250
0.04150390625000
-0.00012207031250
0.09252929687500
0.04736328125000
0.06652832031250
-0.07287597656250
-0.09362792968750
0.06311035156250
0.05615234375000
0.07543945312500
-0.00878906250000
0.06420898437500
-0.02697753906250
0.04016113281250
-0.04492187500000
0.01342773437500
-0.01782226562500
-0.00048828125000
-0.02966308593750
-0.05163574218750
-0.10180664062500
0.02880859375000
-0.07543945312500
0.03784179687500
-0.07836914062500
-0.04113769531250
0.06604003906250
0.07421875000000
0.09802246093750
0.07214355468750
0.02844238281250
-0.03747558593750
0.00500488281250
0.01696777343750
-0.01342773437500
-0.10925292968750
0.08068847656250
0.06945800781250
-0.04589843750000
0.04016113281250
-0.08984375000000
0.06201171875000
0.02636718750000
-0.06787109375000
0.00085449218750
0.03002929687500
0.02832031250000
-0.07202148437500
-0.06030273437500
-0.04931640625000
0.05358886718750
0.08020019531250
-0.06848144531250
-0.05554199218750
0.07604980468750
-0.08068847656250
0.00549316406250
-0.07202148437500
0.00061035156250
0.01330566406250
-0.07324218750000
-0.01391601562500
0.02197265625000
-0.08691406250000
-0.06616210937500
0.04089355468750
-0.00854492187500
0.02661132812500
-0.07312011718750
-0.00561523437500
-0.08508300781250
0.06066894531250
0.05407714843750
0.00720214843750
0.06201171875000
-0.01904296875000
0.09912109375000
-0.01684570312500
-0.01037597656250
-0.09143066406250
-0.07897949218750
0.05297851562500
0.01647949218750
0.00646972656250
-0.03039550781250
-0.01550292968750
-0.05737304687500
0.07495117187500
0.08569335937500
-0.05578613281250
-0.02905273437500
0.07177734375000
-0.07543945312500
0.00439453125000
-0.07556152343750
-0.00451660156250
0.02612304687500
0.02917480468750
-0.01135253906250
0.05664062500000
-0.06713867187500
-0.06066894531250
-0.01660156250000
-0.05957031250000
0.09631347656250
0.00292968750000
-0.01660156250000
0.01086425781250
0.00952148437500
0.01440429687500
0.03271484375000
-0.03454589843750
-0.08447265625000
-0.01306152343750
-0.03784179687500
-0.02282714843750
0.02880859375000
0.00854492187500
0.05200195312500
0.13781738281250
-0.08325195312500
0.00256347656250
-0.10961914062500
-0.10437011718750
-0.01110839843750
-0.06665039062500
0.04602050781250
0.03869628906250
0.07067871093750
0.04492187500000
0.08801269531250
-0.01440429687500
-0.03649902343750
0.03906250000000
0.05175781250000
0.08557128906250
0.08129882812500
-0.05712890625000
0.09008789062500
-0.06152343750000
0.06567382812500
-0.07690429687500
-0.10327148437500
0.05358886718750
-0.04760742187500
-0.05883789062500
-0.04907226562500
-0.05004882812500
-0.02832031250000
-0.07434082031250
-0.01904296875000
0.01538085937500
-0.02758789062500
0.11608886718750
-0.02490234375000
0.01794433593750
-0.08789062500000
-0.05175781250000
-0.03979492187500
0.00744628906250
-0.02062988281250
-0.07189941406250
-0.04895019531250
0.07238769531250
0.03637695312500
-0.04809570312500
-0.05358886718750
0.02990722656250
0.01477050781250
-0.05908203125000
-0.03857421875000
0.00390625000000
-0.05566406250000
0.07995605468750
0.02722167968750
0.07910156250000
-0.01867675781250
-0.04052734375000
0.07153320312500
-0.08300781250000
-0.05554199218750
0.03564453125000
0.13024902343750
0.04052734375000
-0.11608886718750
-0.00256347656250
0.02807617187500
-0.13439941406250
0.09948730468750
-0.08605957031250
-0.06823730468750
-0.03674316406250
0.03735351562500
-0.01062011718750
-0.02600097656250
-0.00183105468750
0.02136230468750
0.01342773437500
-0.00366210937500
0.03247070312500
0.06091308593750
-0.03906250000000
-0.00927734375000
0.01806640625000
0.07275390625000
-0.00573730468750
-0.08374023437500
0.01745605468750
0.01025390625000
0.08129882812500
0.07531738281250
0.05273437500000
0.05126953125000
0.08227539062500
0.06323242187500
-0.02746582031250
0.05578613281250
0.03698730468750
0.00402832031250
0.02966308593750
-0.03662109375000
0.00000000000000
-0.01184082031250
-0.02648925781250
-0.07153320312500
-0.06225585937500
-0.08032226562500
0.03515625000000
0.06054687500000
-0.01623535156250
-0.01928710937500
-0.05334472656250
0.05273437500000
0.01660156250000
0.08227539062500
0.06469726562500
0.06994628906250
0.04870605468750
0.05541992187500
-0.07482910156250
0.01318359375000
0.07983398437500
0.07385253906250
0.04394531250000
-0.03222656250000
0.06286621093750
0.08776855468750
-0.07128906250000
-0.04980468750000
-0.06701660156250
-0.13745117187500
0.08142089843750
0.05859375000000
0.04907226562500
0.11376953125000
0.01904296875000
-0.04223632812500
0.11071777343750
-0.00329589843750
0.02282714843750
