-0.01684570312500
-0.00561523437500
-0.00469970703125
0.00860595703125
-0.01635742187500
-0.01800537109375
0.01342773437500
0.00805664062500
-0.00250244140625
-0.00054931640625
-0.01788330078125
-0.00177001953125
0.00122070312500
0.01550292968750
-0.02301025390625
0.00756835937500
0.01312255859375
-0.03027343750000
-0.01507568359375
0.01165771484375
0.00408935546875
-0.01824951171875
-0.01373291015625
-0.01171875000000
-0.01611328125000
-0.00830078125000
-0.01904296875000
-0.00439453125000
0.00701904296875
0.01348876953125
-0.00726318359375
-0.00482177734375
-0.01867675781250
0.02368164062500
-0.00683593750000
0.00628662109375
0.01049804687500
-0.00970458984375
-0.01013183593750
0.00683593750000
-0.01428222656250
0.00164794921875
-0.01702880859375
-0.00341796875000
-0.00158691406250
0.00054931640625
-0.01373291015625
-0.00860595703125
0.05035400390625
-0.01348876953125
0.01440429687500
-0.00842285156250
-0.02636718750000
0.01654052734375
-0.01367187500000
0.00250244140625
-0.01043701171875
0.01110839843750
0.00872802734375
0.00354003906250
0.00189208984375
-0.01733398437500
-0.01916503906250
-0.00115966796875
