-0.19836425781250
-0.19189453125000
0.22717285156250
0.30920410156250
0.23889160156250
0.26074218750000
0.03283691406250
0.15991210937500
0.41223144531250
0.12377929687500
-0.08923339843750
0.08325195312500
0.14514160156250
0.07702636718750
0.36279296875000
0.27001953125000
0.24853515625000
0.03796386718750
0.16735839843750
0.23046875000000
0.23974609375000
-0.04455566406250
0.12915039062500
-0.01232910156250
0.30078125000000
0.09643554687500
0.16650390625000
-0.20190429687500
0.29553222656250
-0.05773925781250
-0.25451660156250
0.20007324218750
0.16589355468750
-0.27197265625000
-0.04211425781250
0.09838867187500
0.16809082031250
-0.23156738281250
0.08776855468750
-0.22094726562500
0.26147460937500
-0.08654785156250
-0.28881835937500
0.08728027343750
-0.03906250000000
-0.18725585937500
0.30822753906250
-0.27062988281250
-0.06079101562500
0.08715820312500
-0.04028320312500
-0.10534667968750
0.06555175781250
-0.11083984375000
0.19787597656250
0.08190917968750
-0.04602050781250
0.11901855468750
0.16552734375000
0.01953125000000
-0.10632324218750
-0.14404296875000
-0.21582031250000
-0.13293457031250
-0.19799804687500
-0.15917968750000
-0.00097656250000
-0.29711914062500
0.27661132812500
-0.11096191406250
-0.13537597656250
0.12634277343750
