-0.09301757812500
0.01721191406250
0.01110839843750
0.08593750000000
0.21948242187500
0.06396484375000
0.23767089843750
0.03381347656250
0.16699218750000
0.01062011718750
0.20129394531250
0.05029296875000
0.01428222656250
0.06970214843750
0.23547363281250
0.08227539062500
0.23937988281250
0.22070312500000
0.05407714843750
-0.10241699218750
0.11010742187500
0.01342773437500
0.17749023437500
-0.03527832031250
0.19055175781250
0.17443847656250
0.04064941406250
-0.02172851562500
-0.04223632812500
0.05786132812500
0.18676757812500
0.02136230468750
-0.15307617187500
0.07189941406250
0.01733398437500
-0.18017578125000
0.06469726562500
-0.00561523437500
0.04187011718750
0.09411621093750
0.11303710937500
-0.07556152343750
0.07373046875000
0.11340332031250
0.11279296875000
-0.11218261718750
-0.03356933593750
0.06005859375000
-0.10021972656250
0.10034179687500
-0.08166503906250
-0.07482910156250
-0.13891601562500
0.02551269531250
0.16015625000000
0.09082031250000
0.16149902343750
0.00561523437500
-0.09033203125000
-0.05590820312500
0.04431152343750
0.10021972656250
0.01867675781250
-0.04431152343750
0.01721191406250
-0.18762207031250
0.14416503906250
-0.12683105468750
0.06665039062500
0.16589355468750
0.06152343750000
-0.09387207031250
-0.01013183593750
0.08142089843750
0.04357910156250
0.07958984375000
-0.07238769531250
0.14562988281250
0.13012695312500
-0.08764648437500
0.06884765625000
0.04309082031250
0.15588378906250
0.00231933593750
-0.09191894531250
-0.13439941406250
0.01037597656250
-0.05834960937500
-0.11889648437500
-0.04003906250000
0.04260253906250
-0.05468750000000
-0.09558105468750
-0.08642578125000
-0.10668945312500
0.08471679687500
-0.03454589843750
-0.07238769531250
0.08996582031250
-0.09399414062500
0.14916992187500
0.11425781250000
0.03002929687500
0.07641601562500
0.12145996093750
-0.01904296875000
0.21093750000000
0.04638671875000
-0.06201171875000
0.19177246093750
0.20812988281250
-0.02624511718750
-0.01904296875000
-0.04199218750000
0.15869140625000
-0.06091308593750
-0.07312011718750
0.20166015625000
0.08276367187500
0.22875976562500
-0.04943847656250
0.18432617187500
0.08532714843750
0.06152343750000
0.21142578125000
0.05590820312500
0.18518066406250
-0.08752441406250
0.07434082031250
0.23059082031250
-0.06640625000000
0.08129882812500
0.19042968750000
0.08984375000000
-0.07067871093750
0.23876953125000
0.05737304687500
-0.04467773437500
-0.05480957031250
0.08569335937500
0.14111328125000
-0.06445312500000
0.08447265625000
0.03869628906250
0.10424804687500
0.05810546875000
-0.03564453125000
-0.02880859375000
-0.12548828125000
0.05297851562500
0.14099121093750
-0.12902832031250
0.03186035156250
0.08923339843750
0.09643554687500
0.12280273437500
-0.10839843750000
0.01306152343750
0.15112304687500
-0.04541015625000
0.03869628906250
-0.01770019531250
0.00329589843750
0.16540527343750
0.19921875000000
-0.00207519531250
-0.07934570312500
0.17712402343750
-0.05676269531250
-0.15209960937500
0.01501464843750
0.17260742187500
0.01416015625000
0.01403808593750
-0.11547851562500
0.08508300781250
0.16931152343750
-0.07287597656250
0.18908691406250
0.15307617187500
0.20043945312500
0.24145507812500
0.11059570312500
0.25939941406250
0.07458496093750
0.19628906250000
-0.05541992187500
0.20983886718750
0.11938476562500
-0.06909179687500
0.22509765625000
0.09130859375000
0.15820312500000
-0.04309082031250
-0.06762695312500
-0.02233886718750
0.25207519531250
0.05920410156250
-0.03063964843750
-0.02783203125000
0.01647949218750
0.06164550781250
0.21850585937500
0.10424804687500
0.14465332031250
0.03601074218750
-0.14526367187500
0.16442871093750
0.14782714843750
-0.05639648437500
0.04797363281250
0.06835937500000
-0.08703613281250
-0.05383300781250
0.19934082031250
0.14196777343750
0.19482421875000
0.23522949218750
0.05944824218750
0.05505371093750
0.09948730468750
0.16259765625000
0.07958984375000
0.17529296875000
-0.01025390625000
0.12084960937500
0.19372558593750
0.18469238281250
0.22619628906250
0.13586425781250
0.08935546875000
0.20983886718750
0.24023437500000
0.19067382812500
0.15869140625000
0.11901855468750
0.07971191406250
0.14160156250000
0.22619628906250
0.23742675781250
0.20056152343750
0.21813964843750
-0.08447265625000
0.08251953125000
-0.07971191406250
-0.10424804687500
-0.00817871093750
0.13549804687500
-0.00488281250000
0.15319824218750
0.10620117187500
0.05407714843750
-0.03979492187500
-0.13269042968750
0.19616699218750
0.00012207031250
0.17724609375000
-0.01965332031250
0.05712890625000
0.12060546875000
0.18139648437500
-0.16320800781250
0.15747070312500
0.03540039062500
0.13500976562500
-0.10754394531250
-0.05322265625000
0.14440917968750
-0.00756835937500
0.11071777343750
0.01989746093750
-0.11267089843750
0.18591308593750
-0.03112792968750
-0.10791015625000
0.06518554687500
0.11718750000000
0.04980468750000
0.16918945312500
-0.06604003906250
-0.10888671875000
-0.19006347656250
0.07775878906250
0.10290527343750
-0.03527832031250
-0.11352539062500
-0.09936523437500
-0.01037597656250
-0.02709960937500
0.03051757812500
-0.07104492187500
0.04577636718750
-0.05859375000000
-0.11169433593750
0.16992187500000
-0.14636230468750
-0.05712890625000
0.18518066406250
0.14233398437500
-0.06640625000000
0.10083007812500
-0.04565429687500
0.12658691406250
0.05395507812500
0.03723144531250
0.05322265625000
0.12329101562500
0.12939453125000
0.14404296875000
-0.09875488281250
-0.08813476562500
-0.16955566406250
0.06701660156250
0.03784179687500
-0.17346191406250
-0.10449218750000
-0.11926269531250
-0.17407226562500
-0.16003417968750
0.07287597656250
-0.00817871093750
0.10400390625000
-0.05847167968750
0.14428710937500
-0.08764648437500
-0.14257812500000
-0.00622558593750
-0.10717773437500
-0.16760253906250
-0.02832031250000
0.12219238281250
-0.02844238281250
-0.10998535156250
-0.12280273437500
-0.08703613281250
-0.01184082031250
0.02233886718750
0.07226562500000
0.15112304687500
0.01342773437500
0.16345214843750
0.01989746093750
-0.05163574218750
-0.06628417968750
0.03576660156250
0.19775390625000
-0.02734375000000
0.16101074218750
0.20007324218750
-0.04040527343750
-0.13452148437500
-0.15551757812500
0.12402343750000
0.05126953125000
-0.03332519531250
-0.10009765625000
-0.10217285156250
-0.07922363281250
0.08227539062500
-0.15283203125000
-0.10070800781250
0.05969238281250
0.06689453125000
0.17626953125000
-0.01708984375000
0.13000488281250
0.19616699218750
-0.09350585937500
0.17578125000000
0.01269531250000
0.14929199218750
-0.07727050781250
-0.00634765625000
0.05920410156250
0.14709472656250
-0.03051757812500
0.02539062500000
0.03552246093750
0.05615234375000
0.17700195312500
-0.05297851562500
0.16320800781250
0.08142089843750
0.07800292968750
-0.12731933593750
0.13989257812500
0.05773925781250
-0.08166503906250
0.14025878906250
0.08789062500000
0.19921875000000
-0.03759765625000
0.05749511718750
-0.02270507812500
0.12365722656250
-0.15441894531250
0.21081542968750
0.04113769531250
0.01318359375000
0.00170898437500
0.11083984375000
-0.02844238281250
-0.04797363281250
0.14184570312500
-0.05004882812500
0.25317382812500
-0.04260253906250
-0.05798339843750
0.24951171875000
0.13159179687500
-0.10351562500000
0.21435546875000
0.14904785156250
0.05175781250000
0.11621093750000
-0.00622558593750
0.01184082031250
0.02319335937500
0.16723632812500
-0.17065429687500
-0.09228515625000
-0.04345703125000
-0.02050781250000
0.24035644531250
0.14843750000000
-0.01245117187500
0.17236328125000
-0.09106445312500
-0.15722656250000
0.22497558593750
-0.14929199218750
0.04846191406250
-0.07971191406250
-0.02392578125000
0.08691406250000
0.12158203125000
0.07690429687500
-0.06262207031250
0.12646484375000
0.09814453125000
-0.12646484375000
-0.16809082031250
0.01757812500000
-0.12670898437500
-0.00012207031250
0.00317382812500
-0.12683105468750
0.03173828125000
-0.14099121093750
0.03137207031250
0.15393066406250
-0.01049804687500
0.09936523437500
-0.09362792968750
0.06274414062500
0.10803222656250
-0.11645507812500
-0.04663085937500
0.14562988281250
0.09606933593750
0.11682128906250
0.15893554687500
0.08532714843750
0.15161132812500
-0.00488281250000
0.01904296875000
0.21350097656250
-0.01110839843750
0.19848632812500
0.08850097656250
-0.07031250000000
0.16943359375000
0.13073730468750
0.00524902343750
-0.05407714843750
-0.04077148437500
0.19531250000000
0.02807617187500
0.05505371093750
0.05908203125000
0.02429199218750
0.10644531250000
0.12207031250000
-0.03271484375000
0.08483886718750
-0.07861328125000
-0.06616210937500
-0.02282714843750
0.05480957031250
0.18518066406250
-0.19189453125000
0.11828613281250
-0.01208496093750
-0.11047363281250
-0.06176757812500
0.22204589843750
-0.11157226562500
0.00122070312500
-0.08166503906250
-0.02636718750000
0.06176757812500
0.02490234375000
0.11816406250000
0.15063476562500
-0.00756835937500
-0.08068847656250
-0.06518554687500
0.09191894531250
0.00793457031250
-0.14257812500000
0.17285156250000
-0.06823730468750
0.02307128906250
0.06079101562500
-0.08471679687500
-0.06677246093750
0.02441406250000
-0.09326171875000
0.16418457031250
0.04125976562500
0.16247558593750
0.02099609375000
0.09814453125000
0.17419433593750
-0.11706542968750
-0.05786132812500
-0.12280273437500
-0.15222167968750
-0.11340332031250
-0.03283691406250
0.08068847656250
-0.10620117187500
0.18920898437500
0.14990234375000
0.19299316406250
0.26525878906250
0.00390625000000
0.06164550781250
-0.03576660156250
0.10229492187500
0.17456054687500
0.25158691406250
-0.11376953125000
0.12597656250000
-0.03027343750000
-0.01770019531250
-0.07031250000000
0.13317871093750
0.09375000000000
0.14904785156250
0.01000976562500
-0.07922363281250
0.24731445312500
-0.00122070312500
0.13684082031250
0.04565429687500
0.12719726562500
-0.04589843750000
0.16650390625000
0.07775878906250
0.13720703125000
0.04479980468750
0.14746093750000
-0.06408691406250
0.18273925781250
0.20178222656250
0.08068847656250
-0.07153320312500
0.02380371093750
-0.05371093750000
-0.04370117187500
0.13403320312500
0.08862304687500
0.14477539062500
-0.05004882812500
-0.06994628906250
-0.19384765625000
-0.08764648437500
0.12512207031250
0.11718750000000
0.19750976562500
0.18225097656250
0.10949707031250
-0.01257324218750
0.08984375000000
-0.08666992187500
0.10095214843750
0.09423828125000
-0.02526855468750
0.04089355468750
0.05944824218750
-0.06396484375000
-0.00390625000000
-0.09790039062500
-0.11791992187500
-0.04797363281250
-0.14331054687500
-0.02612304687500
0.08142089843750
-0.10314941406250
0.06408691406250
-0.14123535156250
0.12365722656250
-0.13159179687500
0.17932128906250
0.07800292968750
-0.08618164062500
0.19201660156250
0.09887695312500
0.07312011718750
0.18005371093750
-0.13781738281250
0.01037597656250
0.15942382812500
-0.01062011718750
-0.00732421875000
-0.04980468750000
-0.08740234375000
0.02734375000000
0.05908203125000
0.05187988281250
-0.08618164062500
0.16027832031250
0.11987304687500
0.13793945312500
-0.01098632812500
0.00073242187500
-0.07373046875000
0.18029785156250
-0.10498046875000
-0.08496093750000
-0.14184570312500
-0.02612304687500
0.09558105468750
-0.14306640625000
0.15698242187500
0.08312988281250
-0.09350585937500
-0.01000976562500
0.17736816406250
0.14086914062500
0.11413574218750
0.02026367187500
0.15661621093750
-0.13244628906250
0.05285644531250
0.06408691406250
0.04101562500000
0.06555175781250
-0.01879882812500
0.19665527343750
0.17333984375000
0.02099609375000
0.13391113281250
-0.04125976562500
-0.13330078125000
0.05432128906250
0.17663574218750
-0.01635742187500
-0.10351562500000
0.12475585937500
0.16870117187500
-0.06457519531250
0.01623535156250
0.10668945312500
-0.09191894531250
0.10388183593750
-0.05920410156250
0.17968750000000
-0.05883789062500
0.19543457031250
0.17138671875000
0.02307128906250
0.18188476562500
-0.15795898437500
-0.08593750000000
-0.15173339843750
0.12609863281250
-0.12988281250000
0.11022949218750
0.03674316406250
-0.03857421875000
0.03100585937500
-0.11059570312500
0.15783691406250
0.03540039062500
0.13110351562500
0.13659667968750
0.12609863281250
-0.06909179687500
-0.15893554687500
-0.08374023437500
-0.00939941406250
0.05932617187500
-0.14892578125000
0.10693359375000
0.15710449218750
0.05456542968750
-0.03381347656250
0.06201171875000
0.03698730468750
-0.04919433593750
-0.15673828125000
-0.12561035156250
-0.02978515625000
-0.08618164062500
0.03198242187500
0.09362792968750
0.03759765625000
0.13073730468750
-0.09155273437500
0.09069824218750
-0.09643554687500
0.03845214843750
-0.00439453125000
-0.05371093750000
-0.04846191406250
-0.01013183593750
-0.09167480468750
0.19299316406250
-0.02893066406250
-0.08190917968750
0.04821777343750
-0.08911132812500
-0.07531738281250
0.08752441406250
-0.09838867187500
-0.01489257812500
0.08264160156250
-0.08459472656250
0.07714843750000
0.11071777343750
-0.07580566406250
-0.10754394531250
0.14196777343750
-0.13574218750000
-0.03369140625000
-0.10998535156250
-0.05944824218750
0.06933593750000
-0.07995605468750
0.10559082031250
0.16687011718750
0.13891601562500
0.03015136718750
-0.06823730468750
0.06982421875000
0.25268554687500
0.21667480468750
0.07958984375000
0.18908691406250
0.04895019531250
-0.00378417968750
0.06127929687500
0.24377441406250
0.15039062500000
0.06982421875000
0.24536132812500
-0.04870605468750
0.24316406250000
0.06799316406250
0.13830566406250
0.14086914062500
0.28283691406250
0.02246093750000
0.26708984375000
-0.01501464843750
-0.10437011718750
0.01159667968750
0.15539550781250
-0.08288574218750
-0.05908203125000
0.13476562500000
0.05908203125000
0.14624023437500
-0.10888671875000
0.11914062500000
0.18310546875000
0.12145996093750
-0.15539550781250
-0.06201171875000
0.00268554687500
-0.05346679687500
0.20239257812500
0.05847167968750
0.15063476562500
0.07275390625000
0.21264648437500
0.07897949218750
0.06555175781250
0.06884765625000
-0.06982421875000
0.21826171875000
0.12316894531250
-0.02746582031250
0.21679687500000
0.15441894531250
-0.11157226562500
0.11877441406250
0.18261718750000
-0.06176757812500
0.02124023437500
-0.05383300781250
0.14855957031250
0.14501953125000
0.13159179687500
-0.11608886718750
0.20495605468750
-0.06811523437500
0.16003417968750
0.09838867187500
0.12048339843750
0.03881835937500
0.07690429687500
-0.07836914062500
-0.01770019531250
0.15417480468750
0.06994628906250
0.08703613281250
0.00671386718750
-0.14099121093750
-0.11560058593750
0.02770996093750
0.00610351562500
-0.16625976562500
0.10070800781250
-0.02404785156250
0.05029296875000
-0.00866699218750
0.13049316406250
0.03100585937500
-0.14392089843750
0.06530761718750
-0.05786132812500
-0.01965332031250
-0.07568359375000
-0.22729492187500
-0.20031738281250
0.09777832031250
0.04492187500000
0.00451660156250
-0.16760253906250
0.01123046875000
-0.15869140625000
0.02380371093750
-0.19750976562500
0.03198242187500
0.09204101562500
0.15283203125000
0.15344238281250
0.01452636718750
0.08654785156250
0.15185546875000
0.09045410156250
0.12329101562500
0.00048828125000
-0.20568847656250
-0.16735839843750
0.13708496093750
0.08691406250000
-0.03479003906250
0.02758789062500
-0.17468261718750
0.03564453125000
-0.06542968750000
-0.04626464843750
0.14282226562500
-0.06274414062500
-0.02233886718750
-0.04345703125000
0.00854492187500
-0.00756835937500
-0.07495117187500
0.16467285156250
0.12316894531250
0.20507812500000
-0.07202148437500
0.04785156250000
0.14038085937500
0.01416015625000
-0.05920410156250
-0.11108398437500
-0.00085449218750
0.13549804687500
0.04064941406250
0.00317382812500
0.00341796875000
0.03637695312500
-0.05175781250000
-0.00500488281250
0.07751464843750
0.22131347656250
0.03662109375000
-0.15161132812500
0.04382324218750
-0.13647460937500
0.05151367187500
0.12219238281250
0.09887695312500
0.10852050781250
0.01721191406250
0.13183593750000
0.09533691406250
0.17761230468750
0.08142089843750
0.15539550781250
0.18554687500000
0.01147460937500
0.12194824218750
0.18371582031250
0.02282714843750
0.03515625000000
0.11865234375000
0.08886718750000
0.08569335937500
0.08642578125000
0.10986328125000
-0.00439453125000
-0.06311035156250
0.10107421875000
0.07104492187500
-0.14733886718750
-0.04858398437500
0.11022949218750
-0.12622070312500
-0.12573242187500
0.06201171875000
0.06652832031250
0.08386230468750
-0.01745605468750
0.16442871093750
0.04235839843750
-0.07617187500000
-0.02734375000000
0.00866699218750
-0.12109375000000
-0.02807617187500
0.02734375000000
0.12390136718750
0.01428222656250
-0.15502929687500
-0.10351562500000
0.01220703125000
-0.05297851562500
0.10571289062500
0.03210449218750
-0.11267089843750
0.14208984375000
-0.05578613281250
-0.11376953125000
-0.02124023437500
0.01770019531250
0.04956054687500
-0.12585449218750
-0.02319335937500
-0.08032226562500
0.14599609375000
0.04858398437500
0.15148925781250
0.03332519531250
-0.05737304687500
-0.12597656250000
0.13427734375000
-0.09106445312500
0.27551269531250
0.18151855468750
0.02038574218750
0.16394042968750
0.13635253906250
-0.07397460937500
0.10388183593750
0.12780761718750
0.22998046875000
0.02783203125000
-0.04663085937500
0.06506347656250
-0.05798339843750
0.05993652343750
0.19189453125000
0.01123046875000
0.14306640625000
-0.02795410156250
0.19177246093750
-0.07885742187500
0.16918945312500
0.25878906250000
0.00769042968750
0.21813964843750
0.00354003906250
0.17175292968750
0.09521484375000
-0.02917480468750
0.12145996093750
0.21606445312500
0.12719726562500
0.14379882812500
0.09106445312500
0.00939941406250
0.01232910156250
-0.02062988281250
0.11132812500000
-0.03002929687500
0.02246093750000
0.03747558593750
0.06213378906250
0.10693359375000
0.24548339843750
-0.09179687500000
-0.02795410156250
-0.00610351562500
-0.06811523437500
-0.00683593750000
0.05053710937500
-0.13781738281250
0.00244140625000
-0.02734375000000
0.17248535156250
-0.03454589843750
0.17419433593750
0.08178710937500
0.07409667968750
-0.13708496093750
-0.12622070312500
-0.12487792968750
0.00561523437500
-0.04589843750000
0.10205078125000
0.06396484375000
0.14453125000000
-0.02697753906250
0.03393554687500
0.00354003906250
-0.04052734375000
-0.17822265625000
-0.03479003906250
0.09655761718750
0.07434082031250
0.17907714843750
-0.02050781250000
0.05310058593750
0.21044921875000
0.09252929687500
0.17187500000000
0.23291015625000
0.06494140625000
0.04687500000000
-0.01892089843750
0.21423339843750
0.04699707031250
-0.04284667968750
-0.06140136718750
0.06811523437500
0.21472167968750
0.11108398437500
0.19787597656250
-0.02746582031250
0.02868652343750
0.05261230468750
-0.04309082031250
0.21850585937500
0.16113281250000
0.21838378906250
0.07385253906250
-0.04016113281250
-0.00927734375000
-0.08972167968750
0.11840820312500
0.11645507812500
-0.09729003906250
0.20092773437500
0.14123535156250
0.04174804687500
0.01904296875000
0.04492187500000
0.17529296875000
0.19042968750000
-0.06713867187500
0.12548828125000
-0.00695800781250
-0.07019042968750
-0.08691406250000
0.11193847656250
-0.14880371093750
0.20129394531250
-0.15270996093750
-0.07360839843750
-0.11071777343750
-0.14929199218750
-0.01013183593750
-0.02441406250000
0.07128906250000
0.10949707031250
0.19653320312500
0.09375000000000
0.01184082031250
0.12487792968750
-0.09948730468750
0.06286621093750
0.09118652343750
-0.10717773437500
0.06079101562500
0.18969726562500
0.08898925781250
-0.11059570312500
-0.07226562500000
0.10192871093750
-0.14404296875000
-0.09301757812500
-0.01574707031250
-0.18798828125000
-0.11279296875000
-0.09643554687500
-0.07629394531250
-0.02038574218750
0.08569335937500
-0.14050292968750
-0.12841796875000
-0.13793945312500
-0.09204101562500
-0.07250976562500
-0.11523437500000
-0.06860351562500
0.02233886718750
-0.14953613281250
-0.17260742187500
-0.15380859375000
0.03918457031250
-0.05517578125000
0.04895019531250
-0.21203613281250
-0.21044921875000
0.15063476562500
-0.16979980468750
0.05273437500000
0.07397460937500
0.17370605468750
-0.10693359375000
0.17199707031250
-0.10595703125000
0.12426757812500
-0.03601074218750
0.08483886718750
-0.06481933593750
0.13000488281250
-0.20397949218750
-0.20935058593750
-0.01550292968750
0.09277343750000
0.09191894531250
0.06298828125000
-0.09790039062500
-0.07275390625000
