0.19213867187500
-0.27197265625000
0.00012207031250
-0.24780273437500
-0.01965332031250
0.09552001953125
-0.05798339843750
-0.22686767578125
-0.23608398437500
-0.00335693359375
0.18334960937500
0.24133300781250
-0.14733886718750
-0.03912353515625
0.26757812500000
-0.25787353515625
-0.13244628906250
-0.00207519531250
-0.03710937500000
0.19866943359375
0.22436523437500
-0.24755859375000
0.04803466796875
0.13671875000000
-0.13421630859375
0.26861572265625
0.11853027343750
0.10015869140625
0.35491943359375
0.32733154296875
0.32769775390625
-0.07574462890625
0.03417968750000
0.02905273437500
-0.09552001953125
0.30773925781250
-0.00061035156250
0.09985351562500
-0.20404052734375
-0.12347412109375
-0.02331542968750
-0.25329589843750
-0.08502197265625
0.33312988281250
-0.13446044921875
-0.13293457031250
0.15954589843750
0.27978515625000
0.29553222656250
0.09088134765625
0.11370849609375
0.14001464843750
0.04302978515625
0.12194824218750
0.32098388671875
0.03363037109375
-0.28051757812500
-0.12707519531250
-0.04260253906250
0.13391113281250
0.04833984375000
-0.18634033203125
-0.25634765625000
0.07171630859375
0.23925781250000
-0.00921630859375
0.13793945312500
-0.16058349609375
0.21051025390625
-0.28009033203125
0.20465087890625
0.15106201171875
