0.15020751953125
-0.00036621093750
0.12652587890625
0.00317382812500
0.07458496093750
-0.01922607421875
0.02624511718750
-0.09552001953125
0.10876464843750
0.01654052734375
0.00482177734375
0.09283447265625
-0.06011962890625
0.20611572265625
-0.05645751953125
0.14880371093750
0.00073242187500
-0.01037597656250
0.08038330078125
-0.14367675781250
0.02197265625000
-0.10491943359375
0.00347900390625
-0.02856445312500
-0.09344482421875
0.02807617187500
0.22485351562500
0.14306640625000
-0.12487792968750
-0.07000732421875
0.02362060546875
0.06555175781250
0.11968994140625
-0.02734375000000
0.03240966796875
-0.14062500000000
0.12506103515625
0.02203369140625
0.20367431640625
0.15454101562500
0.03723144531250
0.24639892578125
0.09320068359375
0.20416259765625
0.03985595703125
0.05462646484375
-0.04052734375000
-0.06622314453125
0.02722167968750
0.04522705078125
0.06805419921875
-0.15521240234375
-0.15991210937500
0.19030761718750
-0.03033447265625
0.07067871093750
-0.03155517578125
0.12542724609375
0.12664794921875
0.10455322265625
-0.08288574218750
0.15264892578125
0.21160888671875
0.06512451171875
-0.10607910156250
0.04681396484375
-0.10418701171875
-0.00579833984375
0.06530761718750
-0.15051269531250
0.06768798828125
0.16979980468750
0.12634277343750
-0.13946533203125
-0.03033447265625
0.18859863281250
-0.04101562500000
0.16351318359375
-0.04266357421875
-0.07598876953125
0.00537109375000
0.08142089843750
0.17480468750000
-0.05236816406250
0.13104248046875
0.21075439453125
-0.10583496093750
0.08380126953125
-0.12707519531250
0.02453613281250
0.09912109375000
0.18212890625000
-0.10034179687500
0.10070800781250
-0.10223388671875
0.05963134765625
0.05175781250000
-0.03747558593750
0.00561523437500
-0.11944580078125
0.04663085937500
0.17303466796875
-0.14440917968750
-0.12402343750000
0.01239013671875
0.13592529296875
0.10748291015625
-0.05676269531250
0.19818115234375
-0.03295898437500
-0.02954101562500
0.16003417968750
-0.09979248046875
0.08197021484375
0.22247314453125
0.07751464843750
0.23559570312500
-0.07073974609375
0.01062011718750
-0.04345703125000
-0.09924316406250
-0.00634765625000
0.01934814453125
0.15759277343750
0.06591796875000
-0.11938476562500
0.15472412109375
0.03143310546875
0.22064208984375
0.08465576171875
0.19268798828125
0.21014404296875
0.04705810546875
-0.07843017578125
-0.05950927734375
-0.01898193359375
0.01354980468750
-0.14447021484375
-0.00439453125000
-0.05780029296875
-0.05499267578125
-0.12304687500000
0.16625976562500
-0.08441162109375
0.19976806640625
0.20324707031250
-0.05541992187500
0.01599121093750
0.03808593750000
-0.06579589843750
-0.02288818359375
0.12103271484375
-0.03869628906250
-0.14257812500000
-0.15600585937500
0.07147216796875
0.20684814453125
0.12194824218750
0.03070068359375
-0.11901855468750
-0.08642578125000
0.04547119140625
0.16931152343750
-0.08325195312500
-0.07214355468750
-0.06481933593750
-0.02178955078125
-0.07080078125000
0.10461425781250
-0.14965820312500
-0.13385009765625
-0.02679443359375
-0.09094238281250
0.14947509765625
0.05102539062500
0.11645507812500
0.06781005859375
0.09796142578125
-0.00677490234375
-0.16400146484375
0.13183593750000
0.14868164062500
0.24719238281250
0.19720458984375
0.13000488281250
0.14447021484375
0.06591796875000
0.19134521484375
0.07708740234375
-0.13104248046875
0.13439941406250
0.15435791015625
-0.05755615234375
0.09460449218750
-0.05529785156250
0.18597412109375
-0.03436279296875
-0.11486816406250
-0.10394287109375
0.07238769531250
-0.06109619140625
-0.01660156250000
0.14477539062500
0.00726318359375
0.03369140625000
0.06445312500000
0.19976806640625
-0.13433837890625
0.01049804687500
-0.07598876953125
-0.13574218750000
-0.07812500000000
-0.09008789062500
0.14782714843750
0.03460693359375
0.01361083984375
0.11029052734375
0.17761230468750
-0.01776123046875
0.12255859375000
0.09936523437500
0.13879394531250
0.09924316406250
0.02886962890625
-0.10089111328125
-0.11279296875000
0.12158203125000
-0.03497314453125
0.16009521484375
0.22167968750000
0.11859130859375
0.09704589843750
0.19488525390625
-0.09387207031250
0.13854980468750
-0.09063720703125
0.08154296875000
0.12213134765625
0.13897705078125
0.15808105468750
0.16583251953125
0.18957519531250
-0.00256347656250
0.05810546875000
-0.02075195312500
-0.06341552734375
-0.11285400390625
0.08312988281250
-0.04492187500000
-0.13647460937500
0.03479003906250
0.02539062500000
0.05664062500000
-0.07946777343750
-0.08996582031250
0.22320556640625
-0.03289794921875
0.10626220703125
0.14575195312500
0.16833496093750
0.00012207031250
-0.06970214843750
-0.05657958984375
0.11175537109375
0.09631347656250
-0.03997802734375
-0.14141845703125
-0.14086914062500
0.04547119140625
-0.10931396484375
0.00689697265625
0.02642822265625
0.10070800781250
0.11340332031250
-0.00750732421875
0.15258789062500
0.16735839843750
0.09094238281250
-0.00402832031250
0.00946044921875
-0.15209960937500
0.07354736328125
0.15252685546875
-0.03161621093750
0.07702636718750
-0.09924316406250
0.09637451171875
0.11828613281250
0.03759765625000
-0.15618896484375
-0.01605224609375
0.12542724609375
-0.05737304687500
-0.01202392578125
0.13519287109375
0.15948486328125
0.15008544921875
-0.08868408203125
-0.21429443359375
-0.16156005859375
0.17608642578125
-0.02069091796875
-0.19567871093750
0.14709472656250
-0.13085937500000
0.05078125000000
-0.05383300781250
-0.07489013671875
-0.11968994140625
-0.02343750000000
0.00317382812500
-0.15173339843750
0.09436035156250
-0.03326416015625
-0.03552246093750
0.08715820312500
0.15112304687500
-0.10693359375000
0.06970214843750
0.18597412109375
-0.12176513671875
-0.03118896484375
0.06982421875000
0.05798339843750
-0.19409179687500
0.10137939453125
-0.02313232421875
0.13812255859375
0.02044677734375
0.21972656250000
0.03259277343750
0.14062500000000
0.01202392578125
-0.07470703125000
-0.10449218750000
-0.02954101562500
0.02301025390625
0.18902587890625
0.02062988281250
0.10144042968750
-0.01495361328125
-0.11053466796875
-0.20434570312500
-0.00488281250000
0.19970703125000
0.13079833984375
0.05853271484375
0.23999023437500
0.02484130859375
-0.07556152343750
0.10162353515625
0.13537597656250
0.08300781250000
-0.18951416015625
0.05865478515625
0.18194580078125
-0.01361083984375
0.00854492187500
0.10021972656250
0.01116943359375
-0.08959960937500
-0.14343261718750
-0.05541992187500
0.09197998046875
0.17114257812500
-0.07098388671875
0.02404785156250
0.11871337890625
0.06494140625000
0.07513427734375
0.10223388671875
-0.18286132812500
0.18634033203125
0.13684082031250
0.03930664062500
-0.05590820312500
-0.02471923828125
0.02148437500000
0.05639648437500
-0.01812744140625
0.16955566406250
-0.07403564453125
-0.03314208984375
0.01641845703125
0.14031982421875
0.01898193359375
0.13720703125000
0.14648437500000
0.07958984375000
-0.06951904296875
0.18505859375000
0.12677001953125
-0.13983154296875
-0.11224365234375
0.15661621093750
0.07629394531250
-0.10180664062500
-0.10058593750000
-0.12719726562500
-0.14019775390625
-0.01281738281250
0.11877441406250
-0.20227050781250
-0.16131591796875
-0.09893798828125
0.16461181640625
0.15606689453125
0.08758544921875
0.17810058593750
0.10430908203125
-0.11785888671875
-0.01721191406250
0.17919921875000
0.08496093750000
-0.19842529296875
-0.09014892578125
-0.06451416015625
0.00585937500000
-0.11712646484375
-0.08990478515625
0.06317138671875
-0.03503417968750
0.15667724609375
0.01953125000000
-0.12066650390625
-0.05841064453125
-0.13818359375000
0.14398193359375
0.04919433593750
-0.14331054687500
-0.06573486328125
-0.11090087890625
-0.04315185546875
0.03808593750000
0.02331542968750
0.14288330078125
0.09265136718750
0.02270507812500
0.15930175781250
0.11016845703125
-0.01898193359375
-0.02325439453125
0.17321777343750
0.17578125000000
0.00433349609375
0.14465332031250
-0.12915039062500
0.18218994140625
0.07244873046875
0.19580078125000
0.06945800781250
-0.01354980468750
0.18609619140625
0.15460205078125
0.15161132812500
0.16192626953125
0.14392089843750
0.09283447265625
0.13415527343750
0.05810546875000
-0.16180419921875
-0.11578369140625
-0.13635253906250
-0.01763916015625
-0.01989746093750
0.17150878906250
0.15216064453125
0.17962646484375
0.03485107421875
0.03289794921875
-0.01483154296875
0.23345947265625
-0.04559326171875
0.18756103515625
0.24896240234375
0.19635009765625
0.20648193359375
-0.14306640625000
-0.04492187500000
0.17254638671875
0.14361572265625
0.03662109375000
-0.01177978515625
0.08483886718750
0.00634765625000
0.15722656250000
0.09667968750000
-0.08648681640625
0.12066650390625
0.13165283203125
0.16778564453125
-0.09100341796875
-0.01300048828125
0.11608886718750
0.06921386718750
0.05664062500000
-0.11108398437500
-0.12976074218750
-0.02996826171875
-0.03973388671875
-0.06835937500000
-0.11431884765625
-0.05944824218750
-0.11840820312500
0.02191162109375
0.08648681640625
-0.01617431640625
0.07525634765625
-0.00451660156250
0.14154052734375
-0.00946044921875
-0.04608154296875
-0.06103515625000
-0.11157226562500
0.15185546875000
0.06274414062500
0.17376708984375
0.00390625000000
0.11138916015625
0.05310058593750
-0.03503417968750
0.25756835937500
-0.05487060546875
0.17352294921875
0.21203613281250
-0.14477539062500
-0.08917236328125
0.14941406250000
0.03741455078125
-0.07348632812500
-0.10205078125000
0.08477783203125
-0.02618408203125
0.03692626953125
0.06219482421875
-0.02374267578125
0.09802246093750
0.02868652343750
-0.05072021484375
-0.07250976562500
-0.03521728515625
0.19262695312500
0.00433349609375
-0.03051757812500
0.00958251953125
-0.01080322265625
0.00018310546875
0.20135498046875
0.05426025390625
-0.01049804687500
-0.09387207031250
-0.04107666015625
-0.07836914062500
-0.02368164062500
0.04785156250000
-0.14996337890625
0.11083984375000
-0.02539062500000
0.04125976562500
0.08941650390625
-0.08996582031250
0.06091308593750
0.09649658203125
0.00994873046875
0.13977050781250
-0.02075195312500
-0.03173828125000
-0.10083007812500
-0.08465576171875
-0.02899169921875
-0.07177734375000
-0.04510498046875
0.00567626953125
-0.13378906250000
0.15045166015625
0.19030761718750
0.00189208984375
0.21368408203125
0.20074462890625
-0.02532958984375
0.14019775390625
0.01428222656250
-0.05541992187500
0.11041259765625
0.01843261718750
0.02020263671875
-0.10021972656250
0.19995117187500
0.00988769531250
0.01379394531250
0.16223144531250
-0.09094238281250
0.16271972656250
0.20098876953125
0.07922363281250
-0.00073242187500
0.00939941406250
-0.06213378906250
-0.05816650390625
0.15246582031250
-0.05731201171875
-0.01757812500000
0.19714355468750
-0.09545898437500
-0.12445068359375
0.11376953125000
-0.14288330078125
0.09613037109375
0.16040039062500
0.09326171875000
-0.13732910156250
0.13165283203125
0.03881835937500
0.08215332031250
0.18475341796875
-0.07647705078125
0.14251708984375
0.13049316406250
-0.04907226562500
-0.04846191406250
0.16394042968750
0.08160400390625
0.07983398437500
-0.10552978515625
-0.04937744140625
0.11999511718750
-0.12994384765625
0.16772460937500
-0.12231445312500
0.18804931640625
0.14001464843750
0.05157470703125
0.14306640625000
0.07379150390625
0.09887695312500
-0.05078125000000
0.11834716796875
0.08563232421875
0.17608642578125
-0.05822753906250
0.15521240234375
0.11553955078125
0.17669677734375
0.03515625000000
0.12969970703125
-0.07183837890625
0.19097900390625
0.19891357421875
-0.08636474609375
0.02307128906250
0.05273437500000
0.16033935546875
0.06451416015625
-0.11035156250000
0.02117919921875
-0.14599609375000
0.10229492187500
0.24182128906250
-0.08929443359375
0.04595947265625
0.14373779296875
-0.03924560546875
0.07763671875000
0.14129638671875
-0.05310058593750
0.06652832031250
0.20428466796875
0.08660888671875
-0.14440917968750
0.03875732421875
0.04895019531250
-0.07775878906250
0.12677001953125
0.10528564453125
0.01239013671875
0.11505126953125
0.04333496093750
0.09033203125000
0.19384765625000
0.04553222656250
0.06890869140625
0.20788574218750
0.21203613281250
0.06579589843750
-0.07537841796875
-0.02612304687500
0.09997558593750
0.02618408203125
-0.04583740234375
-0.11932373046875
-0.13604736328125
-0.14007568359375
0.17645263671875
0.17285156250000
0.20916748046875
-0.12384033203125
0.00433349609375
0.13757324218750
-0.01635742187500
-0.06982421875000
0.19781494140625
-0.15264892578125
-0.05029296875000
-0.00433349609375
0.12426757812500
-0.09289550781250
-0.12707519531250
0.15777587890625
-0.14904785156250
0.02362060546875
0.07763671875000
0.04705810546875
-0.04180908203125
-0.14062500000000
-0.05090332031250
0.04711914062500
-0.04980468750000
0.07946777343750
-0.11865234375000
-0.15423583984375
-0.04199218750000
0.18127441406250
0.26416015625000
0.26000976562500
0.06127929687500
-0.06109619140625
-0.03509521484375
-0.05194091796875
0.15332031250000
0.03906250000000
-0.18957519531250
-0.08941650390625
-0.09393310546875
-0.05426025390625
0.04296875000000
-0.19653320312500
-0.21105957031250
0.01562500000000
-0.11328125000000
-0.13128662109375
0.00201416015625
0.11456298828125
0.13317871093750
0.06286621093750
0.09204101562500
0.05883789062500
-0.05279541015625
0.17352294921875
0.13452148437500
0.06024169921875
-0.03094482421875
-0.13690185546875
0.11401367187500
-0.09173583984375
0.16009521484375
0.17706298828125
-0.23309326171875
-0.23132324218750
-0.18750000000000
-0.05224609375000
-0.21148681640625
-0.05078125000000
-0.09063720703125
-0.01916503906250
-0.15844726562500
-0.06658935546875
0.12030029296875
0.06317138671875
0.17443847656250
-0.12634277343750
-0.10058593750000
0.08160400390625
0.02130126953125
0.07940673828125
-0.14062500000000
0.04931640625000
0.14630126953125
0.16638183593750
-0.13061523437500
-0.14080810546875
0.08068847656250
0.03436279296875
-0.10717773437500
-0.01702880859375
-0.09179687500000
-0.11791992187500
0.08898925781250
0.14697265625000
-0.04284667968750
0.10504150390625
-0.08343505859375
-0.13732910156250
0.13226318359375
0.03594970703125
-0.06158447265625
0.03503417968750
0.22875976562500
0.21697998046875
0.19964599609375
0.01220703125000
-0.08044433593750
0.19458007812500
-0.15795898437500
0.01464843750000
-0.03338623046875
-0.19439697265625
-0.09454345703125
0.11346435546875
-0.13940429687500
0.14508056640625
0.04882812500000
0.01525878906250
0.12023925781250
0.00921630859375
-0.07904052734375
0.01385498046875
-0.07604980468750
0.02685546875000
-0.00140380859375
0.03387451171875
0.15954589843750
-0.15307617187500
-0.08776855468750
0.10485839843750
-0.06549072265625
-0.06127929687500
0.14331054687500
-0.05462646484375
0.15734863281250
0.11407470703125
0.01251220703125
0.12213134765625
0.19335937500000
0.18920898437500
0.12725830078125
0.23291015625000
0.21234130859375
0.08422851562500
0.08435058593750
0.13604736328125
-0.08624267578125
-0.05352783203125
0.05413818359375
0.04394531250000
0.17877197265625
-0.03955078125000
0.10522460937500
0.19738769531250
0.07403564453125
0.04656982421875
-0.04284667968750
0.13342285156250
0.17822265625000
-0.03668212890625
-0.07794189453125
0.11279296875000
-0.04016113281250
-0.13476562500000
-0.10949707031250
-0.07867431640625
-0.10681152343750
0.00878906250000
-0.08593750000000
-0.16180419921875
0.08178710937500
-0.10412597656250
-0.12884521484375
0.07153320312500
0.15808105468750
-0.07318115234375
-0.01831054687500
0.12658691406250
-0.15600585937500
-0.09490966796875
0.03961181640625
-0.01776123046875
0.06506347656250
0.20349121093750
0.09783935546875
-0.07891845703125
-0.08471679687500
0.17028808593750
-0.06347656250000
-0.12786865234375
0.13995361328125
-0.14862060546875
-0.04217529296875
0.11163330078125
0.14416503906250
-0.02191162109375
0.09924316406250
0.12091064453125
-0.15118408203125
0.07727050781250
-0.14056396484375
0.14337158203125
0.02124023437500
0.09753417968750
0.16937255859375
-0.02215576171875
0.16949462890625
0.10510253906250
0.04974365234375
0.14831542968750
0.01800537109375
-0.01129150390625
0.23577880859375
0.29180908203125
0.14025878906250
-0.03094482421875
0.02258300781250
0.07653808593750
-0.08843994140625
-0.03369140625000
0.17626953125000
-0.02618408203125
-0.04742431640625
0.20556640625000
0.08154296875000
0.15869140625000
-0.19177246093750
0.06781005859375
-0.10302734375000
-0.06634521484375
-0.00469970703125
0.01129150390625
-0.03082275390625
-0.11932373046875
0.06018066406250
0.10076904296875
0.06060791015625
0.10345458984375
0.04302978515625
0.08752441406250
-0.04980468750000
0.08270263671875
0.15148925781250
-0.10552978515625
-0.09118652343750
0.23187255859375
-0.06451416015625
0.09613037109375
0.10198974609375
-0.08831787109375
0.17156982421875
0.03131103515625
-0.00030517578125
-0.18377685546875
-0.10205078125000
-0.05078125000000
0.05847167968750
0.19018554687500
0.13238525390625
0.06262207031250
0.12445068359375
-0.11480712890625
0.13342285156250
0.08038330078125
0.05346679687500
-0.06872558593750
-0.02307128906250
-0.05102539062500
-0.02960205078125
-0.05554199218750
0.04205322265625
0.09228515625000
-0.16442871093750
0.08935546875000
-0.06744384765625
0.14996337890625
0.12402343750000
-0.09857177734375
-0.08428955078125
0.22955322265625
0.23327636718750
0.21710205078125
-0.03063964843750
0.19000244140625
0.00665283203125
0.22595214843750
0.18115234375000
-0.05249023437500
0.11273193359375
0.07208251953125
0.11608886718750
0.15112304687500
0.13598632812500
0.12017822265625
0.12371826171875
-0.15637207031250
0.11688232421875
0.04602050781250
0.17108154296875
-0.07592773437500
0.19177246093750
0.16308593750000
0.14013671875000
0.19464111328125
0.06079101562500
-0.14367675781250
0.05712890625000
-0.04650878906250
-0.12463378906250
-0.04559326171875
-0.10229492187500
-0.05187988281250
-0.01605224609375
-0.08404541015625
-0.16693115234375
-0.04858398437500
-0.15093994140625
-0.09777832031250
-0.20300292968750
-0.07055664062500
-0.14215087890625
-0.06958007812500
-0.08685302734375
-0.14849853515625
0.02996826171875
-0.08349609375000
-0.11523437500000
-0.03393554687500
-0.11376953125000
0.02996826171875
0.15997314453125
0.03625488281250
0.10028076171875
0.05474853515625
0.02087402343750
-0.02545166015625
0.01385498046875
0.07031250000000
0.16088867187500
0.16137695312500
-0.13031005859375
-0.00103759765625
-0.04211425781250
0.06005859375000
0.17169189453125
0.09313964843750
0.12268066406250
0.15197753906250
-0.11474609375000
-0.11669921875000
0.12622070312500
0.16833496093750
-0.03802490234375
0.12597656250000
0.00170898437500
0.10455322265625
0.04541015625000
-0.13885498046875
0.14831542968750
-0.05267333984375
0.16485595703125
0.21557617187500
0.19244384765625
0.20892333984375
0.18737792968750
-0.09265136718750
-0.13452148437500
0.17321777343750
0.01776123046875
-0.17254638671875
-0.17980957031250
-0.00726318359375
-0.14178466796875
-0.05389404296875
0.09942626953125
-0.00427246093750
0.09948730468750
-0.03570556640625
-0.06170654296875
0.03137207031250
0.03125000000000
0.14349365234375
0.06066894531250
0.02758789062500
-0.11822509765625
-0.01855468750000
-0.05743408203125
-0.10656738281250
0.14733886718750
0.20172119140625
-0.07513427734375
0.01025390625000
0.12347412109375
0.16619873046875
-0.00457763671875
-0.13305664062500
-0.06072998046875
0.12988281250000
0.19299316406250
0.18450927734375
0.05816650390625
-0.12628173828125
-0.11218261718750
0.18389892578125
0.07995605468750
0.01495361328125
0.18634033203125
-0.08148193359375
-0.05584716796875
-0.11926269531250
-0.02044677734375
0.03192138671875
-0.06201171875000
-0.12359619140625
0.05383300781250
0.08135986328125
0.08142089843750
-0.06610107421875
-0.06011962890625
0.03533935546875
-0.11474609375000
0.09674072265625
0.21954345703125
-0.00469970703125
0.11676025390625
-0.04705810546875
0.14367675781250
0.09509277343750
0.23431396484375
0.25476074218750
0.21514892578125
0.00463867187500
-0.03088378906250
0.00225830078125
0.02770996093750
-0.06677246093750
0.00805664062500
0.07446289062500
0.05346679687500
0.00701904296875
-0.09234619140625
0.23352050781250
-0.02795410156250
0.09832763671875
0.18060302734375
-0.10339355468750
0.04425048828125
0.06268310546875
0.16845703125000
0.07781982421875
-0.08380126953125
-0.13458251953125
0.02734375000000
-0.01672363281250
0.11779785156250
-0.14752197265625
-0.01055908203125
-0.03027343750000
