-0.0145263671875
-0.0012207031250
-0.0014648437500
-0.0008544921875
0.0212402343750
-0.0063476562500
-0.0008544921875
0.0153808593750
0.0024414062500
0.0034179687500
0.0081787109375
-0.0085449218750
-0.0142822265625
-0.0034179687500
-0.0126953125000
0.0014648437500
-0.0122070312500
-0.0104980468750
-0.0145263671875
-0.0148925781250
-0.0007324218750
0.0061035156250
-0.0125732421875
-0.0012207031250
0.0103759765625
0.0324707031250
0.0150146484375
-0.0185546875000
0.0152587890625
-0.0119628906250
0.0070800781250
0.0087890625000
0.0231933593750
0.0179443359375
0.0373535156250
-0.0091552734375
0.0069580078125
0.0107421875000
-0.0139160156250
0.0090332031250
-0.0086669921875
-0.0192871093750
-0.0122070312500
-0.0040283203125
0.0013427734375
0.0113525390625
0.0213623046875
0.0261230468750
-0.0041503906250
-0.0104980468750
0.0008544921875
-0.0014648437500
0.0296630859375
-0.0007324218750
0.0162353515625
0.0106201171875
0.0225830078125
0.0130615234375
-0.0224609375000
0.0111083984375
-0.0118408203125
0.0095214843750
0.0283203125000
0.0156250000000
