0.0156250000000
-0.0034179687500
-0.0029296875000
0.0156250000000
-0.0021972656250
-0.0013427734375
-0.0078125000000
-0.0087890625000
0.0080566406250
-0.0134277343750
-0.0126953125000
-0.0018310546875
-0.0032958984375
-0.0041503906250
-0.0034179687500
-0.0075683593750
0.0166015625000
-0.0097656250000
0.0161132812500
-0.0031738281250
-0.0076904296875
-0.0024414062500
-0.0073242187500
0.0126953125000
-0.0025634765625
-0.0012207031250
-0.0034179687500
0.0117187500000
0.0131835937500
0.0126953125000
-0.0019531250000
-0.0023193359375
-0.0093994140625
0.0184326171875
-0.0025634765625
0.0078125000000
0.0147705078125
0.0006103515625
0.0084228515625
-0.0076904296875
-0.0012207031250
-0.0065917968750
-0.0069580078125
-0.0008544921875
0.0125732421875
-0.0091552734375
0.0118408203125
0.0129394531250
-0.0076904296875
0.0145263671875
-0.0026855468750
0.0117187500000
-0.0070800781250
0.0036621093750
0.0164794921875
-0.0019531250000
0.0021972656250
-0.0013427734375
-0.0075683593750
-0.0050048828125
0.0092773437500
-0.0029296875000
-0.0008544921875
-0.0018310546875
0.0123291015625
-0.0062255859375
0.0108642578125
-0.0084228515625
-0.0036621093750
0.0069580078125
0.0103759765625
-0.0013427734375
-0.0028076171875
0.0113525390625
-0.0065917968750
0.0034179687500
-0.0075683593750
-0.0069580078125
-0.0064697265625
0.0179443359375
-0.0089111328125
0.0018310546875
-0.0018310546875
-0.0017089843750
0.0091552734375
-0.0091552734375
0.0161132812500
0.0156250000000
0.0147705078125
-0.0086669921875
-0.0061035156250
-0.0031738281250
0.0129394531250
0.0096435546875
-0.0244140625000
-0.0067138671875
0.0134277343750
0.0123291015625
0.0157470703125
-0.0032958984375
