0.13879394531250
0.06909179687500
-0.13952636718750
0.29797363281250
0.07360839843750
0.17749023437500
-0.17785644531250
-0.07958984375000
0.12207031250000
-0.14306640625000
-0.17578125000000
0.04394531250000
0.03015136718750
-0.18896484375000
0.12268066406250
-0.15979003906250
0.10986328125000
-0.04138183593750
0.19189453125000
-0.18127441406250
-0.25695800781250
0.15771484375000
-0.10986328125000
0.15930175781250
-0.22387695312500
0.23400878906250
0.15417480468750
0.07458496093750
0.20446777343750
0.16467285156250
-0.20410156250000
0.01501464843750
-0.22302246093750
0.12878417968750
0.23767089843750
0.25329589843750
0.21655273437500
-0.17614746093750
0.29541015625000
-0.30419921875000
0.23388671875000
-0.19348144531250
-0.18310546875000
0.21191406250000
0.19128417968750
-0.11828613281250
0.10986328125000
0.24133300781250
-0.19799804687500
0.13696289062500
-0.27172851562500
0.17590332031250
-0.12207031250000
0.24877929687500
0.11865234375000
0.04028320312500
0.21997070312500
-0.16955566406250
-0.26538085937500
0.30456542968750
0.29199218750000
0.19689941406250
-0.09716796875000
0.20947265625000
0.22460937500000
-0.30358886718750
0.17504882812500
-0.10961914062500
-0.21386718750000
0.25402832031250
0.20446777343750
-0.20874023437500
-0.19067382812500
0.18859863281250
-0.30322265625000
0.30297851562500
-0.10510253906250
-0.24743652343750
-0.21594238281250
0.24694824218750
-0.03991699218750
0.09973144531250
0.12451171875000
0.14135742187500
0.27319335937500
-0.11523437500000
0.23645019531250
0.18347167968750
0.07397460937500
-0.09118652343750
-0.24353027343750
0.05786132812500
0.13452148437500
0.14477539062500
-0.27832031250000
-0.08789062500000
0.25122070312500
0.23498535156250
0.29089355468750
0.01269531250000
