0.0093994140625
0.0000000000000
0.0268554687500
0.0015869140625
-0.0367431640625
-0.0285644531250
-0.0123291015625
-0.0302734375000
0.0537109375000
0.0456542968750
0.0258789062500
-0.0042724609375
-0.0529785156250
0.0318603515625
-0.0273437500000
0.0488281250000
0.0080566406250
-0.0329589843750
0.0128173828125
-0.0515136718750
-0.0485839843750
0.0086669921875
0.0284423828125
0.0152587890625
0.0218505859375
0.0328369140625
-0.0283203125000
-0.0343017578125
-0.0242919921875
-0.0397949218750
0.0480957031250
0.0538330078125
0.0247802734375
0.0076904296875
-0.0240478515625
-0.0037841796875
-0.0419921875000
0.0032958984375
0.0347900390625
0.0162353515625
-0.0147705078125
-0.0306396484375
0.0091552734375
0.0245361328125
-0.0134277343750
-0.0263671875000
0.0103759765625
-0.0122070312500
-0.0228271484375
-0.0393066406250
-0.0051269531250
-0.0001220703125
-0.0428466796875
-0.0372314453125
-0.0390625000000
-0.0159912109375
-0.0004882812500
0.0465087890625
-0.0206298828125
0.0194091796875
0.0264892578125
0.0335693359375
-0.0296630859375
-0.0120849609375
0.0252685546875
0.0000000000000
0.0064697265625
0.0106201171875
-0.0407714843750
-0.0024414062500
-0.0042724609375
0.0621337890625
-0.0209960937500
0.0255126953125
0.0305175781250
0.0427246093750
0.0047607421875
0.0439453125000
0.0428466796875
0.0195312500000
0.0189208984375
0.0129394531250
0.0104980468750
0.0220947265625
0.0382080078125
0.0057373046875
0.0278320312500
-0.0194091796875
0.0297851562500
0.0124511718750
-0.0220947265625
-0.0408935546875
0.0524902343750
-0.0214843750000
-0.0161132812500
0.0240478515625
-0.0128173828125
0.0285644531250
-0.0504150390625
0.0234375000000
-0.0479736328125
-0.0692138671875
-0.0344238281250
-0.0246582031250
-0.0269775390625
-0.0343017578125
0.0447998046875
0.0014648437500
0.0294189453125
-0.0026855468750
-0.0405273437500
0.0175781250000
0.0032958984375
0.0330810546875
-0.0101318359375
0.0111083984375
-0.0029296875000
-0.0604248046875
0.0257568359375
-0.0328369140625
-0.0317382812500
0.0015869140625
-0.0367431640625
0.0361328125000
0.0527343750000
-0.0183105468750
-0.0212402343750
0.0024414062500
-0.0177001953125
0.0000000000000
-0.0181884765625
-0.0046386718750
-0.0078125000000
0.0305175781250
-0.0097656250000
-0.0355224609375
0.0104980468750
-0.0605468750000
-0.0159912109375
-0.0345458984375
0.0427246093750
-0.0447998046875
0.0056152343750
-0.0167236328125
-0.0527343750000
0.0394287109375
0.0384521484375
-0.0528564453125
-0.0102539062500
-0.0109863281250
0.0480957031250
-0.0115966796875
0.0073242187500
0.0069580078125
0.0128173828125
-0.0025634765625
0.0136718750000
0.0295410156250
-0.0155029296875
-0.0174560546875
0.0089111328125
-0.0153808593750
0.0098876953125
0.0529785156250
0.0101318359375
0.0452880859375
-0.0289306640625
-0.0124511718750
0.0286865234375
-0.0032958984375
-0.0383300781250
-0.0224609375000
-0.0435791015625
-0.0451660156250
-0.0219726562500
-0.0134277343750
-0.0098876953125
0.0507812500000
0.0212402343750
-0.0682373046875
-0.0650634765625
-0.0012207031250
-0.0390625000000
0.0081787109375
0.0167236328125
-0.0070800781250
0.0402832031250
-0.0046386718750
0.0329589843750
0.0333251953125
-0.0017089843750
-0.0003662109375
-0.0313720703125
0.0000000000000
-0.0112304687500
0.0002441406250
-0.0462646484375
0.0190429687500
-0.0257568359375
-0.0362548828125
-0.0314941406250
0.0578613281250
-0.0340576171875
0.0157470703125
0.0390625000000
-0.0142822265625
0.0275878906250
-0.0161132812500
-0.0596923828125
-0.0382080078125
-0.0482177734375
0.0067138671875
-0.0202636718750
0.0310058593750
0.0083007812500
0.0020751953125
-0.0012207031250
-0.0537109375000
-0.0211181640625
0.0159912109375
0.0535888671875
0.0001220703125
0.0172119140625
-0.0137939453125
-0.0092773437500
-0.0002441406250
-0.0119628906250
0.0253906250000
0.0356445312500
-0.0001220703125
0.0242919921875
0.0455322265625
-0.0338134765625
-0.0537109375000
-0.0294189453125
0.0469970703125
-0.0181884765625
-0.0582275390625
-0.0070800781250
-0.0738525390625
-0.0180664062500
0.0159912109375
-0.0394287109375
0.0046386718750
-0.0111083984375
-0.0045166015625
-0.0432128906250
-0.0385742187500
-0.0244140625000
0.0024414062500
0.0093994140625
0.0433349609375
0.0229492187500
-0.0272216796875
-0.0332031250000
0.0074462890625
-0.0106201171875
0.0000000000000
0.0270996093750
-0.0638427734375
-0.0421142578125
0.0053710937500
0.0140380859375
-0.0273437500000
-0.0275878906250
0.0406494140625
-0.0151367187500
0.0395507812500
-0.0378417968750
0.0600585937500
0.0502929687500
0.0229492187500
-0.0100097656250
-0.0374755859375
0.0299072265625
0.0417480468750
-0.0026855468750
-0.0482177734375
0.0456542968750
0.0230712890625
0.0222167968750
0.0050048828125
-0.0120849609375
0.0330810546875
0.0184326171875
-0.0394287109375
-0.0211181640625
0.0238037109375
-0.0001220703125
-0.0321044921875
0.0059814453125
0.0179443359375
-0.0223388671875
0.0198974609375
0.0031738281250
-0.0382080078125
-0.0139160156250
0.0057373046875
0.0498046875000
0.0279541015625
0.0207519531250
0.0212402343750
-0.0242919921875
0.0322265625000
0.0433349609375
-0.0115966796875
-0.0495605468750
0.0147705078125
-0.0009765625000
-0.0162353515625
0.0184326171875
-0.0139160156250
0.0179443359375
0.0269775390625
0.0030517578125
-0.0312500000000
0.0083007812500
0.0218505859375
-0.0468750000000
-0.0100097656250
0.0468750000000
0.0000000000000
0.0300292968750
-0.0413818359375
-0.0462646484375
-0.0310058593750
-0.0230712890625
0.0080566406250
-0.0413818359375
0.0035400390625
-0.0085449218750
0.0278320312500
-0.0020751953125
-0.0234375000000
-0.0194091796875
-0.0345458984375
-0.0266113281250
-0.0344238281250
0.0305175781250
0.0363769531250
-0.0415039062500
0.0065917968750
-0.0130615234375
0.0372314453125
0.0203857421875
-0.0029296875000
-0.0352783203125
0.0133056640625
-0.0164794921875
0.0157470703125
-0.0399169921875
0.0245361328125
0.0010986328125
0.0233154296875
-0.0396728515625
-0.0435791015625
0.0035400390625
0.0635986328125
0.0124511718750
0.0129394531250
0.0484619140625
0.0036621093750
-0.0062255859375
-0.0363769531250
-0.0089111328125
0.0101318359375
0.0017089843750
0.0043945312500
-0.0056152343750
-0.0229492187500
0.0059814453125
-0.0052490234375
0.0382080078125
0.0043945312500
0.0261230468750
0.0277099609375
-0.0202636718750
0.0251464843750
0.0230712890625
0.0219726562500
0.0408935546875
-0.0106201171875
0.0618896484375
-0.0270996093750
-0.0297851562500
0.0000000000000
0.0234375000000
-0.0001220703125
0.0308837890625
-0.0433349609375
0.0051269531250
-0.0246582031250
-0.0048828125000
-0.0148925781250
0.0129394531250
0.0087890625000
-0.0013427734375
0.0343017578125
-0.0463867187500
-0.0130615234375
0.0148925781250
-0.0507812500000
-0.0511474609375
-0.0031738281250
-0.0139160156250
0.0148925781250
0.0308837890625
0.0019531250000
0.0224609375000
0.0303955078125
-0.0275878906250
-0.0480957031250
-0.0161132812500
0.0168457031250
0.0440673828125
-0.0346679687500
-0.0010986328125
0.0460205078125
0.0301513671875
-0.0274658203125
0.0048828125000
0.0209960937500
-0.0249023437500
-0.0429687500000
0.0416259765625
-0.0042724609375
0.0433349609375
0.0288085937500
0.0313720703125
-0.0366210937500
0.0046386718750
0.0432128906250
-0.0052490234375
-0.0017089843750
-0.0062255859375
-0.0153808593750
0.0061035156250
0.0128173828125
0.0295410156250
-0.0435791015625
-0.0184326171875
0.0559082031250
0.0150146484375
-0.0047607421875
0.0236816406250
-0.0405273437500
0.0096435546875
-0.0117187500000
-0.0280761718750
0.0000000000000
-0.0059814453125
-0.0023193359375
-0.0279541015625
0.0118408203125
0.0119628906250
0.0345458984375
-0.0400390625000
0.0212402343750
0.0388183593750
-0.0134277343750
-0.0373535156250
0.0161132812500
-0.0151367187500
-0.0194091796875
0.0606689453125
-0.0311279296875
0.0429687500000
0.0263671875000
-0.0046386718750
-0.0347900390625
-0.0017089843750
0.0205078125000
-0.0384521484375
-0.0444335937500
-0.0174560546875
0.0313720703125
0.0058593750000
-0.0240478515625
-0.0133056640625
0.0031738281250
-0.0594482421875
0.0430908203125
-0.0100097656250
-0.0319824218750
-0.0294189453125
0.0457763671875
0.0040283203125
0.0063476562500
0.0289306640625
0.0173339843750
-0.0482177734375
0.0375976562500
0.0367431640625
0.0052490234375
0.0043945312500
0.0093994140625
0.0067138671875
0.0440673828125
0.0379638671875
-0.0316162109375
-0.0029296875000
-0.0123291015625
-0.0272216796875
-0.0518798828125
-0.0297851562500
0.0046386718750
-0.0004882812500
0.0106201171875
-0.0207519531250
0.0197753906250
0.0028076171875
0.0245361328125
0.0330810546875
0.0000000000000
-0.0266113281250
0.0014648437500
0.0004882812500
0.0399169921875
0.0352783203125
-0.0327148437500
0.0280761718750
-0.0844726562500
-0.0028076171875
0.0147705078125
-0.0177001953125
-0.0781250000000
-0.0223388671875
0.0388183593750
0.0526123046875
0.0170898437500
-0.0034179687500
0.0404052734375
-0.0264892578125
0.0102539062500
-0.0432128906250
0.0062255859375
0.0190429687500
-0.0158691406250
-0.0332031250000
-0.0352783203125
-0.0241699218750
-0.0048828125000
-0.0076904296875
-0.0175781250000
-0.0517578125000
-0.0008544921875
0.0018310546875
-0.0550537109375
0.0336914062500
0.0209960937500
0.0395507812500
-0.0025634765625
0.0489501953125
-0.0311279296875
0.0399169921875
0.0198974609375
-0.0339355468750
0.0311279296875
-0.0135498046875
0.0531005859375
-0.0270996093750
0.0091552734375
-0.0013427734375
-0.0180664062500
-0.0065917968750
0.0529785156250
0.0574951171875
0.0263671875000
-0.0191650390625
0.0354003906250
-0.0202636718750
0.0061035156250
0.0450439453125
0.0062255859375
0.0330810546875
0.0025634765625
-0.0280761718750
0.0000000000000
-0.0391845703125
0.0050048828125
-0.0539550781250
-0.0064697265625
-0.0061035156250
0.0125732421875
-0.0423583984375
0.0488281250000
0.0363769531250
-0.0256347656250
0.0461425781250
0.0200195312500
0.0242919921875
-0.0256347656250
0.0311279296875
0.0430908203125
0.0323486328125
0.0183105468750
-0.0335693359375
-0.0201416015625
0.0421142578125
0.0057373046875
0.0006103515625
0.0469970703125
0.0319824218750
0.0576171875000
-0.0225830078125
-0.0021972656250
-0.0239257812500
-0.0299072265625
-0.0134277343750
0.0479736328125
0.0024414062500
-0.0046386718750
-0.0407714843750
0.0360107421875
0.0014648437500
0.0260009765625
-0.0390625000000
0.0408935546875
-0.0186767578125
-0.0269775390625
-0.0200195312500
-0.0318603515625
0.0441894531250
-0.0264892578125
-0.0385742187500
-0.0373535156250
0.0200195312500
-0.0952148437500
-0.0211181640625
0.0314941406250
-0.0117187500000
0.0437011718750
0.0401611328125
-0.0598144531250
-0.0114746093750
0.0061035156250
0.0014648437500
0.0546875000000
0.0253906250000
0.0083007812500
-0.0002441406250
0.0000000000000
-0.0275878906250
0.0061035156250
-0.0208740234375
0.0163574218750
0.0349121093750
-0.0057373046875
-0.0130615234375
-0.0068359375000
-0.0213623046875
-0.0451660156250
0.0278320312500
-0.0405273437500
0.0223388671875
0.0095214843750
-0.0225830078125
-0.0126953125000
0.0098876953125
-0.0200195312500
-0.0435791015625
0.0256347656250
0.0301513671875
-0.0108642578125
-0.0238037109375
-0.0246582031250
0.0245361328125
-0.0202636718750
-0.0255126953125
-0.0284423828125
-0.0495605468750
0.0644531250000
-0.0466308593750
-0.0123291015625
-0.0100097656250
0.0501708984375
0.0195312500000
-0.0195312500000
0.0123291015625
0.0286865234375
0.0191650390625
0.0374755859375
-0.0008544921875
0.0433349609375
0.0418701171875
0.0118408203125
0.0590820312500
-0.0584716796875
-0.0344238281250
-0.0140380859375
-0.0362548828125
-0.0115966796875
0.0056152343750
-0.0246582031250
0.0299072265625
-0.0233154296875
-0.0263671875000
-0.0028076171875
0.0168457031250
0.0004882812500
-0.0321044921875
0.0479736328125
0.0109863281250
-0.0052490234375
-0.0400390625000
0.0000000000000
0.0061035156250
-0.0329589843750
-0.0137939453125
0.0517578125000
-0.0167236328125
-0.0251464843750
-0.0343017578125
-0.0026855468750
0.0172119140625
-0.0511474609375
0.0263671875000
-0.0539550781250
-0.0054931640625
-0.0299072265625
0.0079345703125
-0.0046386718750
0.0324707031250
-0.0079345703125
0.0196533203125
-0.0233154296875
-0.0281982421875
0.0273437500000
0.0120849609375
-0.0084228515625
-0.0306396484375
-0.0419921875000
-0.0133056640625
0.0322265625000
-0.0341796875000
-0.0372314453125
-0.0289306640625
0.0197753906250
-0.0219726562500
-0.0390625000000
0.0340576171875
0.0170898437500
0.0222167968750
0.0069580078125
0.0014648437500
-0.0124511718750
0.0390625000000
0.0010986328125
-0.0113525390625
0.0074462890625
0.0029296875000
0.0148925781250
0.0457763671875
-0.0407714843750
0.0205078125000
0.0391845703125
0.0008544921875
0.0296630859375
0.0078125000000
0.0120849609375
0.0362548828125
0.0385742187500
0.0290527343750
-0.0151367187500
0.0086669921875
0.0174560546875
-0.0363769531250
0.0159912109375
-0.0163574218750
0.0000000000000
-0.0133056640625
-0.0395507812500
-0.0223388671875
-0.0198974609375
-0.0485839843750
-0.0380859375000
0.0399169921875
-0.0260009765625
0.0454101562500
-0.0390625000000
0.0290527343750
0.0520019531250
-0.0219726562500
0.0357666015625
0.0366210937500
-0.0371093750000
0.0187988281250
-0.0482177734375
-0.0191650390625
0.0438232421875
-0.0410156250000
-0.0031738281250
-0.0158691406250
-0.0263671875000
-0.0228271484375
0.0202636718750
0.0244140625000
0.0417480468750
-0.0484619140625
-0.0292968750000
-0.0267333984375
0.0529785156250
0.0061035156250
-0.0440673828125
0.0393066406250
-0.0225830078125
0.0240478515625
0.0167236328125
-0.0333251953125
0.0201416015625
0.0195312500000
0.0229492187500
-0.0299072265625
-0.0194091796875
-0.0233154296875
0.0394287109375
0.0375976562500
-0.0286865234375
0.0578613281250
-0.0375976562500
-0.0019531250000
0.0167236328125
0.0205078125000
-0.0086669921875
0.0170898437500
0.0039062500000
0.0048828125000
-0.0136718750000
-0.0067138671875
-0.0411376953125
0.0352783203125
-0.0544433593750
-0.0051269531250
0.0000000000000
-0.0291748046875
0.0192871093750
0.0194091796875
0.0106201171875
-0.0393066406250
-0.0368652343750
-0.0474853515625
-0.0195312500000
-0.0145263671875
0.0080566406250
0.0402832031250
-0.0023193359375
-0.0174560546875
0.0329589843750
0.0129394531250
0.0174560546875
0.0327148437500
-0.0063476562500
-0.0545654296875
-0.0052490234375
0.0278320312500
0.0366210937500
-0.0385742187500
0.0040283203125
0.0180664062500
0.0496826171875
-0.0101318359375
0.0234375000000
0.0030517578125
-0.0391845703125
-0.0582275390625
0.0186767578125
-0.0240478515625
-0.0479736328125
-0.0039062500000
0.0152587890625
-0.0314941406250
0.0170898437500
0.0424804687500
-0.0369873046875
-0.0471191406250
-0.0228271484375
-0.0356445312500
-0.0009765625000
0.0059814453125
0.0480957031250
-0.0228271484375
-0.0039062500000
0.0261230468750
0.0273437500000
0.0061035156250
-0.0145263671875
0.0010986328125
0.0407714843750
0.0079345703125
-0.0144042968750
0.0172119140625
-0.0350341796875
-0.0418701171875
-0.0042724609375
0.0087890625000
-0.0023193359375
0.0181884765625
0.0000000000000
-0.0012207031250
0.0303955078125
-0.0579833984375
-0.0115966796875
0.0314941406250
-0.0153808593750
-0.0109863281250
-0.0100097656250
0.0244140625000
0.0145263671875
0.0249023437500
-0.0394287109375
-0.0124511718750
0.0457763671875
0.0238037109375
0.0494384765625
0.0092773437500
0.0323486328125
0.0562744140625
-0.0242919921875
0.0002441406250
-0.0256347656250
0.0474853515625
-0.0490722656250
-0.0313720703125
-0.0504150390625
0.0155029296875
-0.0332031250000
-0.0367431640625
-0.0184326171875
-0.0197753906250
-0.0212402343750
0.0054931640625
-0.0155029296875
-0.0458984375000
-0.0151367187500
-0.0239257812500
0.0156250000000
0.0245361328125
-0.0347900390625
-0.0150146484375
0.0322265625000
0.0461425781250
-0.0267333984375
0.0043945312500
-0.0015869140625
-0.0501708984375
-0.0244140625000
0.0533447265625
0.0252685546875
0.0072021484375
-0.0277099609375
-0.0054931640625
0.0212402343750
-0.0043945312500
0.0352783203125
-0.0284423828125
-0.0023193359375
0.0112304687500
-0.0036621093750
-0.0065917968750
0.0156250000000
-0.0429687500000
0.0000000000000
-0.0015869140625
-0.0187988281250
-0.0048828125000
-0.0101318359375
0.0240478515625
0.0002441406250
-0.0151367187500
0.0247802734375
0.0277099609375
0.0240478515625
0.0179443359375
-0.0100097656250
0.0427246093750
-0.0266113281250
-0.0426025390625
-0.0136718750000
-0.0411376953125
0.0482177734375
-0.0339355468750
-0.0141601562500
0.0537109375000
-0.0354003906250
0.0050048828125
0.0102539062500
-0.0302734375000
0.0541992187500
0.0058593750000
-0.0013427734375
-0.0369873046875
-0.0058593750000
0.0178222656250
-0.0104980468750
0.0164794921875
0.0368652343750
0.0422363281250
0.0072021484375
-0.0281982421875
0.0054931640625
0.0345458984375
-0.0152587890625
-0.0113525390625
-0.0413818359375
-0.0084228515625
-0.0273437500000
0.0189208984375
-0.0433349609375
-0.0156250000000
0.0517578125000
0.0377197265625
-0.0780029296875
-0.0477294921875
-0.0120849609375
0.0064697265625
0.0030517578125
0.0189208984375
-0.0284423828125
-0.0152587890625
0.0130615234375
0.0513916015625
0.0318603515625
0.0352783203125
0.0322265625000
-0.0249023437500
0.0000000000000
0.0174560546875
-0.0275878906250
-0.0305175781250
-0.0186767578125
-0.0184326171875
-0.0466308593750
-0.0091552734375
-0.0266113281250
0.0122070312500
0.0070800781250
0.0087890625000
-0.0091552734375
0.0225830078125
-0.0205078125000
-0.0186767578125
-0.0235595703125
0.0447998046875
-0.0466308593750
0.0316162109375
0.0137939453125
-0.0351562500000
-0.0106201171875
-0.0141601562500
0.0081787109375
-0.0407714843750
-0.0159912109375
-0.0389404296875
-0.0522460937500
-0.0327148437500
-0.0198974609375
-0.0373535156250
0.0019531250000
-0.0194091796875
-0.0366210937500
-0.0300292968750
0.0156250000000
0.0078125000000
-0.0324707031250
0.0344238281250
0.0039062500000
0.0300292968750
0.0303955078125
-0.0070800781250
0.0122070312500
0.0152587890625
0.0233154296875
-0.0565185546875
0.0449218750000
-0.0194091796875
-0.0264892578125
-0.0219726562500
0.0170898437500
0.0504150390625
-0.0428466796875
0.0048828125000
-0.0068359375000
0.0133056640625
0.0242919921875
-0.0418701171875
0.0030517578125
-0.0262451171875
0.0196533203125
0.0480957031250
0.0000000000000
-0.0334472656250
-0.0288085937500
0.0170898437500
0.0008544921875
0.0518798828125
0.0183105468750
-0.0378417968750
0.0465087890625
0.0301513671875
0.0393066406250
-0.0478515625000
-0.0069580078125
0.0319824218750
0.0126953125000
0.0396728515625
-0.0404052734375
-0.0787353515625
-0.0587158203125
0.0347900390625
0.0261230468750
-0.0142822265625
0.0031738281250
-0.0070800781250
0.0179443359375
-0.0148925781250
-0.0147705078125
0.0166015625000
-0.0061035156250
-0.0371093750000
-0.0318603515625
0.0219726562500
0.0170898437500
0.0056152343750
0.0103759765625
-0.0023193359375
0.0129394531250
-0.0373535156250
-0.0163574218750
-0.0043945312500
-0.0531005859375
0.0075683593750
-0.0069580078125
0.0545654296875
-0.0402832031250
-0.0012207031250
0.0086669921875
0.0427246093750
-0.0214843750000
-0.0117187500000
0.0023193359375
0.0081787109375
0.0218505859375
-0.0313720703125
0.0213623046875
-0.0214843750000
0.0122070312500
0.0291748046875
-0.0659179687500
0.0139160156250
0.0528564453125
0.0015869140625
-0.0185546875000
-0.0205078125000
0.0000000000000
-0.0335693359375
-0.0222167968750
-0.0311279296875
0.0095214843750
-0.0512695312500
0.0205078125000
0.0439453125000
0.0194091796875
0.0157470703125
-0.0438232421875
0.0422363281250
0.0426025390625
0.0413818359375
-0.0299072265625
0.0260009765625
-0.0424804687500
-0.0406494140625
-0.0321044921875
-0.0244140625000
-0.0024414062500
0.0288085937500
0.0302734375000
0.0067138671875
-0.0108642578125
-0.0339355468750
-0.0037841796875
0.0323486328125
-0.0155029296875
0.0246582031250
-0.0012207031250
0.0218505859375
0.0449218750000
0.0076904296875
0.0185546875000
0.0229492187500
0.0115966796875
-0.0683593750000
0.0541992187500
0.0439453125000
-0.0273437500000
-0.0263671875000
-0.0280761718750
0.0039062500000
-0.0157470703125
0.0184326171875
0.0483398437500
-0.0244140625000
-0.0356445312500
-0.0020751953125
-0.0272216796875
-0.0037841796875
0.0379638671875
0.0128173828125
-0.0490722656250
-0.0065917968750
0.0250244140625
-0.0571289062500
-0.0289306640625
0.0483398437500
-0.0554199218750
-0.0321044921875
-0.0275878906250
-0.0103759765625
0.0000000000000
0.0239257812500
-0.0407714843750
-0.0552978515625
0.0157470703125
0.0244140625000
0.0540771484375
-0.0129394531250
0.0059814453125
-0.0289306640625
-0.0249023437500
-0.0255126953125
0.0104980468750
-0.0555419921875
0.0207519531250
-0.0462646484375
-0.0001220703125
0.0284423828125
-0.0302734375000
-0.0185546875000
-0.0107421875000
-0.0075683593750
-0.0069580078125
0.0045166015625
0.0177001953125
0.0502929687500
-0.0417480468750
-0.0382080078125
0.0407714843750
-0.0482177734375
0.0352783203125
-0.0456542968750
-0.0155029296875
0.0081787109375
-0.0415039062500
-0.0411376953125
0.0390625000000
-0.0157470703125
-0.0247802734375
0.0393066406250
-0.0421142578125
0.0291748046875
0.0356445312500
-0.0299072265625
-0.0366210937500
-0.0236816406250
0.0334472656250
-0.0450439453125
-0.0028076171875
0.0314941406250
-0.0068359375000
-0.0156250000000
-0.0069580078125
0.0090332031250
0.0034179687500
0.0472412109375
-0.0122070312500
-0.0488281250000
0.0214843750000
0.0229492187500
0.0054931640625
0.0162353515625
0.0186767578125
0.0018310546875
0.0000000000000
0.0363769531250
-0.0238037109375
-0.0065917968750
-0.0476074218750
0.0406494140625
0.0354003906250
0.0317382812500
0.0086669921875
-0.0119628906250
0.0385742187500
-0.0222167968750
-0.0242919921875
-0.0324707031250
0.0224609375000
-0.0203857421875
-0.0159912109375
-0.0440673828125
-0.0291748046875
-0.0227050781250
0.0305175781250
0.0426025390625
-0.0329589843750
0.0230712890625
-0.0303955078125
0.0002441406250
-0.0014648437500
-0.0499267578125
0.0054931640625
-0.0607910156250
0.0209960937500
-0.0341796875000
0.0252685546875
0.0144042968750
0.0034179687500
0.0487060546875
-0.0314941406250
-0.0313720703125
0.0052490234375
-0.0355224609375
-0.0449218750000
0.0270996093750
-0.0035400390625
0.0374755859375
-0.0279541015625
0.0118408203125
0.0354003906250
0.0092773437500
-0.0275878906250
0.0534667968750
0.0145263671875
0.0430908203125
0.0107421875000
-0.0231933593750
-0.0240478515625
-0.0404052734375
0.0469970703125
0.0246582031250
0.0596923828125
-0.0355224609375
0.0057373046875
0.0246582031250
0.0400390625000
-0.0296630859375
0.0000000000000
0.0052490234375
0.0185546875000
-0.0134277343750
0.0406494140625
0.0217285156250
0.0009765625000
-0.0437011718750
0.0052490234375
-0.0384521484375
0.0354003906250
0.0109863281250
-0.0174560546875
-0.0518798828125
0.0423583984375
-0.0349121093750
0.0360107421875
-0.0476074218750
-0.0354003906250
0.0286865234375
0.0102539062500
0.0380859375000
-0.0385742187500
0.0324707031250
0.0327148437500
0.0526123046875
0.0065917968750
-0.0161132812500
-0.0097656250000
0.0286865234375
0.0013427734375
-0.0391845703125
0.0015869140625
0.0101318359375
0.0451660156250
0.0380859375000
-0.0031738281250
-0.0041503906250
-0.0356445312500
0.0544433593750
-0.0618896484375
0.0410156250000
-0.0008544921875
0.0161132812500
-0.0024414062500
-0.0346679687500
-0.0225830078125
-0.0428466796875
0.0400390625000
0.0606689453125
-0.0533447265625
0.0145263671875
0.0046386718750
0.0191650390625
0.0069580078125
0.0312500000000
-0.0405273437500
-0.0484619140625
0.0355224609375
0.0003662109375
0.0007324218750
-0.0112304687500
0.0466308593750
0.0170898437500
0.0000000000000
0.0185546875000
0.0399169921875
-0.0401611328125
-0.0073242187500
0.0118408203125
-0.0440673828125
0.0175781250000
-0.0155029296875
0.0458984375000
0.0432128906250
-0.0393066406250
0.0117187500000
0.0424804687500
-0.0394287109375
-0.0024414062500
0.0264892578125
-0.0281982421875
0.0305175781250
0.0416259765625
0.0205078125000
-0.0236816406250
0.0224609375000
0.0136718750000
0.0129394531250
-0.0367431640625
0.0006103515625
0.0296630859375
-0.0445556640625
-0.0633544921875
0.0214843750000
-0.0395507812500
0.0257568359375
-0.0125732421875
-0.0443115234375
-0.0455322265625
-0.0405273437500
-0.0410156250000
-0.0087890625000
0.0148925781250
-0.0113525390625
0.0104980468750
0.0351562500000
-0.0019531250000
-0.0206298828125
0.0362548828125
0.0078125000000
-0.0784912109375
0.0268554687500
0.0211181640625
0.0135498046875
0.0251464843750
0.0402832031250
0.0170898437500
-0.0247802734375
-0.0195312500000
-0.0015869140625
-0.0200195312500
-0.0263671875000
-0.0200195312500
0.0097656250000
0.0322265625000
0.0230712890625
0.0002441406250
0.0000000000000
-0.0106201171875
-0.0200195312500
-0.0064697265625
-0.0493164062500
-0.0450439453125
-0.0109863281250
-0.0101318359375
0.0369873046875
0.0307617187500
0.0097656250000
-0.0145263671875
-0.0358886718750
0.0283203125000
-0.0290527343750
-0.0065917968750
-0.0189208984375
0.0179443359375
-0.0126953125000
0.0207519531250
0.0166015625000
-0.0458984375000
-0.0371093750000
-0.0140380859375
-0.0450439453125
-0.0329589843750
0.0010986328125
-0.0029296875000
0.0056152343750
-0.0163574218750
0.0423583984375
-0.0014648437500
0.0357666015625
0.0084228515625
0.0129394531250
-0.0126953125000
0.0268554687500
-0.0140380859375
0.0253906250000
0.0456542968750
-0.0028076171875
0.0106201171875
-0.0291748046875
0.0500488281250
-0.0432128906250
-0.0092773437500
0.0325927734375
-0.0364990234375
-0.0119628906250
0.0037841796875
-0.0277099609375
0.0144042968750
-0.0184326171875
-0.0546875000000
-0.0510253906250
0.0220947265625
-0.0141601562500
-0.0635986328125
-0.0393066406250
0.0220947265625
-0.0170898437500
-0.0163574218750
-0.0479736328125
-0.0269775390625
0.0000000000000
-0.0012207031250
-0.0156250000000
-0.0056152343750
0.0096435546875
-0.0390625000000
-0.0200195312500
0.0377197265625
-0.0462646484375
-0.0462646484375
0.0294189453125
-0.0384521484375
-0.0340576171875
-0.0523681640625
0.0361328125000
-0.0330810546875
0.0207519531250
0.0041503906250
0.0081787109375
0.0190429687500
-0.0207519531250
0.0279541015625
-0.0191650390625
0.0238037109375
-0.0045166015625
0.0352783203125
-0.0307617187500
0.0356445312500
0.0432128906250
-0.0643310546875
-0.0035400390625
0.0111083984375
-0.0559082031250
0.0008544921875
-0.0384521484375
-0.0257568359375
-0.0389404296875
0.0292968750000
0.0167236328125
-0.0415039062500
-0.0333251953125
-0.0371093750000
-0.0469970703125
-0.0245361328125
0.0013427734375
0.0372314453125
0.0614013671875
0.0346679687500
-0.0537109375000
0.0021972656250
-0.0070800781250
0.0463867187500
-0.0373535156250
0.0190429687500
0.0078125000000
0.0025634765625
0.0141601562500
-0.0603027343750
0.0308837890625
-0.0456542968750
0.0266113281250
0.0368652343750
-0.0148925781250
-0.0067138671875
0.0000000000000
0.0159912109375
0.0556640625000
-0.0434570312500
-0.0332031250000
0.0394287109375
-0.0380859375000
-0.0217285156250
-0.0421142578125
-0.0422363281250
-0.0413818359375
-0.0067138671875
0.0097656250000
0.0466308593750
-0.0623779296875
0.0129394531250
0.0115966796875
0.0187988281250
0.0380859375000
0.0267333984375
0.0300292968750
-0.0269775390625
0.0362548828125
-0.0001220703125
0.0311279296875
0.0061035156250
0.0434570312500
-0.0070800781250
-0.0449218750000
0.0008544921875
-0.0207519531250
0.0074462890625
0.0083007812500
0.0091552734375
0.0307617187500
-0.0434570312500
-0.0283203125000
-0.0170898437500
-0.0085449218750
-0.0052490234375
0.0000000000000
-0.0289306640625
-0.0444335937500
0.0137939453125
-0.0257568359375
0.0092773437500
0.0605468750000
0.0185546875000
0.0347900390625
-0.0104980468750
-0.0170898437500
-0.0112304687500
0.0197753906250
-0.0235595703125
-0.0050048828125
0.0422363281250
0.0366210937500
0.0301513671875
-0.0052490234375
0.0377197265625
-0.0404052734375
0.0375976562500
-0.0227050781250
0.0184326171875
0.0000000000000
-0.0170898437500
0.0069580078125
0.0443115234375
0.0141601562500
0.0383300781250
0.0112304687500
-0.0032958984375
-0.0125732421875
-0.0280761718750
-0.0219726562500
0.0059814453125
-0.0289306640625
0.0338134765625
-0.0128173828125
-0.0078125000000
0.0041503906250
-0.0363769531250
-0.0037841796875
-0.0101318359375
-0.0013427734375
0.0086669921875
0.0296630859375
-0.0079345703125
-0.0434570312500
0.0173339843750
0.0437011718750
0.0115966796875
0.0128173828125
0.0343017578125
0.0192871093750
0.0037841796875
0.0306396484375
-0.0170898437500
0.0068359375000
0.0240478515625
0.0231933593750
0.0544433593750
-0.0065917968750
-0.0184326171875
-0.0093994140625
-0.0114746093750
-0.0241699218750
0.0238037109375
-0.0028076171875
0.0242919921875
-0.0227050781250
-0.0506591796875
-0.0163574218750
0.0340576171875
0.0333251953125
-0.0018310546875
-0.0028076171875
-0.0139160156250
0.0253906250000
0.0202636718750
0.0196533203125
0.0113525390625
0.0076904296875
-0.0006103515625
-0.0253906250000
-0.0106201171875
-0.0219726562500
-0.0412597656250
0.0000000000000
-0.0091552734375
-0.0126953125000
-0.0212402343750
0.0319824218750
0.0222167968750
0.0168457031250
0.0292968750000
0.0252685546875
-0.0050048828125
0.0444335937500
0.0240478515625
-0.0321044921875
-0.0587158203125
-0.0338134765625
0.0139160156250
0.0454101562500
0.0045166015625
0.0352783203125
-0.0240478515625
0.0050048828125
0.0207519531250
0.0037841796875
0.0275878906250
0.0578613281250
-0.0294189453125
-0.0311279296875
0.0164794921875
-0.0212402343750
-0.0139160156250
0.0231933593750
-0.0163574218750
0.0262451171875
0.0251464843750
-0.0238037109375
-0.0133056640625
0.0328369140625
-0.0362548828125
-0.0363769531250
-0.0466308593750
-0.0097656250000
-0.0489501953125
0.0358886718750
0.0117187500000
-0.0566406250000
-0.0234375000000
0.0219726562500
-0.0231933593750
0.0175781250000
0.0238037109375
-0.0419921875000
0.0200195312500
-0.0061035156250
-0.0089111328125
0.0008544921875
-0.0311279296875
0.0019531250000
-0.0513916015625
0.0346679687500
-0.0504150390625
0.0347900390625
0.0410156250000
0.0052490234375
-0.0002441406250
0.0000000000000
-0.0278320312500
-0.0111083984375
-0.0600585937500
0.0051269531250
0.0504150390625
0.0114746093750
0.0262451171875
0.0242919921875
0.0030517578125
-0.0410156250000
0.0263671875000
-0.0048828125000
-0.0081787109375
-0.0217285156250
-0.0076904296875
-0.0166015625000
0.0140380859375
0.0098876953125
0.0361328125000
-0.0030517578125
0.0373535156250
0.0161132812500
0.0168457031250
0.0297851562500
0.0418701171875
-0.0238037109375
0.0305175781250
-0.0119628906250
-0.0583496093750
-0.0097656250000
-0.0328369140625
-0.0356445312500
0.0566406250000
0.0069580078125
-0.0098876953125
0.0340576171875
-0.0366210937500
0.0379638671875
-0.0151367187500
-0.0638427734375
0.0111083984375
0.0382080078125
-0.0308837890625
0.0377197265625
-0.0371093750000
-0.0096435546875
-0.0002441406250
-0.0041503906250
0.0313720703125
-0.0220947265625
0.0187988281250
0.0045166015625
-0.0173339843750
0.0307617187500
0.0312500000000
0.0301513671875
0.0520019531250
0.0026855468750
-0.0178222656250
-0.0214843750000
0.0092773437500
0.0078125000000
0.0046386718750
0.0000000000000
0.0377197265625
0.0377197265625
0.0338134765625
-0.0316162109375
0.0623779296875
-0.0228271484375
0.0196533203125
-0.0007324218750
-0.0117187500000
0.0124511718750
-0.0328369140625
0.0057373046875
-0.0220947265625
0.0346679687500
-0.0527343750000
-0.0410156250000
-0.0155029296875
-0.0411376953125
-0.0268554687500
-0.0543212890625
0.0222167968750
-0.0357666015625
-0.0551757812500
-0.0163574218750
0.0207519531250
-0.0206298828125
-0.0424804687500
0.0227050781250
-0.0306396484375
-0.0574951171875
0.0550537109375
-0.0179443359375
-0.0244140625000
0.0273437500000
0.0052490234375
-0.0236816406250
0.0068359375000
0.0015869140625
-0.0078125000000
-0.0296630859375
-0.0363769531250
-0.0474853515625
-0.0423583984375
0.0319824218750
0.0333251953125
-0.0147705078125
-0.0377197265625
-0.0268554687500
-0.0390625000000
-0.0313720703125
0.0076904296875
0.0302734375000
0.0223388671875
0.0340576171875
0.0205078125000
0.0097656250000
0.0168457031250
-0.0689697265625
0.0053710937500
-0.0145263671875
-0.0025634765625
-0.0444335937500
0.0452880859375
0.0000000000000
-0.0098876953125
0.0161132812500
0.0113525390625
0.0234375000000
0.0137939453125
0.0150146484375
0.0439453125000
-0.0512695312500
-0.0070800781250
0.0192871093750
0.0239257812500
-0.0219726562500
-0.0373535156250
-0.0145263671875
-0.0332031250000
-0.0177001953125
0.0192871093750
0.0128173828125
-0.0501708984375
-0.0161132812500
0.0120849609375
-0.0600585937500
-0.0102539062500
-0.0157470703125
0.0222167968750
-0.0383300781250
0.0073242187500
0.0415039062500
-0.0648193359375
-0.0545654296875
-0.0280761718750
0.0258789062500
0.0026855468750
-0.0021972656250
0.0068359375000
-0.0004882812500
0.0031738281250
-0.0231933593750
-0.0496826171875
0.0223388671875
-0.0456542968750
-0.0157470703125
0.0156250000000
-0.0246582031250
0.0173339843750
0.0190429687500
-0.0357666015625
-0.0107421875000
0.0267333984375
-0.0166015625000
0.0059814453125
-0.0334472656250
-0.0166015625000
-0.0145263671875
0.0421142578125
-0.0163574218750
-0.0296630859375
0.0484619140625
-0.0505371093750
-0.0109863281250
0.0024414062500
-0.0526123046875
-0.0364990234375
0.0000000000000
0.0552978515625
0.0557861328125
0.0505371093750
-0.0375976562500
0.0131835937500
-0.0266113281250
0.0731201171875
-0.0467529296875
-0.0147705078125
0.0056152343750
-0.0235595703125
-0.0098876953125
-0.0111083984375
-0.0153808593750
0.0092773437500
-0.0450439453125
0.0129394531250
-0.0515136718750
0.0247802734375
0.0194091796875
-0.0139160156250
0.0429687500000
-0.0140380859375
-0.0042724609375
-0.0192871093750
0.0042724609375
-0.0446777343750
-0.0269775390625
0.0363769531250
0.0671386718750
0.0308837890625
-0.0318603515625
-0.0119628906250
-0.0032958984375
-0.0253906250000
0.0042724609375
-0.0070800781250
0.0451660156250
-0.0026855468750
-0.0190429687500
0.0335693359375
0.0406494140625
-0.0517578125000
0.0047607421875
0.0153808593750
0.0412597656250
0.0202636718750
0.0185546875000
-0.0137939453125
-0.0341796875000
0.0585937500000
0.0336914062500
-0.0118408203125
-0.0374755859375
0.0068359375000
-0.0303955078125
0.0343017578125
0.0369873046875
-0.0063476562500
-0.0371093750000
0.0317382812500
0.0301513671875
0.0328369140625
0.0000000000000
-0.0156250000000
0.0063476562500
0.0360107421875
-0.0069580078125
-0.0013427734375
0.0144042968750
0.0382080078125
0.0270996093750
-0.0286865234375
0.0416259765625
0.0563964843750
-0.0484619140625
-0.0042724609375
-0.0212402343750
-0.0007324218750
0.0211181640625
-0.0324707031250
0.0115966796875
0.0059814453125
0.0217285156250
0.0118408203125
-0.0050048828125
-0.0393066406250
-0.0021972656250
0.0258789062500
-0.0163574218750
0.0041503906250
-0.0115966796875
0.0053710937500
-0.0280761718750
-0.0233154296875
0.0042724609375
-0.0150146484375
-0.0059814453125
0.0437011718750
-0.0278320312500
-0.0068359375000
0.0458984375000
0.0036621093750
0.0285644531250
0.0640869140625
0.0123291015625
-0.0310058593750
0.0402832031250
-0.0174560546875
0.0357666015625
0.0179443359375
0.0048828125000
0.0273437500000
-0.0150146484375
-0.0100097656250
-0.0198974609375
-0.0112304687500
0.0053710937500
0.0061035156250
0.0306396484375
0.0065917968750
0.0318603515625
0.0408935546875
-0.0002441406250
-0.0095214843750
0.0545654296875
-0.0659179687500
0.0000000000000
-0.0202636718750
0.0133056640625
0.0568847656250
-0.0429687500000
-0.0345458984375
0.0270996093750
0.0310058593750
0.0260009765625
0.0535888671875
0.0242919921875
0.0456542968750
-0.0427246093750
0.0074462890625
0.0384521484375
-0.0345458984375
0.0340576171875
-0.0163574218750
-0.0224609375000
-0.0008544921875
-0.0344238281250
0.0052490234375
-0.0114746093750
0.0209960937500
-0.0144042968750
-0.0566406250000
0.0397949218750
0.0708007812500
0.0037841796875
-0.0150146484375
-0.0373535156250
0.0277099609375
-0.0302734375000
0.0300292968750
-0.0288085937500
-0.0108642578125
-0.0157470703125
0.0384521484375
0.0439453125000
-0.0218505859375
0.0123291015625
0.0340576171875
0.0203857421875
-0.0460205078125
0.0095214843750
0.0034179687500
0.0093994140625
-0.0279541015625
-0.0175781250000
-0.0007324218750
0.0433349609375
0.0148925781250
0.0074462890625
-0.0305175781250
-0.0393066406250
-0.0318603515625
0.0328369140625
0.0292968750000
0.0075683593750
-0.0606689453125
0.0174560546875
0.0028076171875
0.0360107421875
0.0191650390625
0.0000000000000
-0.0356445312500
-0.0292968750000
-0.0091552734375
-0.0285644531250
-0.0255126953125
-0.0241699218750
-0.0325927734375
-0.0139160156250
-0.0312500000000
0.0402832031250
0.0050048828125
-0.0024414062500
0.0120849609375
0.0419921875000
-0.0272216796875
0.0021972656250
-0.0135498046875
-0.0234375000000
-0.0037841796875
-0.0119628906250
0.0362548828125
0.0128173828125
0.0328369140625
0.0455322265625
0.0295410156250
-0.0344238281250
0.0093994140625
0.0103759765625
0.0377197265625
-0.0247802734375
-0.0187988281250
0.0383300781250
0.0509033203125
0.0100097656250
0.0310058593750
0.0239257812500
0.0395507812500
0.0217285156250
-0.0346679687500
-0.0445556640625
0.0159912109375
0.0366210937500
0.0725097656250
0.0570068359375
0.0449218750000
0.0467529296875
0.0366210937500
-0.0101318359375
-0.0179443359375
-0.0034179687500
0.0224609375000
0.0639648437500
-0.0107421875000
0.0184326171875
-0.0196533203125
0.0230712890625
-0.0562744140625
-0.0152587890625
-0.0360107421875
0.0772705078125
0.0407714843750
-0.0026855468750
-0.0445556640625
0.0000000000000
-0.0001220703125
0.0241699218750
0.0363769531250
0.0316162109375
-0.0184326171875
-0.0308837890625
-0.0318603515625
-0.0172119140625
0.0299072265625
0.0015869140625
-0.0393066406250
-0.0166015625000
-0.0092773437500
-0.0250244140625
0.0140380859375
0.0101318359375
-0.0410156250000
-0.0186767578125
-0.0257568359375
0.0321044921875
0.0018310546875
0.0150146484375
0.0284423828125
0.0324707031250
0.0267333984375
0.0388183593750
0.0184326171875
-0.0074462890625
0.0180664062500
0.0388183593750
0.0218505859375
-0.0465087890625
0.0091552734375
0.0130615234375
0.0095214843750
0.0239257812500
0.0452880859375
-0.0260009765625
0.0423583984375
0.0102539062500
-0.0194091796875
-0.0351562500000
0.0274658203125
0.0167236328125
-0.0388183593750
-0.0017089843750
0.0092773437500
-0.0102539062500
0.0158691406250
0.0119628906250
0.0278320312500
-0.0493164062500
0.0062255859375
0.0256347656250
-0.0006103515625
0.0227050781250
0.0236816406250
-0.0478515625000
0.0217285156250
0.0236816406250
-0.0087890625000
-0.0142822265625
-0.0002441406250
0.0000000000000
-0.0010986328125
0.0000000000000
-0.0014648437500
-0.0007324218750
-0.0002441406250
-0.0006103515625
-0.0014648437500
-0.0003662109375
-0.0004882812500
-0.0008544921875
-0.0003662109375
0.0000000000000
-0.0003662109375
-0.0013427734375
-0.0009765625000
-0.0006103515625
0.0000000000000
-0.0008544921875
-0.0001220703125
-0.0007324218750
-0.0010986328125
-0.0007324218750
-0.0001220703125
-0.0009765625000
-0.0003662109375
-0.0007324218750
-0.0002441406250
-0.0006103515625
-0.0007324218750
0.0000000000000
-0.0007324218750
-0.0006103515625
-0.0003662109375
0.0000000000000
-0.0013427734375
0.0000000000000
-0.0008544921875
0.0001220703125
-0.0004882812500
0.0000000000000
0.0000000000000
0.0000000000000
-0.0013427734375
-0.0002441406250
0.0000000000000
-0.0012207031250
-0.0002441406250
-0.0030517578125
0.0000000000000
-0.0006103515625
-0.0002441406250
0.0000000000000
-0.0006103515625
-0.0015869140625
-0.0001220703125
-0.0007324218750
-0.0003662109375
-0.0006103515625
-0.0003662109375
-0.0006103515625
-0.0007324218750
-0.0002441406250
0.0000000000000
0.0000000000000
-0.0003662109375
-0.0003662109375
0.0000000000000
-0.0004882812500
-0.0002441406250
0.0000000000000
0.0000000000000
0.0000000000000
0.0000000000000
-0.0012207031250
-0.0012207031250
0.0000000000000
-0.0004882812500
0.0000000000000
-0.0002441406250
-0.0006103515625
-0.0002441406250
-0.0008544921875
-0.0003662109375
-0.0004882812500
-0.0012207031250
-0.0010986328125
-0.0002441406250
-0.0008544921875
-0.0001220703125
-0.0003662109375
-0.0001220703125
-0.0001220703125
0.0000000000000
-0.0001220703125
0.0000000000000
0.0000000000000
-0.0003662109375
-0.0001220703125
-0.0003662109375
-0.0006103515625
0.0000000000000
-0.0008544921875
0.0000000000000
0.0000000000000
-0.0004882812500
-0.0001220703125
-0.0012207031250
0.0000000000000
0.0000000000000
-0.0008544921875
-0.0004882812500
-0.0023193359375
0.0000000000000
-0.0001220703125
-0.0001220703125
0.0000000000000
-0.0001220703125
-0.0004882812500
-0.0004882812500
0.0000000000000
0.0000000000000
-0.0001220703125
-0.0007324218750
-0.0008544921875
-0.0009765625000
-0.0003662109375
0.0000000000000
0.0000000000000
-0.0007324218750
-0.0006103515625
-0.0002441406250
-0.0003662109375
-0.0003662109375
0.0000000000000
0.0000000000000
0.0000000000000
0.0000000000000
-0.0024414062500
0.0001220703125
0.0000000000000
0.0000000000000
0.0000000000000
-0.0008544921875
-0.0023193359375
-0.0002441406250
-0.0006103515625
0.0001220703125
-0.0001220703125
0.0000000000000
-0.0008544921875
-0.0002441406250
-0.0006103515625
-0.0001220703125
-0.0002441406250
0.0000000000000
0.0000000000000
-0.0002441406250
-0.0003662109375
-0.0001220703125
0.0000000000000
0.0000000000000
-0.0002441406250
-0.0003662109375
-0.0007324218750
-0.0004882812500
-0.0007324218750
0.0000000000000
0.0000000000000
0.0000000000000
-0.0003662109375
-0.0003662109375
-0.0001220703125
-0.0003662109375
-0.0003662109375
0.0000000000000
-0.0008544921875
0.0000000000000
0.0000000000000
-0.0006103515625
0.0000000000000
-0.0002441406250
-0.0004882812500
-0.0006103515625
0.0000000000000
-0.0001220703125
0.0000000000000
-0.0004882812500
-0.0004882812500
-0.0002441406250
-0.0003662109375
0.0000000000000
0.0000000000000
-0.0019531250000
-0.0004882812500
-0.0001220703125
-0.0003662109375
-0.0001220703125
0.0000000000000
-0.0002441406250
0.0000000000000
-0.0001220703125
-0.0009765625000
0.0000000000000
0.0000000000000
-0.0001220703125
0.0000000000000
-0.0006103515625
0.0003662109375
0.0000000000000
-0.0008544921875
-0.0008544921875
-0.0001220703125
0.0000000000000
-0.0012207031250
-0.0003662109375
0.0000000000000
0.0000000000000
0.0000000000000
-0.0001220703125
-0.0001220703125
0.0000000000000
0.0000000000000
0.0000000000000
0.0000000000000
0.0000000000000
0.0000000000000
-0.0001220703125
-0.0009765625000
-0.0002441406250
-0.0012207031250
0.0000000000000
0.0000000000000
-0.0009765625000
-0.0001220703125
-0.0007324218750
0.0000000000000
-0.0001220703125
-0.0003662109375
0.0000000000000
-0.0052490234375
0.0000000000000
0.0000000000000
-0.0008544921875
0.0000000000000
-0.0001220703125
-0.0004882812500
-0.0002441406250
0.0000000000000
0.0000000000000
-0.0004882812500
-0.0004882812500
-0.0001220703125
-0.0004882812500
-0.0002441406250
-0.0001220703125
0.0000000000000
-0.0007324218750
-0.0004882812500
0.0000000000000
-0.0001220703125
-0.0001220703125
-0.0002441406250
-0.0001220703125
-0.0004882812500
0.0000000000000
0.0015869140625
-0.0003662109375
0.0000000000000
-0.0001220703125
-0.0001220703125
-0.0001220703125
-0.0003662109375
0.0000000000000
-0.0010986328125
0.0000000000000
-0.0003662109375
-0.0002441406250
-0.0007324218750
-0.0007324218750
-0.0003662109375
0.0000000000000
0.0000000000000
-0.0002441406250
0.0000000000000
-0.0001220703125
-0.0002441406250
0.0000000000000
-0.0003662109375
-0.0001220703125
0.0000000000000
-0.0008544921875
-0.0009765625000
0.0000000000000
-0.0013427734375
-0.0002441406250
0.0000000000000
-0.0002441406250
-0.0003662109375
-0.0010986328125
0.0000000000000
-0.0002441406250
-0.0003662109375
-0.0003662109375
0.0015869140625
0.0000000000000
0.0000000000000
-0.0010986328125
0.0000000000000
0.0000000000000
-0.0004882812500
-0.0002441406250
0.0000000000000
0.0000000000000
0.0000000000000
-0.0007324218750
-0.0006103515625
-0.0008544921875
-0.0004882812500
0.0000000000000
0.0000000000000
0.0000000000000
-0.0001220703125
-0.0003662109375
-0.0004882812500
-0.0006103515625
-0.0004882812500
-0.0004882812500
0.0000000000000
0.0000000000000
-0.0015869140625
0.0000000000000
0.0000000000000
-0.0001220703125
-0.0006103515625
0.0000000000000
-0.0001220703125
0.0000000000000
-0.0003662109375
-0.0009765625000
0.0000000000000
-0.0009765625000
-0.0002441406250
-0.0010986328125
-0.0003662109375
0.0000000000000
0.0000000000000
0.0000000000000
0.0000000000000
-0.0002441406250
-0.0002441406250
0.0000000000000
0.0000000000000
0.0000000000000
0.0000000000000
-0.0009765625000
-0.0007324218750
0.0000000000000
-0.0010986328125
-0.0001220703125
0.0000000000000
0.0000000000000
0.0000000000000
-0.0012207031250
0.0000000000000
0.0000000000000
0.0000000000000
-0.0008544921875
-0.0026855468750
-0.0004882812500
-0.0002441406250
-0.0001220703125
-0.0006103515625
-0.0002441406250
-0.0012207031250
-0.0004882812500
0.0000000000000
-0.0004882812500
-0.0003662109375
-0.0008544921875
-0.0003662109375
-0.0009765625000
0.0000000000000
0.0000000000000
0.0000000000000
0.0000000000000
0.0000000000000
0.0000000000000
-0.0007324218750
-0.0001220703125
0.0000000000000
0.0000000000000
-0.0001220703125
0.0000000000000
-0.0004882812500
-0.0001220703125
0.0000000000000
-0.0002441406250
0.0000000000000
0.0000000000000
-0.0008544921875
0.0000000000000
-0.0004882812500
-0.0003662109375
-0.0007324218750
-0.0012207031250
0.0000000000000
-0.0001220703125
-0.0012207031250
-0.0003662109375
-0.0006103515625
0.0000000000000
0.0000000000000
0.0000000000000
-0.0003662109375
0.0000000000000
0.0000000000000
-0.0004882812500
-0.0004882812500
0.0000000000000
-0.0003662109375
0.0000000000000
-0.0002441406250
-0.0004882812500
0.0000000000000
-0.0002441406250
-0.0001220703125
-0.0012207031250
-0.0002441406250
0.0000000000000
0.0000000000000
-0.0002441406250
-0.0019531250000
0.0000000000000
0.0000000000000
0.0000000000000
0.0000000000000
0.0000000000000
-0.0008544921875
-0.0003662109375
0.0000000000000
-0.0004882812500
0.0000000000000
-0.0003662109375
-0.0008544921875
-0.0002441406250
0.0000000000000
-0.0002441406250
0.0000000000000
-0.0007324218750
-0.0003662109375
-0.0004882812500
-0.0003662109375
-0.0003662109375
-0.0003662109375
0.0000000000000
0.0000000000000
-0.0002441406250
0.0002441406250
-0.0002441406250
0.0000000000000
-0.0002441406250
-0.0002441406250
-0.0003662109375
-0.0002441406250
0.0000000000000
0.0000000000000
-0.0002441406250
-0.0002441406250
0.0000000000000
-0.0008544921875
0.0000000000000
0.0000000000000
-0.0001220703125
0.0000000000000
0.0000000000000
-0.0001220703125
0.0000000000000
0.0000000000000
0.0000000000000
0.0000000000000
0.0000000000000
0.0000000000000
-0.0001220703125
-0.0003662109375
-0.0004882812500
0.0000000000000
-0.0003662109375
0.0000000000000
0.0002441406250
0.0000000000000
-0.0002441406250
0.0000000000000
-0.0001220703125
-0.0006103515625
0.0000000000000
0.0009765625000
0.0000000000000
-0.0004882812500
-0.0002441406250
0.0000000000000
-0.0004882812500
-0.0007324218750
0.0000000000000
-0.0007324218750
0.0000000000000
-0.0004882812500
-0.0007324218750
0.0000000000000
-0.0002441406250
-0.0006103515625
0.0000000000000
0.0000000000000
-0.0012207031250
-0.0006103515625
-0.0004882812500
0.0000000000000
-0.0006103515625
0.0000000000000
0.0000000000000
0.0000000000000
-0.0001220703125
0.0010986328125
-0.0012207031250
0.0000000000000
0.0000000000000
0.0000000000000
-0.0003662109375
-0.0002441406250
0.0000000000000
0.0000000000000
-0.0021972656250
-0.0002441406250
-0.0002441406250
-0.0034179687500
0.0000000000000
0.0000000000000
-0.0002441406250
0.0000000000000
0.0000000000000
0.0000000000000
-0.0001220703125
0.0000000000000
-0.0001220703125
0.0000000000000
0.0000000000000
0.0000000000000
-0.0006103515625
-0.0006103515625
-0.0002441406250
-0.0009765625000
0.0000000000000
0.0000000000000
0.0000000000000
0.0000000000000
-0.0004882812500
0.0000000000000
-0.0002441406250
-0.0006103515625
0.0000000000000
0.0007324218750
0.0000000000000
-0.0001220703125
-0.0007324218750
0.0000000000000
-0.0003662109375
-0.0006103515625
0.0000000000000
0.0000000000000
-0.0006103515625
-0.0001220703125
-0.0001220703125
0.0000000000000
-0.0006103515625
-0.0006103515625
0.0000000000000
0.0000000000000
-0.0010986328125
-0.0008544921875
-0.0003662109375
0.0000000000000
-0.0003662109375
0.0000000000000
-0.0002441406250
0.0000000000000
-0.0001220703125
-0.0035400390625
-0.0006103515625
0.0000000000000
0.0000000000000
0.0000000000000
-0.0006103515625
-0.0015869140625
0.0000000000000
-0.0006103515625
0.0000000000000
-0.0002441406250
0.0000000000000
-0.0029296875000
0.0000000000000
0.0000000000000
-0.0002441406250
0.0000000000000
-0.0002441406250
0.0000000000000
-0.0001220703125
0.0000000000000
0.0000000000000
-0.0001220703125
0.0000000000000
0.0000000000000
-0.0003662109375
-0.0007324218750
-0.0003662109375
-0.0020751953125
0.0000000000000
0.0000000000000
-0.0009765625000
0.0007324218750
-0.0003662109375
0.0000000000000
-0.0004882812500
-0.0007324218750
0.0000000000000
0.0034179687500
0.0000000000000
0.0000000000000
-0.0006103515625
0.0000000000000
-0.0002441406250
-0.0003662109375
0.0000000000000
0.0000000000000
-0.0001220703125
-0.0004882812500
0.0000000000000
0.0000000000000
-0.0008544921875
-0.0007324218750
0.0000000000000
0.0000000000000
-0.0009765625000
-0.0004882812500
-0.0006103515625
0.0000000000000
-0.0006103515625
0.0000000000000
0.0000000000000
-0.0001220703125
0.0000000000000
-0.0026855468750
-0.0018310546875
-0.0004882812500
0.0000000000000
0.0000000000000
0.0000000000000
-0.0009765625000
0.0000000000000
-0.0002441406250
-0.0001220703125
-0.0003662109375
0.0000000000000
-0.0008544921875
0.0000000000000
-0.0002441406250
-0.0004882812500
0.0000000000000
-0.0002441406250
0.0000000000000
-0.0001220703125
-0.0001220703125
-0.0001220703125
0.0000000000000
-0.0002441406250
0.0000000000000
-0.0004882812500
-0.0008544921875
-0.0003662109375
-0.0001220703125
-0.0009765625000
0.0000000000000
-0.0019531250000
-0.0001220703125
-0.0003662109375
-0.0007324218750
-0.0007324218750
-0.0006103515625
-0.0004882812500
0.0000000000000
0.0000000000000
0.0000000000000
-0.0007324218750
0.0000000000000
0.0000000000000
-0.0007324218750
-0.0002441406250
0.0000000000000
-0.0003662109375
0.0000000000000
-0.0003662109375
-0.0002441406250
-0.0003662109375
-0.0009765625000
0.0000000000000
0.0000000000000
-0.0006103515625
-0.0002441406250
-0.0002441406250
-0.0003662109375
0.0000000000000
0.0000000000000
-0.0004882812500
-0.0004882812500
0.0000000000000
-0.0046386718750
-0.0007324218750
-0.0001220703125
0.0000000000000
0.0000000000000
0.0000000000000
-0.0004882812500
0.0000000000000
-0.0002441406250
-0.0007324218750
-0.0001220703125
-0.0006103515625
-0.0006103515625
-0.0010986328125
0.0000000000000
0.0000000000000
0.0000000000000
0.0000000000000
0.0000000000000
-0.0001220703125
0.0000000000000
0.0000000000000
0.0000000000000
0.0000000000000
0.0000000000000
0.0000000000000
-0.0008544921875
-0.0001220703125
-0.0001220703125
0.0000000000000
0.0000000000000
0.0000000000000
-0.0008544921875
-0.0012207031250
0.0000000000000
-0.0001220703125
0.0000000000000
-0.0001220703125
-0.0004882812500
0.0000000000000
0.0000000000000
-0.0006103515625
0.0000000000000
0.0000000000000
-0.0006103515625
-0.0002441406250
0.0000000000000
0.0000000000000
-0.0007324218750
-0.0001220703125
-0.0001220703125
-0.0010986328125
0.0000000000000
0.0000000000000
0.0000000000000
-0.0003662109375
0.0000000000000
0.0000000000000
-0.0003662109375
-0.0004882812500
0.0000000000000
-0.0001220703125
0.0000000000000
0.0000000000000
-0.0019531250000
0.0000000000000
0.0000000000000
0.0000000000000
0.0000000000000
0.0000000000000
-0.0008544921875
0.0000000000000
-0.0001220703125
-0.0006103515625
-0.0002441406250
-0.0004882812500
-0.0003662109375
0.0000000000000
-0.0004882812500
0.0000000000000
-0.0001220703125
0.0000000000000
0.0000000000000
-0.0002441406250
-0.0002441406250
0.0000000000000
0.0000000000000
0.0000000000000
0.0000000000000
0.0000000000000
-0.0003662109375
0.0000000000000
0.0002441406250
0.0000000000000
0.0000000000000
-0.0001220703125
0.0000000000000
-0.0009765625000
-0.0003662109375
0.0000000000000
0.0000000000000
0.0000000000000
-0.0018310546875
0.0000000000000
0.0000000000000
-0.0002441406250
0.0000000000000
-0.0001220703125
-0.0003662109375
-0.0003662109375
0.0000000000000
-0.0004882812500
-0.0001220703125
0.0000000000000
-0.0004882812500
-0.0002441406250
0.0000000000000
0.0000000000000
0.0000000000000
0.0000000000000
-0.0003662109375
0.0000000000000
-0.0001220703125
0.0000000000000
0.0000000000000
0.0000000000000
0.0000000000000
-0.0001220703125
-0.0001220703125
0.0000000000000
0.0000000000000
-0.0003662109375
0.0000000000000
0.0000000000000
0.0000000000000
0.0000000000000
-0.0002441406250
0.0000000000000
-0.0001220703125
-0.0001220703125
-0.0002441406250
-0.0001220703125
0.0000000000000
-0.0001220703125
0.0000000000000
0.0000000000000
0.0000000000000
0.0000000000000
0.0000000000000
0.0000000000000
0.0000000000000
0.0000000000000
0.0000000000000
0.0000000000000
-0.0004882812500
0.0000000000000
-0.0004882812500
-0.0010986328125
0.0000000000000
-0.0007324218750
-0.0002441406250
-0.0004882812500
0.0000000000000
0.0000000000000
-0.0004882812500
0.0000000000000
-0.0009765625000
0.0000000000000
0.0000000000000
-0.0004882812500
0.0000000000000
0.0000000000000
0.0000000000000
0.0000000000000
-0.0003662109375
0.0000000000000
-0.0001220703125
-0.0007324218750
0.0000000000000
-0.0006103515625
-0.0003662109375
-0.0003662109375
0.0000000000000
0.0000000000000
-0.0004882812500
0.0000000000000
0.0000000000000
0.0000000000000
-0.0001220703125
0.0000000000000
0.0000000000000
-0.0001220703125
-0.0023193359375
0.0004882812500
0.0000000000000
-0.0003662109375
0.0000000000000
0.0000000000000
0.0000000000000
-0.0001220703125
-0.0003662109375
-0.0002441406250
0.0000000000000
0.0000000000000
-0.0007324218750
-0.0001220703125
0.0000000000000
0.0000000000000
0.0000000000000
0.0000000000000
0.0000000000000
0.0000000000000
-0.0003662109375
0.0000000000000
0.0000000000000
0.0000000000000
-0.0001220703125
0.0000000000000
-0.0007324218750
0.0000000000000
-0.0008544921875
0.0002441406250
-0.0003662109375
-0.0012207031250
0.0008544921875
-0.0004882812500
0.0000000000000
0.0000000000000
-0.0004882812500
-0.0002441406250
-0.0021972656250
0.0000000000000
0.0000000000000
-0.0001220703125
0.0000000000000
-0.0001220703125
0.0000000000000
0.0000000000000
-0.0001220703125
0.0000000000000
0.0000000000000
-0.0010986328125
-0.0001220703125
-0.0002441406250
-0.0002441406250
-0.0001220703125
0.0000000000000
0.0000000000000
-0.0003662109375
0.0000000000000
0.0000000000000
-0.0001220703125
0.0000000000000
0.0000000000000
0.0000000000000
-0.0001220703125
-0.0001220703125
0.0002441406250
0.0000000000000
-0.0004882812500
0.0000000000000
0.0000000000000
-0.0001220703125
0.0000000000000
0.0000000000000
-0.0014648437500
0.0000000000000
-0.0002441406250
-0.0007324218750
-0.0002441406250
-0.0001220703125
-0.0001220703125
0.0000000000000
0.0000000000000
0.0000000000000
0.0000000000000
-0.0001220703125
0.0000000000000
0.0000000000000
0.0000000000000
-0.0003662109375
0.0000000000000
-0.0007324218750
0.0000000000000
-0.0001220703125
0.0007324218750
-0.0001220703125
0.0018310546875
-0.0006103515625
-0.0004882812500
0.0000000000000
-0.0002441406250
-0.0001220703125
-0.0007324218750
-0.0013427734375
0.0000000000000
0.0000000000000
-0.0002441406250
0.0000000000000
0.0000000000000
-0.0001220703125
0.0000000000000
-0.0001220703125
0.0000000000000
0.0000000000000
-0.0009765625000
-0.0003662109375
-0.0007324218750
-0.0004882812500
0.0000000000000
0.0000000000000
0.0000000000000
-0.0003662109375
0.0000000000000
0.0000000000000
0.0000000000000
0.0000000000000
0.0000000000000
0.0000000000000
0.0000000000000
-0.0015869140625
0.0012207031250
-0.0001220703125
-0.0004882812500
0.0000000000000
0.0000000000000
0.0000000000000
-0.0001220703125
-0.0001220703125
-0.0006103515625
0.0000000000000
-0.0004882812500
-0.0004882812500
0.0000000000000
-0.0007324218750
0.0000000000000
-0.0001220703125
0.0000000000000
0.0000000000000
0.0000000000000
-0.0002441406250
0.0000000000000
0.0000000000000
0.0000000000000
-0.0002441406250
0.0000000000000
-0.0006103515625
0.0000000000000
0.0006103515625
-0.0010986328125
0.0000000000000
-0.0003662109375
-0.0001220703125
-0.0006103515625
0.0000000000000
-0.0002441406250
0.0000000000000
-0.0007324218750
0.0035400390625
0.0000000000000
0.0000000000000
-0.0001220703125
0.0000000000000
0.0000000000000
0.0000000000000
-0.0002441406250
0.0000000000000
-0.0002441406250
0.0000000000000
-0.0006103515625
-0.0006103515625
-0.0002441406250
-0.0002441406250
0.0000000000000
0.0000000000000
-0.0001220703125
-0.0001220703125
0.0000000000000
-0.0002441406250
0.0000000000000
-0.0002441406250
0.0000000000000
0.0000000000000
-0.0002441406250
-0.0013427734375
-0.0001220703125
0.0000000000000
0.0000000000000
-0.0004882812500
0.0000000000000
0.0000000000000
-0.0002441406250
0.0000000000000
-0.0009765625000
0.0000000000000
-0.0002441406250
-0.0003662109375
-0.0003662109375
0.0000000000000
0.0000000000000
0.0000000000000
0.0000000000000
-0.0001220703125
0.0000000000000
-0.0003662109375
0.0000000000000
0.0000000000000
0.0000000000000
0.0000000000000
0.0000000000000
-0.0004882812500
-0.0002441406250
-0.0004882812500
0.0000000000000
0.0000000000000
0.0000000000000
-0.0006103515625
-0.0009765625000
0.0000000000000
0.0000000000000
-0.0004882812500
-0.0001220703125
-0.0036621093750
0.0000000000000
-0.0002441406250
-0.0006103515625
0.0000000000000
-0.0001220703125
-0.0002441406250
-0.0003662109375
0.0000000000000
0.0000000000000
-0.0007324218750
-0.0003662109375
-0.0001220703125
-0.0010986328125
0.0000000000000
0.0000000000000
0.0000000000000
-0.0008544921875
-0.0004882812500
-0.0002441406250
-0.0001220703125
-0.0006103515625
0.0000000000000
0.0000000000000
-0.0003662109375
0.0000000000000
-0.0002441406250
-0.0013427734375
0.0000000000000
0.0000000000000
0.0000000000000
-0.0006103515625
-0.0004882812500
0.0000000000000
0.0000000000000
-0.0006103515625
0.0000000000000
-0.0012207031250
-0.0006103515625
0.0000000000000
-0.0004882812500
-0.0001220703125
-0.0001220703125
0.0000000000000
0.0000000000000
-0.0008544921875
-0.0002441406250
-0.0004882812500
0.0000000000000
-0.0001220703125
0.0000000000000
0.0000000000000
-0.0004882812500
-0.0003662109375
0.0004882812500
0.0000000000000
0.0000000000000
0.0000000000000
0.0000000000000
-0.0012207031250
-0.0003662109375
-0.0001220703125
-0.0001220703125
0.0000000000000
-0.0053710937500
0.0000000000000
0.0000000000000
-0.0009765625000
0.0000000000000
-0.0004882812500
-0.0009765625000
-0.0002441406250
0.0000000000000
-0.0007324218750
0.0000000000000
0.0000000000000
-0.0004882812500
-0.0010986328125
0.0000000000000
-0.0001220703125
0.0000000000000
-0.0009765625000
-0.0009765625000
-0.0006103515625
0.0000000000000
-0.0003662109375
-0.0002441406250
-0.0009765625000
0.0000000000000
-0.0002441406250
-0.0010986328125
0.0000000000000
0.0000000000000
0.0000000000000
0.0000000000000
-0.0009765625000
-0.0017089843750
0.0000000000000
-0.0003662109375
-0.0010986328125
0.0000000000000
-0.0001220703125
-0.0002441406250
0.0000000000000
0.0000000000000
0.0000000000000
0.0000000000000
0.0000000000000
-0.0002441406250
-0.0001220703125
0.0000000000000
-0.0001220703125
0.0000000000000
-0.0002441406250
0.0000000000000
-0.0004882812500
-0.0007324218750
-0.0004882812500
-0.0006103515625
-0.0001220703125
0.0000000000000
-0.0002441406250
-0.0006103515625
-0.0004882812500
0.0000000000000
-0.0004882812500
-0.0013427734375
0.0000000000000
-0.0004882812500
0.0000000000000
-0.0002441406250
-0.0007324218750
0.0000000000000
-0.0003662109375
-0.0010986328125
0.0000000000000
-0.0006103515625
0.0000000000000
-0.0004882812500
0.0000000000000
0.0000000000000
-0.0003662109375
-0.0006103515625
0.0000000000000
0.0000000000000
-0.0012207031250
-0.0007324218750
-0.0007324218750
-0.0008544921875
-0.0002441406250
-0.0002441406250
-0.0004882812500
0.0000000000000
-0.0003662109375
-0.0017089843750
0.0001220703125
0.0000000000000
0.0000000000000
-0.0001220703125
-0.0006103515625
-0.0007324218750
0.0000000000000
0.0000000000000
-0.0003662109375
0.0000000000000
-0.0009765625000
0.0002441406250
0.0000000000000
-0.0001220703125
0.0000000000000
0.0000000000000
-0.0001220703125
0.0000000000000
-0.0007324218750
0.0000000000000
-0.0001220703125
-0.0001220703125
-0.0002441406250
0.0000000000000
-0.0002441406250
-0.0007324218750
-0.0008544921875
-0.0037841796875
0.0000000000000
0.0000000000000
0.0000000000000
0.0001220703125
-0.0012207031250
-0.0003662109375
-0.0001220703125
-0.0014648437500
0.0000000000000
-0.0034179687500
0.0000000000000
0.0000000000000
-0.0006103515625
0.0000000000000
-0.0009765625000
-0.0012207031250
-0.0001220703125
-0.0002441406250
0.0000000000000
-0.0004882812500
0.0000000000000
-0.0003662109375
-0.0010986328125
-0.0001220703125
0.0000000000000
0.0000000000000
-0.0003662109375
-0.0006103515625
0.0000000000000
-0.0006103515625
-0.0006103515625
-0.0007324218750
-0.0009765625000
0.0000000000000
-0.0002441406250
-0.0021972656250
-0.0002441406250
0.0000000000000
0.0000000000000
-0.0009765625000
-0.0006103515625
-0.0008544921875
0.0000000000000
0.0000000000000
-0.0014648437500
0.0000000000000
-0.0013427734375
-0.0008544921875
-0.0002441406250
-0.0001220703125
-0.0001220703125
0.0000000000000
0.0000000000000
-0.0002441406250
0.0000000000000
0.0000000000000
-0.0001220703125
0.0000000000000
0.0000000000000
-0.0001220703125
-0.0001220703125
-0.0003662109375
-0.0003662109375
-0.0004882812500
0.0000000000000
0.0000000000000
-0.0004882812500
-0.0007324218750
-0.0015869140625
0.0000000000000
0.0000000000000
-0.0012207031250
0.0000000000000
-0.0021972656250
-0.0002441406250
-0.0006103515625
-0.0007324218750
-0.0002441406250
-0.0009765625000
-0.0014648437500
0.0000000000000
-0.0004882812500
0.0000000000000
-0.0007324218750
0.0000000000000
-0.0004882812500
-0.0009765625000
0.0000000000000
0.0000000000000
0.0000000000000
-0.0009765625000
-0.0004882812500
-0.0007324218750
0.0000000000000
-0.0007324218750
0.0000000000000
0.0000000000000
-0.0001220703125
0.0000000000000
0.0000000000000
0.0000000000000
0.0000000000000
0.0000000000000
0.0000000000000
-0.0007324218750
-0.0021972656250
0.0000000000000
-0.0001220703125
-0.0013427734375
-0.0003662109375
-0.0007324218750
-0.0006103515625
0.0000000000000
-0.0009765625000
-0.0003662109375
-0.0004882812500
-0.0002441406250
0.0000000000000
-0.0007324218750
-0.0006103515625
-0.0004882812500
-0.0008544921875
-0.0007324218750
-0.0003662109375
-0.0006103515625
-0.0003662109375
-0.0002441406250
-0.0002441406250
-0.0002441406250
0.0000000000000
-0.0001220703125
-0.0001220703125
-0.0006103515625
-0.0007324218750
-0.0004882812500
-0.0008544921875
0.0000000000000
0.0035400390625
0.0000000000000
0.0000000000000
-0.0006103515625
-0.0002441406250
-0.0006103515625
-0.0013427734375
-0.0001220703125
0.0000000000000
-0.0003662109375
-0.0001220703125
0.0000000000000
-0.0002441406250
-0.0006103515625
-0.0007324218750
0.0000000000000
0.0000000000000
-0.0009765625000
-0.0006103515625
0.0000000000000
-0.0002441406250
0.0000000000000
-0.0003662109375
-0.0009765625000
0.0000000000000
-0.0001220703125
-0.0021972656250
0.0002441406250
0.0000000000000
0.0000000000000
-0.0007324218750
-0.0006103515625
-0.0007324218750
0.0000000000000
0.0000000000000
0.0000000000000
0.0000000000000
-0.0003662109375
-0.0007324218750
-0.0001220703125
0.0000000000000
0.0000000000000
0.0000000000000
0.0000000000000
-0.0003662109375
0.0000000000000
0.0000000000000
0.0000000000000
0.0000000000000
0.0000000000000
0.0000000000000
0.0000000000000
-0.0006103515625
-0.0004882812500
-0.0015869140625
0.0000000000000
0.0000000000000
0.0000000000000
-0.0001220703125
-0.0009765625000
0.0000000000000
0.0000000000000
-0.0010986328125
0.0000000000000
0.0021972656250
0.0000000000000
-0.0008544921875
-0.0004882812500
0.0000000000000
-0.0001220703125
-0.0007324218750
0.0000000000000
0.0000000000000
0.0000000000000
-0.0009765625000
0.0000000000000
0.0000000000000
-0.0008544921875
0.0000000000000
-0.0001220703125
0.0000000000000
-0.0007324218750
-0.0003662109375
0.0000000000000
-0.0001220703125
-0.0009765625000
-0.0001220703125
0.0000000000000
0.0000000000000
-0.0001220703125
-0.0004882812500
-0.0001220703125
0.0000000000000
0.0000000000000
-0.0006103515625
-0.0002441406250
-0.0004882812500
0.0000000000000
-0.0004882812500
-0.0012207031250
0.0000000000000
-0.0010986328125
-0.0009765625000
-0.0002441406250
-0.0006103515625
-0.0002441406250
-0.0004882812500
0.0000000000000
0.0000000000000
0.0000000000000
-0.0006103515625
0.0000000000000
-0.0001220703125
0.0000000000000
-0.0004882812500
-0.0004882812500
-0.0002441406250
-0.0001220703125
-0.0019531250000
-0.0003662109375
0.0000000000000
0.0000000000000
-0.0002441406250
-0.0014648437500
0.0000000000000
0.0000000000000
-0.0001220703125
-0.0002441406250
-0.0048828125000
0.0000000000000
-0.0004882812500
-0.0003662109375
0.0000000000000
-0.0006103515625
-0.0009765625000
-0.0002441406250
0.0000000000000
-0.0013427734375
-0.0002441406250
-0.0006103515625
-0.0006103515625
-0.0010986328125
0.0000000000000
-0.0002441406250
0.0000000000000
-0.0012207031250
-0.0007324218750
-0.0008544921875
0.0000000000000
-0.0004882812500
0.0000000000000
-0.0003662109375
0.0000000000000
-0.0003662109375
0.0000000000000
-0.0006103515625
0.0000000000000
0.0000000000000
0.0000000000000
-0.0007324218750
-0.0006103515625
0.0000000000000
-0.0004882812500
-0.0004882812500
-0.0002441406250
-0.0002441406250
-0.0014648437500
0.0000000000000
0.0000000000000
-0.0001220703125
0.0000000000000
-0.0003662109375
-0.0001220703125
-0.0002441406250
0.0000000000000
-0.0002441406250
-0.0002441406250
0.0000000000000
0.0000000000000
-0.0008544921875
-0.0007324218750
-0.0008544921875
-0.0006103515625
-0.0004882812500
0.0000000000000
-0.0036621093750
0.0000000000000
-0.0007324218750
0.0000000000000
-0.0003662109375
-0.0007324218750
0.0000000000000
0.0009765625000
0.0000000000000
0.0000000000000
-0.0007324218750
0.0000000000000
-0.0001220703125
-0.0008544921875
0.0000000000000
-0.0003662109375
-0.0003662109375
0.0000000000000
-0.0004882812500
-0.0002441406250
-0.0009765625000
-0.0010986328125
0.0000000000000
0.0000000000000
-0.0008544921875
-0.0001220703125
-0.0006103515625
-0.0007324218750
0.0000000000000
-0.0006103515625
-0.0003662109375
-0.0001220703125
-0.0003662109375
0.0009765625000
-0.0009765625000
0.0000000000000
0.0000000000000
-0.0001220703125
0.0000000000000
-0.0014648437500
0.0000000000000
-0.0001220703125
0.0006103515625
-0.0003662109375
-0.0010986328125
-0.0003662109375
-0.0009765625000
0.0000000000000
0.0000000000000
0.0000000000000
-0.0003662109375
0.0000000000000
-0.0001220703125
0.0000000000000
-0.0001220703125
-0.0002441406250
0.0000000000000
0.0000000000000
-0.0006103515625
-0.0008544921875
-0.0004882812500
-0.0014648437500
-0.0001220703125
0.0000000000000
0.0000000000000
0.0000000000000
-0.0008544921875
0.0000000000000
-0.0001220703125
-0.0002441406250
0.0000000000000
-0.0048828125000
0.0000000000000
0.0000000000000
-0.0008544921875
-0.0001220703125
-0.0008544921875
-0.0012207031250
-0.0004882812500
-0.0002441406250
0.0000000000000
-0.0004882812500
-0.0001220703125
-0.0004882812500
-0.0015869140625
-0.0001220703125
0.0000000000000
0.0000000000000
-0.0002441406250
-0.0001220703125
-0.0004882812500
-0.0017089843750
-0.0003662109375
-0.0008544921875
-0.0008544921875
0.0000000000000
-0.0002441406250
0.0029296875000
0.0000000000000
0.0000000000000
0.0000000000000
-0.0004882812500
-0.0003662109375
-0.0010986328125
0.0000000000000
-0.0004882812500
0.0000000000000
-0.0001220703125
-0.0013427734375
-0.0012207031250
-0.0004882812500
-0.0004882812500
-0.0006103515625
-0.0003662109375
0.0000000000000
-0.0002441406250
0.0000000000000
0.0000000000000
-0.0001220703125
-0.0004882812500
-0.0001220703125
0.0000000000000
-0.0001220703125
-0.0006103515625
-0.0004882812500
0.0003662109375
0.0000000000000
0.0000000000000
-0.0014648437500
-0.0008544921875
-0.0017089843750
0.0000000000000
0.0000000000000
-0.0001220703125
0.0000000000000
0.0034179687500
-0.0003662109375
-0.0001220703125
-0.0004882812500
-0.0003662109375
-0.0007324218750
-0.0007324218750
-0.0006103515625
-0.0004882812500
0.0000000000000
-0.0007324218750
0.0000000000000
-0.0007324218750
-0.0014648437500
0.0000000000000
0.0000000000000
0.0000000000000
-0.0010986328125
0.0000000000000
-0.0003662109375
-0.0001220703125
-0.0007324218750
0.0000000000000
0.0000000000000
0.0000000000000
0.0000000000000
-0.0051269531250
-0.0009765625000
0.0000000000000
0.0000000000000
0.0000000000000
0.0000000000000
-0.0012207031250
0.0000000000000
-0.0004882812500
-0.0017089843750
-0.0007324218750
-0.0003662109375
-0.0014648437500
0.0000000000000
-0.0010986328125
-0.0007324218750
-0.0004882812500
-0.0003662109375
0.0000000000000
-0.0001220703125
-0.0004882812500
-0.0002441406250
0.0000000000000
-0.0004882812500
-0.0001220703125
-0.0013427734375
-0.0006103515625
-0.0004882812500
-0.0004882812500
-0.0017089843750
0.0000000000000
0.0000000000000
-0.0001220703125
-0.0008544921875
-0.0002441406250
-0.0003662109375
0.0000000000000
-0.0001220703125
-0.0006103515625
0.0000000000000
0.0000000000000
-0.0001220703125
-0.0001220703125
-0.0004882812500
-0.0012207031250
-0.0001220703125
0.0000000000000
-0.0008544921875
0.0000000000000
-0.0004882812500
-0.0006103515625
-0.0007324218750
-0.0009765625000
0.0000000000000
0.0000000000000
-0.0010986328125
-0.0002441406250
-0.0008544921875
-0.0002441406250
0.0000000000000
-0.0003662109375
-0.0007324218750
0.0000000000000
-0.0003662109375
-0.0031738281250
-0.0010986328125
0.0000000000000
0.0000000000000
-0.0002441406250
-0.0003662109375
-0.0002441406250
0.0000000000000
-0.0002441406250
-0.0009765625000
-0.0002441406250
-0.0008544921875
-0.0010986328125
-0.0006103515625
0.0000000000000
0.0000000000000
0.0000000000000
0.0000000000000
0.0000000000000
0.0000000000000
0.0000000000000
0.0000000000000
0.0000000000000
0.0000000000000
0.0000000000000
0.0000000000000
-0.0007324218750
-0.0008544921875
-0.0010986328125
0.0000000000000
0.0000000000000
-0.0004882812500
-0.0008544921875
-0.0008544921875
0.0000000000000
0.0000000000000
-0.0002441406250
0.0000000000000
-0.0018310546875
0.0000000000000
0.0000000000000
-0.0006103515625
0.0000000000000
0.0000000000000
-0.0007324218750
-0.0002441406250
-0.0001220703125
0.0000000000000
-0.0006103515625
0.0000000000000
-0.0002441406250
-0.0014648437500
0.0000000000000
0.0000000000000
0.0000000000000
0.0000000000000
-0.0002441406250
0.0000000000000
-0.0002441406250
0.0000000000000
-0.0001220703125
-0.0001220703125
0.0000000000000
-0.0002441406250
-0.0001220703125
0.0000000000000
0.0000000000000
0.0000000000000
-0.0007324218750
0.0000000000000
-0.0007324218750
0.0000000000000
-0.0006103515625
-0.0009765625000
-0.0001220703125
-0.0010986328125
-0.0008544921875
-0.0007324218750
-0.0007324218750
0.0000000000000
-0.0008544921875
-0.0003662109375
0.0000000000000
0.0000000000000
-0.0003662109375
0.0000000000000
-0.0006103515625
0.0000000000000
-0.0004882812500
-0.0002441406250
-0.0007324218750
0.0000000000000
-0.0026855468750
-0.0001220703125
0.0000000000000
-0.0025634765625
-0.0001220703125
-0.0012207031250
0.0000000000000
0.0000000000000
-0.0003662109375
-0.0001220703125
0.0018310546875
0.0000000000000
-0.0002441406250
-0.0002441406250
0.0000000000000
-0.0009765625000
-0.0007324218750
0.0000000000000
-0.0001220703125
0.0000000000000
-0.0006103515625
-0.0002441406250
-0.0003662109375
-0.0003662109375
-0.0001220703125
0.0000000000000
0.0000000000000
0.0000000000000
-0.0007324218750
0.0000000000000
-0.0001220703125
-0.0001220703125
-0.0003662109375
0.0000000000000
0.0000000000000
-0.0001220703125
-0.0026855468750
-0.0004882812500
0.0000000000000
0.0000000000000
-0.0002441406250
0.0000000000000
-0.0006103515625
0.0000000000000
-0.0002441406250
-0.0006103515625
-0.0002441406250
-0.0004882812500
-0.0020751953125
0.0000000000000
-0.0003662109375
-0.0003662109375
-0.0002441406250
-0.0001220703125
0.0000000000000
0.0000000000000
-0.0001220703125
0.0000000000000
0.0000000000000
-0.0001220703125
-0.0003662109375
-0.0001220703125
-0.0006103515625
0.0000000000000
-0.0001220703125
0.0000000000000
-0.0003662109375
-0.0029296875000
-0.0006103515625
-0.0007324218750
0.0000000000000
-0.0001220703125
-0.0004882812500
0.0000000000000
-0.0007324218750
0.0000000000000
-0.0002441406250
-0.0002441406250
0.0000000000000
-0.0004882812500
-0.0008544921875
0.0000000000000
-0.0004882812500
-0.0001220703125
0.0000000000000
-0.0008544921875
-0.0001220703125
-0.0004882812500
-0.0006103515625
0.0000000000000
0.0000000000000
-0.0004882812500
-0.0003662109375
0.0000000000000
-0.0001220703125
0.0000000000000
-0.0004882812500
-0.0002441406250
0.0000000000000
-0.0002441406250
-0.0020751953125
0.0000000000000
0.0000000000000
0.0000000000000
-0.0009765625000
0.0000000000000
-0.0008544921875
0.0000000000000
0.0000000000000
-0.0010986328125
0.0000000000000
-0.0006103515625
-0.0004882812500
-0.0008544921875
0.0000000000000
0.0000000000000
-0.0003662109375
0.0000000000000
0.0000000000000
0.0000000000000
0.0000000000000
0.0000000000000
-0.0001220703125
0.0000000000000
-0.0001220703125
0.0000000000000
-0.0009765625000
-0.0001220703125
-0.0024414062500
-0.0003662109375
0.0000000000000
-0.0002441406250
0.0001220703125
-0.0006103515625
0.0000000000000
-0.0001220703125
-0.0002441406250
0.0000000000000
0.0024414062500
0.0000000000000
0.0000000000000
-0.0006103515625
0.0000000000000
-0.0002441406250
-0.0007324218750
-0.0002441406250
-0.0002441406250
0.0000000000000
-0.0006103515625
-0.0001220703125
-0.0003662109375
-0.0017089843750
-0.0002441406250
0.0000000000000
0.0000000000000
0.0000000000000
-0.0001220703125
0.0000000000000
-0.0003662109375
-0.0001220703125
-0.0006103515625
-0.0001220703125
0.0000000000000
0.0000000000000
-0.0036621093750
-0.0012207031250
0.0000000000000
0.0000000000000
-0.0007324218750
-0.0002441406250
-0.0007324218750
0.0000000000000
-0.0007324218750
-0.0009765625000
-0.0002441406250
-0.0013427734375
-0.0001220703125
-0.0006103515625
-0.0006103515625
-0.0004882812500
-0.0002441406250
0.0000000000000
0.0000000000000
-0.0001220703125
-0.0001220703125
0.0000000000000
0.0000000000000
-0.0001220703125
-0.0004882812500
0.0000000000000
-0.0003662109375
0.0000000000000
0.0000000000000
0.0002441406250
0.0000000000000
-0.0018310546875
-0.0001220703125
-0.0012207031250
0.0000000000000
0.0000000000000
0.0000000000000
-0.0001220703125
-0.0023193359375
0.0000000000000
0.0000000000000
-0.0001220703125
0.0000000000000
-0.0001220703125
-0.0009765625000
-0.0002441406250
-0.0002441406250
-0.0007324218750
-0.0004882812500
-0.0003662109375
-0.0004882812500
-0.0009765625000
0.0000000000000
0.0000000000000
0.0000000000000
0.0000000000000
-0.0001220703125
0.0000000000000
0.0000000000000
-0.0001220703125
0.0000000000000
0.0000000000000
0.0000000000000
-0.0001220703125
-0.0018310546875
-0.0014648437500
0.0000000000000
-0.0001220703125
0.0000000000000
0.0000000000000
-0.0009765625000
0.0000000000000
-0.0003662109375
-0.0012207031250
-0.0002441406250
-0.0006103515625
-0.0008544921875
-0.0003662109375
-0.0007324218750
-0.0003662109375
-0.0004882812500
-0.0001220703125
0.0000000000000
0.0000000000000
-0.0002441406250
0.0000000000000
-0.0001220703125
0.0000000000000
-0.0003662109375
0.0000000000000
-0.0007324218750
0.0000000000000
-0.0003662109375
-0.0002441406250
0.0000000000000
-0.0010986328125
-0.0003662109375
-0.0008544921875
0.0000000000000
0.0000000000000
0.0000000000000
-0.0003662109375
0.0025634765625
0.0000000000000
0.0000000000000
0.0000000000000
0.0000000000000
-0.0002441406250
-0.0006103515625
0.0000000000000
0.0000000000000
-0.0002441406250
0.0000000000000
-0.0006103515625
-0.0002441406250
-0.0008544921875
-0.0006103515625
-0.0001220703125
0.0000000000000
-0.0001220703125
-0.0001220703125
0.0000000000000
-0.0001220703125
-0.0001220703125
-0.0004882812500
0.0000000000000
0.0000000000000
-0.0001220703125
-0.0014648437500
-0.0006103515625
0.0000000000000
0.0000000000000
-0.0006103515625
0.0000000000000
-0.0001220703125
0.0000000000000
0.0000000000000
-0.0006103515625
0.0000000000000
-0.0008544921875
-0.0007324218750
-0.0006103515625
0.0000000000000
0.0000000000000
-0.0003662109375
0.0000000000000
0.0000000000000
0.0000000000000
0.0000000000000
0.0000000000000
0.0000000000000
0.0000000000000
-0.0002441406250
0.0000000000000
-0.0007324218750
0.0000000000000
0.0002441406250
0.0000000000000
-0.0001220703125
-0.0008544921875
-0.0001220703125
-0.0009765625000
0.0000000000000
-0.0001220703125
-0.0001220703125
-0.0004882812500
-0.0032958984375
0.0000000000000
0.0000000000000
-0.0003662109375
0.0000000000000
-0.0001220703125
-0.0006103515625
-0.0002441406250
-0.0006103515625
0.0000000000000
-0.0003662109375
-0.0004882812500
-0.0001220703125
-0.0009765625000
0.0000000000000
-0.0063476562500
0.0000000000000
-0.0034179687500
-0.0028076171875
0.0059814453125
-0.0007324218750
-0.0008544921875
-0.0057373046875
-0.0104980468750
-0.0010986328125
0.0056152343750
0.0028076171875
-0.0010986328125
0.0000000000000
-0.0009765625000
0.0086669921875
0.0061035156250
-0.0010986328125
0.0000000000000
-0.0023193359375
-0.0015869140625
-0.0042724609375
-0.0045166015625
-0.0010986328125
-0.0001220703125
-0.0020751953125
-0.0008544921875
-0.0017089843750
-0.0003662109375
-0.0111083984375
-0.0013427734375
0.0000000000000
-0.0015869140625
-0.0073242187500
-0.0009765625000
-0.0003662109375
0.0002441406250
0.0007324218750
0.0032958984375
0.0040283203125
-0.0012207031250
-0.0018310546875
0.0045166015625
0.0081787109375
-0.0013427734375
-0.0008544921875
-0.0006103515625
0.0003662109375
0.0000000000000
-0.0097656250000
0.0017089843750
-0.0045166015625
-0.0006103515625
-0.0010986328125
0.0032958984375
-0.0048828125000
-0.0001220703125
-0.0006103515625
-0.0001220703125
-0.0053710937500
0.0000000000000
-0.0013427734375
-0.0013427734375
-0.0039062500000
0.0020751953125
0.0000000000000
0.0042724609375
-0.0003662109375
0.0000000000000
-0.0063476562500
-0.0008544921875
-0.0008544921875
-0.0104980468750
-0.0032958984375
-0.0043945312500
0.0151367187500
0.0003662109375
0.0000000000000
0.0018310546875
0.0041503906250
-0.0006103515625
-0.0034179687500
0.0002441406250
-0.0025634765625
-0.0059814453125
-0.0070800781250
-0.0063476562500
-0.0078125000000
-0.0013427734375
-0.0052490234375
-0.0013427734375
-0.0083007812500
0.0014648437500
-0.0020751953125
0.0023193359375
-0.0006103515625
-0.0013427734375
-0.0002441406250
-0.0008544921875
-0.0012207031250
0.0031738281250
-0.0009765625000
-0.0053710937500
-0.0153808593750
-0.0100097656250
-0.0006103515625
0.0059814453125
-0.0046386718750
-0.0017089843750
-0.0070800781250
0.0000000000000
-0.0018310546875
-0.0012207031250
0.0000000000000
-0.0010986328125
0.0001220703125
-0.0008544921875
0.0000000000000
-0.0053710937500
0.0108642578125
-0.0007324218750
-0.0007324218750
-0.0046386718750
-0.0002441406250
-0.0021972656250
0.0064697265625
-0.0037841796875
-0.0045166015625
-0.0004882812500
0.0000000000000
0.0000000000000
-0.0001220703125
-0.0001220703125
0.0030517578125
-0.0001220703125
0.0001220703125
-0.0007324218750
-0.0003662109375
-0.0010986328125
0.0131835937500
0.0014648437500
0.0000000000000
-0.0017089843750
-0.0009765625000
-0.0002441406250
0.0013427734375
0.0047607421875
0.0041503906250
-0.0010986328125
-0.0006103515625
0.0020751953125
0.0018310546875
-0.0002441406250
-0.0052490234375
0.0000000000000
-0.0020751953125
-0.0003662109375
-0.0002441406250
0.0000000000000
-0.0003662109375
0.0000000000000
-0.0004882812500
0.0000000000000
-0.0032958984375
0.0001220703125
-0.0017089843750
0.0000000000000
0.0034179687500
-0.0006103515625
-0.0014648437500
0.0026855468750
-0.0018310546875
-0.0017089843750
0.0000000000000
0.0000000000000
-0.0001220703125
-0.0001220703125
-0.0185546875000
-0.0001220703125
0.0000000000000
-0.0003662109375
0.0000000000000
-0.0004882812500
-0.0012207031250
-0.0007324218750
-0.0003662109375
-0.0001220703125
-0.0006103515625
0.0034179687500
-0.0073242187500
0.0015869140625
-0.0003662109375
-0.0006103515625
0.0000000000000
0.0000000000000
-0.0001220703125
0.0000000000000
0.0009765625000
-0.0004882812500
-0.0040283203125
-0.0004882812500
-0.0006103515625
0.0000000000000
-0.0140380859375
-0.0057373046875
0.0000000000000
-0.0006103515625
-0.0047607421875
0.0000000000000
-0.0030517578125
0.0020751953125
-0.0047607421875
-0.0025634765625
-0.0001220703125
-0.0042724609375
-0.0047607421875
-0.0012207031250
-0.0014648437500
0.0000000000000
-0.0009765625000
-0.0002441406250
-0.0002441406250
0.0000000000000
-0.0003662109375
0.0000000000000
-0.0008544921875
0.0000000000000
-0.0013427734375
-0.0010986328125
-0.0041503906250
0.0000000000000
0.0064697265625
-0.0052490234375
-0.0018310546875
-0.0109863281250
-0.0058593750000
-0.0015869140625
0.0000000000000
0.0000000000000
-0.0002441406250
0.0020751953125
-0.0052490234375
-0.0008544921875
-0.0002441406250
-0.0002441406250
-0.0001220703125
-0.0012207031250
-0.0020751953125
-0.0009765625000
-0.0006103515625
-0.0017089843750
-0.0021972656250
0.0032958984375
-0.0012207031250
-0.0036621093750
0.0004882812500
0.0000000000000
0.0000000000000
0.0007324218750
-0.0003662109375
0.0000000000000
0.0001220703125
-0.0006103515625
-0.0017089843750
-0.0015869140625
-0.0006103515625
-0.0053710937500
0.0104980468750
-0.0009765625000
0.0000000000000
-0.0006103515625
-0.0052490234375
0.0012207031250
-0.0075683593750
-0.0021972656250
-0.0030517578125
-0.0076904296875
-0.0004882812500
-0.0019531250000
-0.0028076171875
-0.0017089843750
-0.0029296875000
0.0000000000000
-0.0002441406250
-0.0010986328125
0.0019531250000
0.0000000000000
-0.0001220703125
0.0000000000000
-0.0018310546875
0.0000000000000
0.0015869140625
-0.0021972656250
-0.0018310546875
0.0003662109375
-0.0029296875000
-0.0039062500000
-0.0004882812500
-0.0118408203125
-0.0123291015625
-0.0025634765625
0.0000000000000
0.0000000000000
-0.0013427734375
-0.0006103515625
-0.0042724609375
0.0048828125000
-0.0041503906250
-0.0007324218750
-0.0006103515625
0.0002441406250
-0.0079345703125
-0.0009765625000
-0.0008544921875
0.0000000000000
-0.0009765625000
-0.0010986328125
-0.0050048828125
-0.0023193359375
-0.0004882812500
-0.0007324218750
0.0000000000000
-0.0025634765625
0.0000000000000
-0.0024414062500
-0.0014648437500
0.0002441406250
-0.0023193359375
0.0001220703125
0.0004882812500
-0.0009765625000
-0.0133056640625
0.0028076171875
-0.0009765625000
0.0000000000000
-0.0013427734375
-0.0064697265625
-0.0006103515625
0.0000000000000
0.0000000000000
-0.0050048828125
-0.0002441406250
-0.0019531250000
-0.0010986328125
-0.0012207031250
-0.0002441406250
-0.0003662109375
-0.0014648437500
-0.0007324218750
-0.0009765625000
0.0003662109375
-0.0004882812500
0.0032958984375
0.0003662109375
-0.0015869140625
0.0039062500000
0.0010986328125
-0.0007324218750
-0.0030517578125
-0.0006103515625
-0.0003662109375
-0.0007324218750
-0.0010986328125
0.0051269531250
-0.0057373046875
-0.0063476562500
-0.0012207031250
-0.0010986328125
-0.0009765625000
0.0025634765625
-0.0010986328125
-0.0010986328125
-0.0012207031250
-0.0019531250000
-0.0065917968750
-0.0015869140625
-0.0006103515625
-0.0009765625000
-0.0102539062500
0.0002441406250
-0.0008544921875
-0.0004882812500
0.0020751953125
-0.0007324218750
0.0051269531250
0.0000000000000
-0.0007324218750
0.0000000000000
0.0031738281250
-0.0039062500000
-0.0009765625000
0.0057373046875
-0.0042724609375
-0.0009765625000
0.0069580078125
-0.0024414062500
-0.0024414062500
-0.0001220703125
-0.0025634765625
0.0042724609375
-0.0039062500000
-0.0006103515625
0.0000000000000
-0.0031738281250
-0.0015869140625
-0.0008544921875
-0.0021972656250
-0.0001220703125
-0.0009765625000
-0.0019531250000
-0.0013427734375
-0.0100097656250
-0.0010986328125
0.0010986328125
-0.0004882812500
-0.0010986328125
-0.0002441406250
-0.0087890625000
-0.0002441406250
-0.0004882812500
-0.0029296875000
-0.0004882812500
-0.0001220703125
0.0098876953125
-0.0007324218750
0.0017089843750
-0.0103759765625
-0.0018310546875
-0.0021972656250
-0.0015869140625
0.0000000000000
-0.0017089843750
-0.0012207031250
0.0097656250000
0.0000000000000
-0.0004882812500
-0.0004882812500
0.0004882812500
-0.0039062500000
0.0000000000000
-0.0007324218750
-0.0009765625000
-0.0007324218750
-0.0020751953125
-0.0004882812500
-0.0056152343750
0.0041503906250
0.0000000000000
-0.0006103515625
0.0000000000000
-0.0015869140625
-0.0012207031250
-0.0010986328125
0.0003662109375
-0.0013427734375
-0.0010986328125
-0.0012207031250
-0.0001220703125
-0.0014648437500
0.0039062500000
-0.0061035156250
0.0000000000000
0.0002441406250
-0.0010986328125
-0.0017089843750
-0.0010986328125
-0.0015869140625
-0.0024414062500
-0.0019531250000
0.0018310546875
-0.0004882812500
-0.0030517578125
-0.0009765625000
-0.0015869140625
-0.0019531250000
0.0024414062500
-0.0002441406250
-0.0019531250000
0.0000000000000
-0.0002441406250
-0.0002441406250
-0.0006103515625
-0.0006103515625
-0.0010986328125
-0.0002441406250
-0.0034179687500
-0.0012207031250
-0.0009765625000
0.0036621093750
-0.0006103515625
-0.0047607421875
-0.0047607421875
-0.0015869140625
-0.0031738281250
-0.0003662109375
-0.0015869140625
-0.0013427734375
-0.0181884765625
-0.0008544921875
-0.0009765625000
-0.0006103515625
-0.0006103515625
-0.0010986328125
-0.0015869140625
-0.0002441406250
-0.0009765625000
-0.0087890625000
-0.0010986328125
0.0013427734375
0.0053710937500
-0.0012207031250
-0.0004882812500
-0.0002441406250
0.0000000000000
-0.0010986328125
-0.0008544921875
-0.0007324218750
-0.0010986328125
-0.0007324218750
-0.0014648437500
-0.0013427734375
0.0000000000000
-0.0012207031250
-0.0035400390625
0.0006103515625
0.0000000000000
0.0000000000000
-0.0007324218750
-0.0012207031250
-0.0020751953125
-0.0003662109375
-0.0007324218750
-0.0010986328125
-0.0003662109375
-0.0020751953125
-0.0015869140625
-0.0006103515625
-0.0007324218750
-0.0004882812500
-0.0006103515625
-0.0006103515625
-0.0006103515625
0.0000000000000
-0.0003662109375
-0.0001220703125
-0.0006103515625
-0.0002441406250
-0.0002441406250
-0.0012207031250
-0.0004882812500
-0.0010986328125
0.0018310546875
-0.0023193359375
-0.0002441406250
-0.0039062500000
-0.0057373046875
-0.0014648437500
-0.0004882812500
-0.0002441406250
-0.0010986328125
0.0000000000000
0.0000000000000
-0.0001220703125
-0.0004882812500
-0.0009765625000
-0.0002441406250
-0.0010986328125
-0.0013427734375
-0.0015869140625
-0.0006103515625
-0.0007324218750
-0.0006103515625
-0.0009765625000
-0.0006103515625
-0.0014648437500
-0.0009765625000
-0.0001220703125
0.0000000000000
-0.0008544921875
-0.0004882812500
-0.0001220703125
-0.0036621093750
-0.0008544921875
-0.0010986328125
-0.0040283203125
-0.0006103515625
-0.0007324218750
-0.0078125000000
-0.0050048828125
0.0000000000000
-0.0004882812500
-0.0010986328125
-0.0006103515625
0.0001220703125
-0.0001220703125
-0.0009765625000
-0.0009765625000
-0.0008544921875
-0.0014648437500
-0.0024414062500
-0.0010986328125
-0.0010986328125
-0.0006103515625
-0.0009765625000
-0.0008544921875
-0.0007324218750
-0.0002441406250
0.0000000000000
0.0000000000000
-0.0010986328125
-0.0008544921875
-0.0009765625000
-0.0021972656250
0.0009765625000
-0.0007324218750
0.0089111328125
-0.0053710937500
0.0000000000000
-0.0042724609375
-0.0051269531250
-0.0006103515625
-0.0006103515625
-0.0003662109375
-0.0006103515625
0.0000000000000
0.0115966796875
0.0000000000000
0.0008544921875
-0.0010986328125
-0.0003662109375
-0.0012207031250
-0.0015869140625
-0.0009765625000
-0.0006103515625
-0.0014648437500
-0.0043945312500
-0.0009765625000
-0.0009765625000
-0.0048828125000
-0.0007324218750
0.0000000000000
0.0000000000000
-0.0008544921875
-0.0007324218750
-0.0001220703125
-0.0061035156250
-0.0004882812500
-0.0031738281250
-0.0009765625000
0.0003662109375
-0.0042724609375
0.0057373046875
-0.0021972656250
0.0000000000000
-0.0009765625000
-0.0009765625000
-0.0013427734375
0.0036621093750
0.0000000000000
0.0008544921875
-0.0046386718750
-0.0009765625000
-0.0019531250000
-0.0021972656250
-0.0013427734375
0.0007324218750
-0.0001220703125
-0.0009765625000
-0.0009765625000
0.0001220703125
-0.0002441406250
0.0000000000000
-0.0001220703125
-0.0019531250000
0.0000000000000
0.0020751953125
-0.0037841796875
-0.0026855468750
-0.0006103515625
0.0072021484375
0.0045166015625
-0.0035400390625
0.0086669921875
-0.0084228515625
-0.0015869140625
0.0000000000000
-0.0004882812500
-0.0009765625000
-0.0001220703125
0.0137939453125
-0.0001220703125
-0.0009765625000
-0.0012207031250
0.0000000000000
-0.0021972656250
-0.0013427734375
-0.0008544921875
-0.0006103515625
-0.0007324218750
-0.0017089843750
0.0009765625000
-0.0010986328125
-0.0012207031250
-0.0023193359375
-0.0014648437500
0.0000000000000
-0.0001220703125
-0.0004882812500
0.0000000000000
-0.0012207031250
0.0000000000000
-0.0051269531250
-0.0013427734375
-0.0020751953125
-0.0021972656250
-0.0096435546875
0.0008544921875
-0.0001220703125
-0.0008544921875
-0.0025634765625
-0.0003662109375
0.0084228515625
-0.0007324218750
-0.0015869140625
-0.0072021484375
-0.0003662109375
0.0054931640625
-0.0028076171875
-0.0014648437500
-0.0025634765625
0.0000000000000
-0.0004882812500
-0.0009765625000
-0.0032958984375
0.0004882812500
0.0007324218750
0.0000000000000
-0.0013427734375
-0.0004882812500
-0.0030517578125
0.0020751953125
-0.0029296875000
0.0000000000000
-0.0095214843750
0.0008544921875
-0.0010986328125
-0.0079345703125
0.0063476562500
0.0007324218750
0.0009765625000
0.0000000000000
-0.0009765625000
-0.0018310546875
-0.0153808593750
-0.0015869140625
-0.0004882812500
-0.0012207031250
-0.0025634765625
-0.0043945312500
-0.0019531250000
0.0001220703125
-0.0014648437500
-0.0048828125000
-0.0006103515625
-0.0008544921875
-0.0041503906250
-0.0014648437500
-0.0001220703125
-0.0001220703125
0.0000000000000
0.0000000000000
0.0000000000000
0.0007324218750
-0.0040283203125
-0.0012207031250
0.0029296875000
-0.0043945312500
-0.0004882812500
-0.0008544921875
0.0169677734375
0.0030517578125
0.0000000000000
-0.0009765625000
0.0025634765625
-0.0019531250000
0.0042724609375
-0.0001220703125
-0.0013427734375
-0.0043945312500
-0.0002441406250
-0.0029296875000
-0.0002441406250
-0.0012207031250
0.0078125000000
-0.0018310546875
0.0030517578125
0.0004882812500
0.0009765625000
-0.0017089843750
-0.0028076171875
0.0000000000000
-0.0013427734375
-0.0010986328125
-0.0040283203125
0.0052490234375
-0.0009765625000
-0.0003662109375
0.0085449218750
-0.0024414062500
-0.0056152343750
-0.0072021484375
0.0028076171875
-0.0019531250000
-0.0009765625000
0.0000000000000
-0.0019531250000
-0.0007324218750
-0.0024414062500
0.0000000000000
-0.0007324218750
0.0002441406250
-0.0012207031250
-0.0030517578125
0.0000000000000
-0.0006103515625
-0.0067138671875
0.0015869140625
-0.0015869140625
-0.0009765625000
0.0013427734375
-0.0012207031250
-0.0021972656250
-0.0003662109375
0.0000000000000
-0.0006103515625
-0.0008544921875
-0.0004882812500
-0.0029296875000
-0.0008544921875
-0.0010986328125
-0.0008544921875
-0.0006103515625
-0.0012207031250
0.0067138671875
-0.0012207031250
0.0000000000000
-0.0007324218750
-0.0012207031250
-0.0006103515625
0.0025634765625
-0.0013427734375
-0.0002441406250
-0.0002441406250
-0.0007324218750
-0.0029296875000
-0.0019531250000
-0.0009765625000
-0.0007324218750
-0.0003662109375
0.0020751953125
-0.0007324218750
-0.0003662109375
0.0000000000000
-0.0004882812500
0.0000000000000
-0.0012207031250
0.0000000000000
-0.0013427734375
-0.0004882812500
-0.0013427734375
-0.0002441406250
0.0004882812500
-0.0008544921875
-0.0006103515625
-0.0020751953125
-0.0025634765625
-0.0028076171875
0.0000000000000
-0.0001220703125
-0.0008544921875
-0.0008544921875
-0.0003662109375
-0.0009765625000
-0.0007324218750
-0.0006103515625
0.0000000000000
-0.0010986328125
-0.0018310546875
0.0009765625000
-0.0010986328125
0.0020751953125
-0.0004882812500
-0.0007324218750
-0.0009765625000
-0.0009765625000
-0.0006103515625
-0.0010986328125
0.0000000000000
-0.0007324218750
-0.0007324218750
-0.0003662109375
-0.0008544921875
-0.0008544921875
-0.0010986328125
-0.0004882812500
0.0000000000000
-0.0012207031250
-0.0074462890625
-0.0015869140625
0.0000000000000
-0.0006103515625
-0.0008544921875
-0.0006103515625
-0.0029296875000
-0.0007324218750
-0.0007324218750
-0.0012207031250
-0.0003662109375
-0.0012207031250
0.0004882812500
-0.0015869140625
-0.0006103515625
-0.0007324218750
-0.0004882812500
-0.0007324218750
0.0000000000000
0.0000000000000
0.0000000000000
0.0000000000000
-0.0006103515625
-0.0001220703125
-0.0006103515625
-0.0003662109375
-0.0006103515625
-0.0002441406250
-0.0042724609375
-0.0041503906250
-0.0008544921875
-0.0007324218750
-0.0045166015625
-0.0012207031250
0.0000000000000
-0.0001220703125
-0.0007324218750
-0.0004882812500
0.0025634765625
-0.0003662109375
-0.0008544921875
-0.0007324218750
-0.0001220703125
-0.0009765625000
-0.0010986328125
-0.0006103515625
-0.0012207031250
-0.0012207031250
-0.0006103515625
-0.0010986328125
-0.0009765625000
-0.0013427734375
-0.0009765625000
-0.0007324218750
0.0000000000000
-0.0009765625000
-0.0006103515625
-0.0001220703125
-0.0007324218750
-0.0009765625000
-0.0013427734375
-0.0009765625000
-0.0001220703125
-0.0008544921875
-0.0095214843750
0.0012207031250
0.0000000000000
-0.0012207031250
-0.0010986328125
-0.0007324218750
-0.0001220703125
-0.0015869140625
0.0010986328125
-0.0009765625000
0.0002441406250
-0.0013427734375
0.0015869140625
-0.0013427734375
-0.0012207031250
-0.0004882812500
-0.0021972656250
-0.0006103515625
-0.0009765625000
0.0001220703125
-0.0004882812500
-0.0001220703125
-0.0006103515625
-0.0001220703125
-0.0007324218750
-0.0008544921875
-0.0040283203125
-0.0007324218750
-0.0051269531250
-0.0017089843750
-0.0008544921875
0.0041503906250
-0.0072021484375
-0.0023193359375
-0.0001220703125
-0.0002441406250
-0.0006103515625
-0.0009765625000
-0.0056152343750
-0.0006103515625
-0.0004882812500
-0.0008544921875
-0.0002441406250
-0.0009765625000
-0.0012207031250
-0.0009765625000
-0.0010986328125
-0.0008544921875
-0.0006103515625
-0.0008544921875
-0.0015869140625
-0.0030517578125
-0.0009765625000
-0.0001220703125
0.0000000000000
-0.0012207031250
-0.0007324218750
-0.0006103515625
-0.0023193359375
-0.0009765625000
0.0002441406250
-0.0001220703125
-0.0006103515625
-0.0017089843750
-0.0067138671875
-0.0040283203125
0.0000000000000
-0.0004882812500
-0.0019531250000
-0.0014648437500
-0.0037841796875
-0.0028076171875
-0.0001220703125
-0.0017089843750
-0.0010986328125
-0.0009765625000
-0.0019531250000
-0.0012207031250
-0.0012207031250
-0.0007324218750
-0.0010986328125
-0.0009765625000
-0.0019531250000
-0.0006103515625
-0.0007324218750
-0.0001220703125
-0.0017089843750
-0.0002441406250
0.0010986328125
0.0000000000000
-0.0004882812500
-0.0009765625000
0.0070800781250
-0.0021972656250
-0.0034179687500
0.0015869140625
0.0032958984375
-0.0020751953125
-0.0006103515625
-0.0004882812500
-0.0007324218750
-0.0007324218750
0.0131835937500
-0.0003662109375
-0.0008544921875
-0.0007324218750
-0.0006103515625
-0.0008544921875
-0.0013427734375
-0.0006103515625
-0.0001220703125
-0.0008544921875
-0.0026855468750
0.0053710937500
-0.0019531250000
-0.0041503906250
-0.0007324218750
-0.0012207031250
0.0000000000000
-0.0004882812500
-0.0006103515625
0.0000000000000
-0.0024414062500
-0.0012207031250
0.0014648437500
-0.0015869140625
-0.0020751953125
0.0004882812500
-0.0131835937500
0.0030517578125
0.0000000000000
-0.0008544921875
-0.0028076171875
-0.0012207031250
0.0036621093750
0.0009765625000
-0.0008544921875
0.0013427734375
-0.0001220703125
-0.0018310546875
0.0032958984375
-0.0018310546875
0.0010986328125
0.0000000000000
0.0012207031250
-0.0002441406250
-0.0006103515625
-0.0001220703125
0.0000000000000
-0.0003662109375
-0.0012207031250
0.0000000000000
0.0023193359375
0.0000000000000
-0.0045166015625
-0.0007324218750
-0.0009765625000
-0.0040283203125
-0.0032958984375
-0.0080566406250
0.0113525390625
-0.0018310546875
-0.0001220703125
-0.0001220703125
-0.0026855468750
-0.0002441406250
0.0109863281250
-0.0009765625000
-0.0004882812500
-0.0006103515625
-0.0020751953125
-0.0013427734375
-0.0056152343750
-0.0006103515625
-0.0025634765625
-0.0064697265625
-0.0008544921875
0.0035400390625
-0.0009765625000
-0.0014648437500
-0.0009765625000
-0.0034179687500
0.0000000000000
-0.0007324218750
-0.0002441406250
-0.0008544921875
0.0020751953125
-0.0037841796875
-0.0059814453125
-0.0034179687500
-0.0002441406250
-0.0014648437500
0.0058593750000
0.0026855468750
0.0000000000000
-0.0001220703125
-0.0006103515625
-0.0010986328125
0.0015869140625
0.0000000000000
-0.0010986328125
-0.0053710937500
-0.0009765625000
0.0006103515625
-0.0001220703125
-0.0012207031250
-0.0018310546875
-0.0035400390625
0.0000000000000
-0.0013427734375
-0.0036621093750
-0.0006103515625
0.0025634765625
-0.0003662109375
-0.0012207031250
-0.0009765625000
-0.0026855468750
-0.0068359375000
-0.0003662109375
-0.0004882812500
0.0002441406250
-0.0018310546875
-0.0017089843750
-0.0070800781250
-0.0052490234375
-0.0020751953125
-0.0019531250000
0.0000000000000
-0.0010986328125
-0.0001220703125
-0.0040283203125
-0.0058593750000
-0.0008544921875
-0.0003662109375
-0.0017089843750
-0.0020751953125
0.0029296875000
-0.0003662109375
0.0008544921875
0.0030517578125
-0.0006103515625
-0.0040283203125
-0.0031738281250
-0.0008544921875
-0.0013427734375
0.0000000000000
0.0000000000000
-0.0003662109375
-0.0003662109375
0.0000000000000
-0.0015869140625
-0.0006103515625
-0.0008544921875
-0.0006103515625
-0.0009765625000
-0.0013427734375
-0.0140380859375
-0.0025634765625
0.0000000000000
-0.0003662109375
-0.0006103515625
-0.0007324218750
-0.0020751953125
-0.0003662109375
0.0010986328125
-0.0002441406250
-0.0006103515625
-0.0017089843750
-0.0003662109375
-0.0012207031250
-0.0009765625000
-0.0002441406250
-0.0013427734375
-0.0003662109375
-0.0001220703125
-0.0008544921875
-0.0006103515625
-0.0004882812500
-0.0008544921875
-0.0006103515625
0.0000000000000
-0.0007324218750
0.0007324218750
0.0000000000000
-0.0007324218750
-0.0008544921875
-0.0004882812500
-0.0007324218750
0.0037841796875
0.0014648437500
-0.0004882812500
-0.0001220703125
-0.0003662109375
-0.0003662109375
0.0102539062500
-0.0006103515625
0.0000000000000
-0.0006103515625
-0.0004882812500
-0.0007324218750
-0.0014648437500
-0.0021972656250
-0.0006103515625
0.0000000000000
-0.0003662109375
-0.0003662109375
-0.0023193359375
-0.0009765625000
-0.0006103515625
-0.0009765625000
0.0000000000000
-0.0002441406250
-0.0007324218750
0.0000000000000
-0.0007324218750
-0.0006103515625
-0.0012207031250
-0.0010986328125
0.0000000000000
-0.0007324218750
-0.0002441406250
0.0000000000000
0.0000000000000
-0.0002441406250
-0.0018310546875
-0.0006103515625
-0.0009765625000
-0.0006103515625
-0.0002441406250
0.0003662109375
0.0000000000000
-0.0006103515625
-0.0007324218750
-0.0013427734375
-0.0003662109375
-0.0001220703125
-0.0004882812500
-0.0002441406250
-0.0010986328125
0.0000000000000
0.0000000000000
0.0000000000000
-0.0002441406250
0.0000000000000
-0.0006103515625
-0.0012207031250
-0.0006103515625
-0.0003662109375
0.0028076171875
-0.0003662109375
-0.0010986328125
-0.0020751953125
-0.0041503906250
-0.0013427734375
0.0000000000000
-0.0001220703125
-0.0004882812500
-0.0003662109375
-0.0029296875000
-0.0009765625000
-0.0013427734375
-0.0008544921875
-0.0006103515625
-0.0012207031250
-0.0010986328125
-0.0004882812500
-0.0013427734375
-0.0001220703125
-0.0012207031250
-0.0012207031250
-0.0008544921875
-0.0019531250000
-0.0006103515625
-0.0001220703125
0.0000000000000
-0.0004882812500
-0.0009765625000
-0.0007324218750
-0.0021972656250
-0.0009765625000
-0.0010986328125
-0.0007324218750
-0.0006103515625
-0.0013427734375
-0.0024414062500
0.0023193359375
0.0000000000000
-0.0010986328125
-0.0008544921875
-0.0015869140625
-0.0029296875000
-0.0001220703125
-0.0012207031250
-0.0012207031250
-0.0007324218750
-0.0014648437500
-0.0013427734375
-0.0009765625000
-0.0012207031250
-0.0009765625000
-0.0012207031250
-0.0008544921875
-0.0012207031250
-0.0009765625000
-0.0007324218750
-0.0004882812500
-0.0007324218750
-0.0006103515625
-0.0006103515625
-0.0007324218750
-0.0009765625000
-0.0004882812500
-0.0047607421875
0.0002441406250
-0.0006103515625
-0.0028076171875
0.0000000000000
-0.0014648437500
-0.0018310546875
-0.0007324218750
-0.0012207031250
0.0000000000000
-0.0097656250000
-0.0002441406250
0.0000000000000
-0.0009765625000
-0.0009765625000
-0.0015869140625
-0.0014648437500
-0.0010986328125
-0.0004882812500
0.0019531250000
-0.0010986328125
-0.0012207031250
-0.0009765625000
-0.0013427734375
-0.0007324218750
-0.0009765625000
0.0000000000000
-0.0030517578125
-0.0017089843750
-0.0003662109375
0.0008544921875
-0.0012207031250
-0.0020751953125
-0.0014648437500
-0.0002441406250
-0.0021972656250
-0.0075683593750
-0.0028076171875
0.0000000000000
